digraph Tree {
node [shape=box, style="filled", color="black"] ;
0 [label="sdComp <= 0.65\ngini = 0.451\nsamples = 28293\nvalue = [9724, 18569]\nclass = True", fillcolor="#a1d0f3"] ;
1 [label="nbproc <= 4.5\ngini = 0.488\nsamples = 14767\nvalue = [6218, 8549]\nclass = True", fillcolor="#c9e4f8"] ;
0 -> 1 [labeldistance=2.5, labelangle=45, headlabel="True"] ;
2 [label="graphDepth <= 3.5\ngini = 0.45\nsamples = 3607\nvalue = [1234, 2373]\nclass = True", fillcolor="#a0d0f3"] ;
1 -> 2 ;
3 [label="sdComm <= 0.02\ngini = 0.216\nsamples = 357\nvalue = [44, 313]\nclass = True", fillcolor="#55abe9"] ;
2 -> 3 ;
4 [label="gini = 0.0\nsamples = 88\nvalue = [0, 88]\nclass = True", fillcolor="#399de5"] ;
3 -> 4 ;
5 [label="sdComp <= 0.065\ngini = 0.274\nsamples = 269\nvalue = [44, 225]\nclass = True", fillcolor="#60b0ea"] ;
3 -> 5 ;
6 [label="gini = 0.0\nsamples = 44\nvalue = [0, 44]\nclass = True", fillcolor="#399de5"] ;
5 -> 6 ;
7 [label="sdComm <= 0.65\ngini = 0.315\nsamples = 225\nvalue = [44, 181]\nclass = True", fillcolor="#69b5eb"] ;
5 -> 7 ;
8 [label="sdComp <= 0.2\ngini = 0.344\nsamples = 199\nvalue = [44, 155]\nclass = True", fillcolor="#71b9ec"] ;
7 -> 8 ;
9 [label="CCR <= 0.55\ngini = 0.292\nsamples = 169\nvalue = [30, 139]\nclass = True", fillcolor="#64b2eb"] ;
8 -> 9 ;
10 [label="sdComm <= 0.065\ngini = 0.325\nsamples = 147\nvalue = [30, 117]\nclass = True", fillcolor="#6cb6ec"] ;
9 -> 10 ;
11 [label="gini = 0.311\nsamples = 114\nvalue = [22, 92]\nclass = True", fillcolor="#68b4eb"] ;
10 -> 11 ;
12 [label="gini = 0.367\nsamples = 33\nvalue = [8, 25]\nclass = True", fillcolor="#78bced"] ;
10 -> 12 ;
13 [label="gini = 0.0\nsamples = 22\nvalue = [0, 22]\nclass = True", fillcolor="#399de5"] ;
9 -> 13 ;
14 [label="sdComm <= 0.2\ngini = 0.498\nsamples = 30\nvalue = [14, 16]\nclass = True", fillcolor="#e6f3fc"] ;
8 -> 14 ;
15 [label="gini = 0.49\nsamples = 14\nvalue = [6, 8]\nclass = True", fillcolor="#cee6f8"] ;
14 -> 15 ;
16 [label="gini = 0.5\nsamples = 16\nvalue = [8, 8]\nclass = False", fillcolor="#ffffff"] ;
14 -> 16 ;
17 [label="gini = 0.0\nsamples = 26\nvalue = [0, 26]\nclass = True", fillcolor="#399de5"] ;
7 -> 17 ;
18 [label="sdComm <= 0.02\ngini = 0.464\nsamples = 3250\nvalue = [1190, 2060]\nclass = True", fillcolor="#abd6f4"] ;
2 -> 18 ;
19 [label="sdComp <= 0.065\ngini = 0.39\nsamples = 550\nvalue = [146, 404]\nclass = True", fillcolor="#81c0ee"] ;
18 -> 19 ;
20 [label="graphDepth <= 13.5\ngini = 0.492\nsamples = 270\nvalue = [118, 152]\nclass = True", fillcolor="#d3e9f9"] ;
19 -> 20 ;
21 [label="graphSize <= 40.0\ngini = 0.496\nsamples = 258\nvalue = [118, 140]\nclass = True", fillcolor="#e0f0fb"] ;
20 -> 21 ;
22 [label="graphSize <= 22.5\ngini = 0.492\nsamples = 242\nvalue = [106, 136]\nclass = True", fillcolor="#d3e9f9"] ;
21 -> 22 ;
23 [label="sdComp <= 0.02\ngini = 0.496\nsamples = 214\nvalue = [98, 116]\nclass = True", fillcolor="#e0f0fb"] ;
22 -> 23 ;
24 [label="gini = 0.494\nsamples = 18\nvalue = [8, 10]\nclass = True", fillcolor="#d7ebfa"] ;
23 -> 24 ;
25 [label="gini = 0.497\nsamples = 196\nvalue = [90, 106]\nclass = True", fillcolor="#e1f0fb"] ;
23 -> 25 ;
26 [label="graphDepth <= 7.5\ngini = 0.408\nsamples = 28\nvalue = [8, 20]\nclass = True", fillcolor="#88c4ef"] ;
22 -> 26 ;
27 [label="sdComp <= 0.02\ngini = 0.219\nsamples = 16\nvalue = [2, 14]\nclass = True", fillcolor="#55abe9"] ;
26 -> 27 ;
28 [label="gini = 0.0\nsamples = 12\nvalue = [0, 12]\nclass = True", fillcolor="#399de5"] ;
27 -> 28 ;
29 [label="gini = 0.5\nsamples = 4\nvalue = [2, 2]\nclass = False", fillcolor="#ffffff"] ;
27 -> 29 ;
30 [label="gini = 0.5\nsamples = 12\nvalue = [6, 6]\nclass = False", fillcolor="#ffffff"] ;
26 -> 30 ;
31 [label="gini = 0.375\nsamples = 16\nvalue = [12, 4]\nclass = False", fillcolor="#eeab7b"] ;
21 -> 31 ;
32 [label="gini = 0.0\nsamples = 12\nvalue = [0, 12]\nclass = True", fillcolor="#399de5"] ;
20 -> 32 ;
33 [label="graphDepth <= 11.0\ngini = 0.18\nsamples = 280\nvalue = [28, 252]\nclass = True", fillcolor="#4fa8e8"] ;
19 -> 33 ;
34 [label="gini = 0.163\nsamples = 268\nvalue = [24, 244]\nclass = True", fillcolor="#4ca7e8"] ;
33 -> 34 ;
35 [label="gini = 0.444\nsamples = 12\nvalue = [4, 8]\nclass = True", fillcolor="#9ccef2"] ;
33 -> 35 ;
36 [label="graphSize <= 75.0\ngini = 0.474\nsamples = 2700\nvalue = [1044, 1656]\nclass = True", fillcolor="#b6dbf5"] ;
18 -> 36 ;
37 [label="sdComm <= 0.2\ngini = 0.478\nsamples = 2576\nvalue = [1020, 1556]\nclass = True", fillcolor="#bbddf6"] ;
36 -> 37 ;
38 [label="graphSize <= 22.5\ngini = 0.486\nsamples = 1876\nvalue = [782, 1094]\nclass = True", fillcolor="#c7e3f8"] ;
37 -> 38 ;
39 [label="sdComm <= 0.065\ngini = 0.491\nsamples = 1324\nvalue = [572, 752]\nclass = True", fillcolor="#d0e8f9"] ;
38 -> 39 ;
40 [label="sdComp <= 0.065\ngini = 0.486\nsamples = 624\nvalue = [260, 364]\nclass = True", fillcolor="#c6e3f8"] ;
39 -> 40 ;
41 [label="sdComp <= 0.02\ngini = 0.495\nsamples = 230\nvalue = [104, 126]\nclass = True", fillcolor="#dceefa"] ;
40 -> 41 ;
42 [label="gini = 0.495\nsamples = 174\nvalue = [78, 96]\nclass = True", fillcolor="#daedfa"] ;
41 -> 42 ;
43 [label="gini = 0.497\nsamples = 56\nvalue = [26, 30]\nclass = True", fillcolor="#e5f2fc"] ;
41 -> 43 ;
44 [label="gini = 0.478\nsamples = 394\nvalue = [156, 238]\nclass = True", fillcolor="#bbddf6"] ;
40 -> 44 ;
45 [label="sdComp <= 0.2\ngini = 0.494\nsamples = 700\nvalue = [312, 388]\nclass = True", fillcolor="#d8ecfa"] ;
39 -> 45 ;
46 [label="sdComp <= 0.02\ngini = 0.497\nsamples = 496\nvalue = [228, 268]\nclass = True", fillcolor="#e1f0fb"] ;
45 -> 46 ;
47 [label="gini = 0.375\nsamples = 8\nvalue = [2, 6]\nclass = True", fillcolor="#7bbeee"] ;
46 -> 47 ;
48 [label="CCR <= 0.55\ngini = 0.497\nsamples = 488\nvalue = [226, 262]\nclass = True", fillcolor="#e4f2fb"] ;
46 -> 48 ;
49 [label="sdComp <= 0.065\ngini = 0.496\nsamples = 256\nvalue = [116, 140]\nclass = True", fillcolor="#ddeefb"] ;
48 -> 49 ;
50 [label="gini = 0.5\nsamples = 28\nvalue = [14, 14]\nclass = False", fillcolor="#ffffff"] ;
49 -> 50 ;
51 [label="gini = 0.494\nsamples = 228\nvalue = [102, 126]\nclass = True", fillcolor="#d9ecfa"] ;
49 -> 51 ;
52 [label="gini = 0.499\nsamples = 232\nvalue = [110, 122]\nclass = True", fillcolor="#ecf5fc"] ;
48 -> 52 ;
53 [label="gini = 0.484\nsamples = 204\nvalue = [84, 120]\nclass = True", fillcolor="#c4e2f7"] ;
45 -> 53 ;
54 [label="graphDepth <= 9.0\ngini = 0.471\nsamples = 552\nvalue = [210, 342]\nclass = True", fillcolor="#b3d9f5"] ;
38 -> 54 ;
55 [label="CCR <= 0.55\ngini = 0.353\nsamples = 140\nvalue = [32, 108]\nclass = True", fillcolor="#74baed"] ;
54 -> 55 ;
56 [label="sdComp <= 0.02\ngini = 0.188\nsamples = 76\nvalue = [8, 68]\nclass = True", fillcolor="#50a9e8"] ;
55 -> 56 ;
57 [label="gini = 0.0\nsamples = 30\nvalue = [0, 30]\nclass = True", fillcolor="#399de5"] ;
56 -> 57 ;
58 [label="sdComp <= 0.065\ngini = 0.287\nsamples = 46\nvalue = [8, 38]\nclass = True", fillcolor="#63b2ea"] ;
56 -> 58 ;
59 [label="gini = 0.426\nsamples = 26\nvalue = [8, 18]\nclass = True", fillcolor="#91c9f1"] ;
58 -> 59 ;
60 [label="gini = 0.0\nsamples = 20\nvalue = [0, 20]\nclass = True", fillcolor="#399de5"] ;
58 -> 60 ;
61 [label="sdComp <= 0.2\ngini = 0.469\nsamples = 64\nvalue = [24, 40]\nclass = True", fillcolor="#b0d8f5"] ;
55 -> 61 ;
62 [label="gini = 0.496\nsamples = 44\nvalue = [20, 24]\nclass = True", fillcolor="#deeffb"] ;
61 -> 62 ;
63 [label="graphDepth <= 6.5\ngini = 0.32\nsamples = 20\nvalue = [4, 16]\nclass = True", fillcolor="#6ab6ec"] ;
61 -> 63 ;
64 [label="gini = 0.346\nsamples = 18\nvalue = [4, 14]\nclass = True", fillcolor="#72b9ec"] ;
63 -> 64 ;
65 [label="gini = 0.0\nsamples = 2\nvalue = [0, 2]\nclass = True", fillcolor="#399de5"] ;
63 -> 65 ;
66 [label="sdComp <= 0.065\ngini = 0.491\nsamples = 412\nvalue = [178, 234]\nclass = True", fillcolor="#d0e8f9"] ;
54 -> 66 ;
67 [label="graphSize <= 40.0\ngini = 0.498\nsamples = 226\nvalue = [106, 120]\nclass = True", fillcolor="#e8f4fc"] ;
66 -> 67 ;
68 [label="sdComm <= 0.065\ngini = 0.494\nsamples = 130\nvalue = [58, 72]\nclass = True", fillcolor="#d9ecfa"] ;
67 -> 68 ;
69 [label="sdComp <= 0.02\ngini = 0.499\nsamples = 84\nvalue = [40, 44]\nclass = True", fillcolor="#edf6fd"] ;
68 -> 69 ;
70 [label="gini = 0.498\nsamples = 68\nvalue = [32, 36]\nclass = True", fillcolor="#e9f4fc"] ;
69 -> 70 ;
71 [label="gini = 0.5\nsamples = 16\nvalue = [8, 8]\nclass = False", fillcolor="#ffffff"] ;
69 -> 71 ;
72 [label="sdComp <= 0.02\ngini = 0.476\nsamples = 46\nvalue = [18, 28]\nclass = True", fillcolor="#b8dcf6"] ;
68 -> 72 ;
73 [label="gini = 0.483\nsamples = 44\nvalue = [18, 26]\nclass = True", fillcolor="#c2e1f7"] ;
72 -> 73 ;
74 [label="gini = 0.0\nsamples = 2\nvalue = [0, 2]\nclass = True", fillcolor="#399de5"] ;
72 -> 74 ;
75 [label="sdComp <= 0.02\ngini = 0.5\nsamples = 96\nvalue = [48, 48]\nclass = False", fillcolor="#ffffff"] ;
67 -> 75 ;
76 [label="sdComm <= 0.065\ngini = 0.499\nsamples = 84\nvalue = [40, 44]\nclass = True", fillcolor="#edf6fd"] ;
75 -> 76 ;
77 [label="gini = 0.48\nsamples = 20\nvalue = [8, 12]\nclass = True", fillcolor="#bddef6"] ;
76 -> 77 ;
78 [label="gini = 0.5\nsamples = 64\nvalue = [32, 32]\nclass = False", fillcolor="#ffffff"] ;
76 -> 78 ;
79 [label="gini = 0.444\nsamples = 12\nvalue = [8, 4]\nclass = False", fillcolor="#f2c09c"] ;
75 -> 79 ;
80 [label="CCR <= 0.55\ngini = 0.475\nsamples = 186\nvalue = [72, 114]\nclass = True", fillcolor="#b6dbf5"] ;
66 -> 80 ;
81 [label="gini = 0.0\nsamples = 32\nvalue = [0, 32]\nclass = True", fillcolor="#399de5"] ;
80 -> 81 ;
82 [label="sdComp <= 0.2\ngini = 0.498\nsamples = 154\nvalue = [72, 82]\nclass = True", fillcolor="#e7f3fc"] ;
80 -> 82 ;
83 [label="graphDepth <= 13.5\ngini = 0.494\nsamples = 76\nvalue = [34, 42]\nclass = True", fillcolor="#d9ecfa"] ;
82 -> 83 ;
84 [label="gini = 0.5\nsamples = 56\nvalue = [28, 28]\nclass = False", fillcolor="#ffffff"] ;
83 -> 84 ;
85 [label="gini = 0.42\nsamples = 20\nvalue = [6, 14]\nclass = True", fillcolor="#8ec7f0"] ;
83 -> 85 ;
86 [label="graphDepth <= 13.5\ngini = 0.5\nsamples = 78\nvalue = [38, 40]\nclass = True", fillcolor="#f5fafe"] ;
82 -> 86 ;
87 [label="gini = 0.483\nsamples = 44\nvalue = [18, 26]\nclass = True", fillcolor="#c2e1f7"] ;
86 -> 87 ;
88 [label="gini = 0.484\nsamples = 34\nvalue = [20, 14]\nclass = False", fillcolor="#f7d9c4"] ;
86 -> 88 ;
89 [label="graphSize <= 40.0\ngini = 0.449\nsamples = 700\nvalue = [238, 462]\nclass = True", fillcolor="#9fcff2"] ;
37 -> 89 ;
90 [label="sdComp <= 0.2\ngini = 0.456\nsamples = 620\nvalue = [218, 402]\nclass = True", fillcolor="#a4d2f3"] ;
89 -> 90 ;
91 [label="sdComm <= 0.65\ngini = 0.475\nsamples = 334\nvalue = [130, 204]\nclass = True", fillcolor="#b7dbf6"] ;
90 -> 91 ;
92 [label="graphSize <= 22.5\ngini = 0.4\nsamples = 232\nvalue = [64, 168]\nclass = True", fillcolor="#84c2ef"] ;
91 -> 92 ;
93 [label="gini = 0.343\nsamples = 164\nvalue = [36, 128]\nclass = True", fillcolor="#71b9ec"] ;
92 -> 93 ;
94 [label="graphDepth <= 7.5\ngini = 0.484\nsamples = 68\nvalue = [28, 40]\nclass = True", fillcolor="#c4e2f7"] ;
92 -> 94 ;
95 [label="gini = 0.497\nsamples = 52\nvalue = [24, 28]\nclass = True", fillcolor="#e3f1fb"] ;
94 -> 95 ;
96 [label="gini = 0.375\nsamples = 16\nvalue = [4, 12]\nclass = True", fillcolor="#7bbeee"] ;
94 -> 96 ;
97 [label="graphDepth <= 7.5\ngini = 0.457\nsamples = 102\nvalue = [66, 36]\nclass = False", fillcolor="#f3c6a5"] ;
91 -> 97 ;
98 [label="graphSize <= 22.5\ngini = 0.473\nsamples = 78\nvalue = [48, 30]\nclass = False", fillcolor="#f5d0b5"] ;
97 -> 98 ;
99 [label="gini = 0.444\nsamples = 72\nvalue = [48, 24]\nclass = False", fillcolor="#f2c09c"] ;
98 -> 99 ;
100 [label="gini = 0.0\nsamples = 6\nvalue = [0, 6]\nclass = True", fillcolor="#399de5"] ;
98 -> 100 ;
101 [label="gini = 0.375\nsamples = 24\nvalue = [18, 6]\nclass = False", fillcolor="#eeab7b"] ;
97 -> 101 ;
102 [label="sdComm <= 0.65\ngini = 0.426\nsamples = 286\nvalue = [88, 198]\nclass = True", fillcolor="#91c9f1"] ;
90 -> 102 ;
103 [label="graphSize <= 22.5\ngini = 0.487\nsamples = 100\nvalue = [42, 58]\nclass = True", fillcolor="#c8e4f8"] ;
102 -> 103 ;
104 [label="gini = 0.5\nsamples = 36\nvalue = [18, 18]\nclass = False", fillcolor="#ffffff"] ;
103 -> 104 ;
105 [label="graphDepth <= 7.5\ngini = 0.469\nsamples = 64\nvalue = [24, 40]\nclass = True", fillcolor="#b0d8f5"] ;
103 -> 105 ;
106 [label="gini = 0.0\nsamples = 8\nvalue = [0, 8]\nclass = True", fillcolor="#399de5"] ;
105 -> 106 ;
107 [label="gini = 0.49\nsamples = 56\nvalue = [24, 32]\nclass = True", fillcolor="#cee6f8"] ;
105 -> 107 ;
108 [label="graphDepth <= 7.5\ngini = 0.372\nsamples = 186\nvalue = [46, 140]\nclass = True", fillcolor="#7abdee"] ;
102 -> 108 ;
109 [label="graphSize <= 22.5\ngini = 0.25\nsamples = 82\nvalue = [12, 70]\nclass = True", fillcolor="#5baee9"] ;
108 -> 109 ;
110 [label="gini = 0.26\nsamples = 78\nvalue = [12, 66]\nclass = True", fillcolor="#5dafea"] ;
109 -> 110 ;
111 [label="gini = 0.0\nsamples = 4\nvalue = [0, 4]\nclass = True", fillcolor="#399de5"] ;
109 -> 111 ;
112 [label="gini = 0.44\nsamples = 104\nvalue = [34, 70]\nclass = True", fillcolor="#99cdf2"] ;
108 -> 112 ;
113 [label="sdComp <= 0.2\ngini = 0.375\nsamples = 80\nvalue = [20, 60]\nclass = True", fillcolor="#7bbeee"] ;
89 -> 113 ;
114 [label="gini = 0.0\nsamples = 36\nvalue = [0, 36]\nclass = True", fillcolor="#399de5"] ;
113 -> 114 ;
115 [label="sdComm <= 0.65\ngini = 0.496\nsamples = 44\nvalue = [20, 24]\nclass = True", fillcolor="#deeffb"] ;
113 -> 115 ;
116 [label="graphDepth <= 12.5\ngini = 0.494\nsamples = 36\nvalue = [20, 16]\nclass = False", fillcolor="#fae6d7"] ;
115 -> 116 ;
117 [label="gini = 0.5\nsamples = 8\nvalue = [4, 4]\nclass = False", fillcolor="#ffffff"] ;
116 -> 117 ;
118 [label="gini = 0.49\nsamples = 28\nvalue = [16, 12]\nclass = False", fillcolor="#f8e0ce"] ;
116 -> 118 ;
119 [label="gini = 0.0\nsamples = 8\nvalue = [0, 8]\nclass = True", fillcolor="#399de5"] ;
115 -> 119 ;
120 [label="CCR <= 0.55\ngini = 0.312\nsamples = 124\nvalue = [24, 100]\nclass = True", fillcolor="#69b5eb"] ;
36 -> 120 ;
121 [label="sdComp <= 0.02\ngini = 0.111\nsamples = 34\nvalue = [2, 32]\nclass = True", fillcolor="#45a3e7"] ;
120 -> 121 ;
122 [label="sdComm <= 0.065\ngini = 0.278\nsamples = 12\nvalue = [2, 10]\nclass = True", fillcolor="#61b1ea"] ;
121 -> 122 ;
123 [label="gini = 0.0\nsamples = 2\nvalue = [0, 2]\nclass = True", fillcolor="#399de5"] ;
122 -> 123 ;
124 [label="gini = 0.32\nsamples = 10\nvalue = [2, 8]\nclass = True", fillcolor="#6ab6ec"] ;
122 -> 124 ;
125 [label="gini = 0.0\nsamples = 22\nvalue = [0, 22]\nclass = True", fillcolor="#399de5"] ;
121 -> 125 ;
126 [label="sdComm <= 0.65\ngini = 0.369\nsamples = 90\nvalue = [22, 68]\nclass = True", fillcolor="#79bded"] ;
120 -> 126 ;
127 [label="sdComm <= 0.2\ngini = 0.405\nsamples = 78\nvalue = [22, 56]\nclass = True", fillcolor="#87c4ef"] ;
126 -> 127 ;
128 [label="sdComp <= 0.2\ngini = 0.388\nsamples = 38\nvalue = [10, 28]\nclass = True", fillcolor="#80c0ee"] ;
127 -> 128 ;
129 [label="gini = 0.198\nsamples = 18\nvalue = [2, 16]\nclass = True", fillcolor="#52a9e8"] ;
128 -> 129 ;
130 [label="gini = 0.48\nsamples = 20\nvalue = [8, 12]\nclass = True", fillcolor="#bddef6"] ;
128 -> 130 ;
131 [label="sdComp <= 0.2\ngini = 0.42\nsamples = 40\nvalue = [12, 28]\nclass = True", fillcolor="#8ec7f0"] ;
127 -> 131 ;
132 [label="gini = 0.469\nsamples = 32\nvalue = [12, 20]\nclass = True", fillcolor="#b0d8f5"] ;
131 -> 132 ;
133 [label="gini = 0.0\nsamples = 8\nvalue = [0, 8]\nclass = True", fillcolor="#399de5"] ;
131 -> 133 ;
134 [label="gini = 0.0\nsamples = 12\nvalue = [0, 12]\nclass = True", fillcolor="#399de5"] ;
126 -> 134 ;
135 [label="graphSize <= 22.5\ngini = 0.494\nsamples = 11160\nvalue = [4984, 6176]\nclass = True", fillcolor="#d9ecfa"] ;
1 -> 135 ;
136 [label="graphDepth <= 3.5\ngini = 0.498\nsamples = 7290\nvalue = [3418, 3872]\nclass = True", fillcolor="#e8f4fc"] ;
135 -> 136 ;
137 [label="sdComp <= 0.065\ngini = 0.493\nsamples = 1502\nvalue = [664, 838]\nclass = True", fillcolor="#d6ebfa"] ;
136 -> 137 ;
138 [label="sdComm <= 0.02\ngini = 0.391\nsamples = 218\nvalue = [58, 160]\nclass = True", fillcolor="#81c1ee"] ;
137 -> 138 ;
139 [label="sdComp <= 0.02\ngini = 0.256\nsamples = 106\nvalue = [16, 90]\nclass = True", fillcolor="#5caeea"] ;
138 -> 139 ;
140 [label="gini = 0.375\nsamples = 48\nvalue = [12, 36]\nclass = True", fillcolor="#7bbeee"] ;
139 -> 140 ;
141 [label="gini = 0.128\nsamples = 58\nvalue = [4, 54]\nclass = True", fillcolor="#48a4e7"] ;
139 -> 141 ;
142 [label="sdComp <= 0.02\ngini = 0.469\nsamples = 112\nvalue = [42, 70]\nclass = True", fillcolor="#b0d8f5"] ;
138 -> 142 ;
143 [label="sdComm <= 0.065\ngini = 0.18\nsamples = 20\nvalue = [2, 18]\nclass = True", fillcolor="#4fa8e8"] ;
142 -> 143 ;
144 [label="gini = 0.5\nsamples = 4\nvalue = [2, 2]\nclass = False", fillcolor="#ffffff"] ;
143 -> 144 ;
145 [label="gini = 0.0\nsamples = 16\nvalue = [0, 16]\nclass = True", fillcolor="#399de5"] ;
143 -> 145 ;
146 [label="sdComm <= 0.065\ngini = 0.491\nsamples = 92\nvalue = [40, 52]\nclass = True", fillcolor="#d1e8f9"] ;
142 -> 146 ;
147 [label="gini = 0.408\nsamples = 28\nvalue = [8, 20]\nclass = True", fillcolor="#88c4ef"] ;
146 -> 147 ;
148 [label="gini = 0.5\nsamples = 64\nvalue = [32, 32]\nclass = False", fillcolor="#ffffff"] ;
146 -> 148 ;
149 [label="sdComp <= 0.2\ngini = 0.498\nsamples = 1284\nvalue = [606, 678]\nclass = True", fillcolor="#eaf5fc"] ;
137 -> 149 ;
150 [label="sdComm <= 0.55\ngini = 0.5\nsamples = 1184\nvalue = [576, 608]\nclass = True", fillcolor="#f5fafe"] ;
149 -> 150 ;
151 [label="sdComm <= 0.02\ngini = 0.499\nsamples = 1018\nvalue = [486, 532]\nclass = True", fillcolor="#eef7fd"] ;
150 -> 151 ;
152 [label="gini = 0.5\nsamples = 368\nvalue = [184, 184]\nclass = False", fillcolor="#ffffff"] ;
151 -> 152 ;
153 [label="sdComm <= 0.065\ngini = 0.497\nsamples = 650\nvalue = [302, 348]\nclass = True", fillcolor="#e5f2fc"] ;
151 -> 153 ;
154 [label="gini = 0.493\nsamples = 196\nvalue = [86, 110]\nclass = True", fillcolor="#d4eaf9"] ;
153 -> 154 ;
155 [label="gini = 0.499\nsamples = 454\nvalue = [216, 238]\nclass = True", fillcolor="#edf6fd"] ;
153 -> 155 ;
156 [label="gini = 0.496\nsamples = 166\nvalue = [90, 76]\nclass = False", fillcolor="#fbebe0"] ;
150 -> 156 ;
157 [label="sdComm <= 0.65\ngini = 0.42\nsamples = 100\nvalue = [30, 70]\nclass = True", fillcolor="#8ec7f0"] ;
149 -> 157 ;
158 [label="sdComm <= 0.2\ngini = 0.497\nsamples = 48\nvalue = [22, 26]\nclass = True", fillcolor="#e1f0fb"] ;
157 -> 158 ;
159 [label="gini = 0.0\nsamples = 4\nvalue = [0, 4]\nclass = True", fillcolor="#399de5"] ;
158 -> 159 ;
160 [label="gini = 0.5\nsamples = 44\nvalue = [22, 22]\nclass = False", fillcolor="#ffffff"] ;
158 -> 160 ;
161 [label="gini = 0.26\nsamples = 52\nvalue = [8, 44]\nclass = True", fillcolor="#5dafea"] ;
157 -> 161 ;
162 [label="sdComp <= 0.065\ngini = 0.499\nsamples = 5788\nvalue = [2754, 3034]\nclass = True", fillcolor="#edf6fd"] ;
136 -> 162 ;
163 [label="sdComm <= 0.02\ngini = 0.5\nsamples = 1828\nvalue = [934, 894]\nclass = False", fillcolor="#fefaf7"] ;
162 -> 163 ;
164 [label="sdComp <= 0.02\ngini = 0.498\nsamples = 580\nvalue = [310, 270]\nclass = False", fillcolor="#fcefe5"] ;
163 -> 164 ;
165 [label="gini = 0.5\nsamples = 144\nvalue = [72, 72]\nclass = False", fillcolor="#ffffff"] ;
164 -> 165 ;
166 [label="gini = 0.496\nsamples = 436\nvalue = [238, 198]\nclass = False", fillcolor="#fbeade"] ;
164 -> 166 ;
167 [label="sdComm <= 0.065\ngini = 0.5\nsamples = 1248\nvalue = [624, 624]\nclass = False", fillcolor="#ffffff"] ;
163 -> 167 ;
168 [label="sdComp <= 0.02\ngini = 0.5\nsamples = 840\nvalue = [420, 420]\nclass = False", fillcolor="#ffffff"] ;
167 -> 168 ;
169 [label="gini = 0.5\nsamples = 440\nvalue = [220, 220]\nclass = False", fillcolor="#ffffff"] ;
168 -> 169 ;
170 [label="gini = 0.5\nsamples = 400\nvalue = [200, 200]\nclass = False", fillcolor="#ffffff"] ;
168 -> 170 ;
171 [label="sdComp <= 0.02\ngini = 0.5\nsamples = 408\nvalue = [204, 204]\nclass = False", fillcolor="#ffffff"] ;
167 -> 171 ;
172 [label="gini = 0.5\nsamples = 152\nvalue = [76, 76]\nclass = False", fillcolor="#ffffff"] ;
171 -> 172 ;
173 [label="gini = 0.5\nsamples = 256\nvalue = [128, 128]\nclass = False", fillcolor="#ffffff"] ;
171 -> 173 ;
174 [label="sdComm <= 0.02\ngini = 0.497\nsamples = 3960\nvalue = [1820, 2140]\nclass = True", fillcolor="#e1f0fb"] ;
162 -> 174 ;
175 [label="gini = 0.5\nsamples = 768\nvalue = [380, 388]\nclass = True", fillcolor="#fbfdfe"] ;
174 -> 175 ;
176 [label="sdComm <= 0.065\ngini = 0.495\nsamples = 3192\nvalue = [1440, 1752]\nclass = True", fillcolor="#dceefa"] ;
174 -> 176 ;
177 [label="gini = 0.477\nsamples = 776\nvalue = [304, 472]\nclass = True", fillcolor="#b9dcf6"] ;
176 -> 177 ;
178 [label="CCR <= 0.55\ngini = 0.498\nsamples = 2416\nvalue = [1136, 1280]\nclass = True", fillcolor="#e9f4fc"] ;
176 -> 178 ;
179 [label="gini = 0.496\nsamples = 1014\nvalue = [462, 552]\nclass = True", fillcolor="#dfeffb"] ;
178 -> 179 ;
180 [label="sdComm <= 0.2\ngini = 0.499\nsamples = 1402\nvalue = [674, 728]\nclass = True", fillcolor="#f0f8fd"] ;
178 -> 180 ;
181 [label="sdComp <= 0.2\ngini = 0.499\nsamples = 228\nvalue = [118, 110]\nclass = False", fillcolor="#fdf6f2"] ;
180 -> 181 ;
182 [label="gini = 0.497\nsamples = 152\nvalue = [82, 70]\nclass = False", fillcolor="#fbede2"] ;
181 -> 182 ;
183 [label="gini = 0.499\nsamples = 76\nvalue = [36, 40]\nclass = True", fillcolor="#ebf5fc"] ;
181 -> 183 ;
184 [label="sdComm <= 0.65\ngini = 0.499\nsamples = 1174\nvalue = [556, 618]\nclass = True", fillcolor="#ebf5fc"] ;
180 -> 184 ;
185 [label="sdComp <= 0.2\ngini = 0.496\nsamples = 524\nvalue = [240, 284]\nclass = True", fillcolor="#e0f0fb"] ;
184 -> 185 ;
186 [label="gini = 0.497\nsamples = 332\nvalue = [154, 178]\nclass = True", fillcolor="#e4f2fb"] ;
185 -> 186 ;
187 [label="gini = 0.495\nsamples = 192\nvalue = [86, 106]\nclass = True", fillcolor="#daedfa"] ;
185 -> 187 ;
188 [label="sdComp <= 0.2\ngini = 0.5\nsamples = 650\nvalue = [316, 334]\nclass = True", fillcolor="#f4fafe"] ;
184 -> 188 ;
189 [label="gini = 0.5\nsamples = 188\nvalue = [94, 94]\nclass = False", fillcolor="#ffffff"] ;
188 -> 189 ;
190 [label="gini = 0.499\nsamples = 462\nvalue = [222, 240]\nclass = True", fillcolor="#f0f8fd"] ;
188 -> 190 ;
191 [label="sdComp <= 0.065\ngini = 0.482\nsamples = 3870\nvalue = [1566, 2304]\nclass = True", fillcolor="#c0e0f7"] ;
135 -> 191 ;
192 [label="graphSize <= 40.0\ngini = 0.497\nsamples = 1238\nvalue = [574, 664]\nclass = True", fillcolor="#e4f2fb"] ;
191 -> 192 ;
193 [label="sdComm <= 0.02\ngini = 0.5\nsamples = 684\nvalue = [346, 338]\nclass = False", fillcolor="#fefcfa"] ;
192 -> 193 ;
194 [label="graphDepth <= 7.5\ngini = 0.496\nsamples = 210\nvalue = [114, 96]\nclass = False", fillcolor="#fbebe0"] ;
193 -> 194 ;
195 [label="sdComp <= 0.02\ngini = 0.498\nsamples = 86\nvalue = [46, 40]\nclass = False", fillcolor="#fcefe5"] ;
194 -> 195 ;
196 [label="gini = 0.496\nsamples = 66\nvalue = [36, 30]\nclass = False", fillcolor="#fbeade"] ;
195 -> 196 ;
197 [label="gini = 0.5\nsamples = 20\nvalue = [10, 10]\nclass = False", fillcolor="#ffffff"] ;
195 -> 197 ;
198 [label="gini = 0.495\nsamples = 124\nvalue = [68, 56]\nclass = False", fillcolor="#fae9dc"] ;
194 -> 198 ;
199 [label="graphDepth <= 7.5\ngini = 0.5\nsamples = 474\nvalue = [232, 242]\nclass = True", fillcolor="#f7fbfe"] ;
193 -> 199 ;
200 [label="sdComp <= 0.02\ngini = 0.498\nsamples = 206\nvalue = [96, 110]\nclass = True", fillcolor="#e6f3fc"] ;
199 -> 200 ;
201 [label="sdComm <= 0.065\ngini = 0.5\nsamples = 128\nvalue = [62, 66]\nclass = True", fillcolor="#f3f9fd"] ;
200 -> 201 ;
202 [label="gini = 0.5\nsamples = 48\nvalue = [24, 24]\nclass = False", fillcolor="#ffffff"] ;
201 -> 202 ;
203 [label="gini = 0.499\nsamples = 80\nvalue = [38, 42]\nclass = True", fillcolor="#ecf6fd"] ;
201 -> 203 ;
204 [label="sdComm <= 0.065\ngini = 0.492\nsamples = 78\nvalue = [34, 44]\nclass = True", fillcolor="#d2e9f9"] ;
200 -> 204 ;
205 [label="gini = 0.495\nsamples = 58\nvalue = [26, 32]\nclass = True", fillcolor="#daedfa"] ;
204 -> 205 ;
206 [label="gini = 0.48\nsamples = 20\nvalue = [8, 12]\nclass = True", fillcolor="#bddef6"] ;
204 -> 206 ;
207 [label="sdComm <= 0.065\ngini = 0.5\nsamples = 268\nvalue = [136, 132]\nclass = False", fillcolor="#fefbf9"] ;
199 -> 207 ;
208 [label="sdComp <= 0.02\ngini = 0.5\nsamples = 208\nvalue = [104, 104]\nclass = False", fillcolor="#ffffff"] ;
207 -> 208 ;
209 [label="gini = 0.5\nsamples = 112\nvalue = [56, 56]\nclass = False", fillcolor="#ffffff"] ;
208 -> 209 ;
210 [label="gini = 0.5\nsamples = 96\nvalue = [48, 48]\nclass = False", fillcolor="#ffffff"] ;
208 -> 210 ;
211 [label="sdComp <= 0.02\ngini = 0.498\nsamples = 60\nvalue = [32, 28]\nclass = False", fillcolor="#fcefe6"] ;
207 -> 211 ;
212 [label="gini = 0.48\nsamples = 20\nvalue = [12, 8]\nclass = False", fillcolor="#f6d5bd"] ;
211 -> 212 ;
213 [label="gini = 0.5\nsamples = 40\nvalue = [20, 20]\nclass = False", fillcolor="#ffffff"] ;
211 -> 213 ;
214 [label="graphDepth <= 12.5\ngini = 0.484\nsamples = 554\nvalue = [228, 326]\nclass = True", fillcolor="#c3e2f7"] ;
192 -> 214 ;
215 [label="sdComm <= 0.02\ngini = 0.278\nsamples = 60\nvalue = [10, 50]\nclass = True", fillcolor="#61b1ea"] ;
214 -> 215 ;
216 [label="gini = 0.0\nsamples = 16\nvalue = [0, 16]\nclass = True", fillcolor="#399de5"] ;
215 -> 216 ;
217 [label="sdComp <= 0.02\ngini = 0.351\nsamples = 44\nvalue = [10, 34]\nclass = True", fillcolor="#73baed"] ;
215 -> 217 ;
218 [label="sdComm <= 0.065\ngini = 0.245\nsamples = 28\nvalue = [4, 24]\nclass = True", fillcolor="#5aade9"] ;
217 -> 218 ;
219 [label="gini = 0.245\nsamples = 14\nvalue = [2, 12]\nclass = True", fillcolor="#5aade9"] ;
218 -> 219 ;
220 [label="gini = 0.245\nsamples = 14\nvalue = [2, 12]\nclass = True", fillcolor="#5aade9"] ;
218 -> 220 ;
221 [label="sdComm <= 0.065\ngini = 0.469\nsamples = 16\nvalue = [6, 10]\nclass = True", fillcolor="#b0d8f5"] ;
217 -> 221 ;
222 [label="gini = 0.444\nsamples = 12\nvalue = [4, 8]\nclass = True", fillcolor="#9ccef2"] ;
221 -> 222 ;
223 [label="gini = 0.5\nsamples = 4\nvalue = [2, 2]\nclass = False", fillcolor="#ffffff"] ;
221 -> 223 ;
224 [label="sdComp <= 0.02\ngini = 0.493\nsamples = 494\nvalue = [218, 276]\nclass = True", fillcolor="#d5eafa"] ;
214 -> 224 ;
225 [label="graphSize <= 75.0\ngini = 0.498\nsamples = 352\nvalue = [164, 188]\nclass = True", fillcolor="#e6f2fc"] ;
224 -> 225 ;
226 [label="sdComm <= 0.065\ngini = 0.5\nsamples = 194\nvalue = [96, 98]\nclass = True", fillcolor="#fbfdfe"] ;
225 -> 226 ;
227 [label="sdComm <= 0.02\ngini = 0.5\nsamples = 118\nvalue = [58, 60]\nclass = True", fillcolor="#f8fcfe"] ;
226 -> 227 ;
228 [label="gini = 0.5\nsamples = 56\nvalue = [28, 28]\nclass = False", fillcolor="#ffffff"] ;
227 -> 228 ;
229 [label="gini = 0.499\nsamples = 62\nvalue = [30, 32]\nclass = True", fillcolor="#f3f9fd"] ;
227 -> 229 ;
230 [label="gini = 0.5\nsamples = 76\nvalue = [38, 38]\nclass = False", fillcolor="#ffffff"] ;
226 -> 230 ;
231 [label="sdComm <= 0.065\ngini = 0.49\nsamples = 158\nvalue = [68, 90]\nclass = True", fillcolor="#cfe7f9"] ;
225 -> 231 ;
232 [label="graphDepth <= 25.5\ngini = 0.486\nsamples = 96\nvalue = [40, 56]\nclass = True", fillcolor="#c6e3f8"] ;
231 -> 232 ;
233 [label="sdComm <= 0.02\ngini = 0.48\nsamples = 20\nvalue = [8, 12]\nclass = True", fillcolor="#bddef6"] ;
232 -> 233 ;
234 [label="gini = 0.444\nsamples = 12\nvalue = [4, 8]\nclass = True", fillcolor="#9ccef2"] ;
233 -> 234 ;
235 [label="gini = 0.5\nsamples = 8\nvalue = [4, 4]\nclass = False", fillcolor="#ffffff"] ;
233 -> 235 ;
236 [label="sdComm <= 0.02\ngini = 0.488\nsamples = 76\nvalue = [32, 44]\nclass = True", fillcolor="#c9e4f8"] ;
232 -> 236 ;
237 [label="gini = 0.494\nsamples = 36\nvalue = [16, 20]\nclass = True", fillcolor="#d7ebfa"] ;
236 -> 237 ;
238 [label="gini = 0.48\nsamples = 40\nvalue = [16, 24]\nclass = True", fillcolor="#bddef6"] ;
236 -> 238 ;
239 [label="graphDepth <= 25.5\ngini = 0.495\nsamples = 62\nvalue = [28, 34]\nclass = True", fillcolor="#dceefa"] ;
231 -> 239 ;
240 [label="gini = 0.484\nsamples = 34\nvalue = [14, 20]\nclass = True", fillcolor="#c4e2f7"] ;
239 -> 240 ;
241 [label="gini = 0.5\nsamples = 28\nvalue = [14, 14]\nclass = False", fillcolor="#ffffff"] ;
239 -> 241 ;
242 [label="graphSize <= 75.0\ngini = 0.471\nsamples = 142\nvalue = [54, 88]\nclass = True", fillcolor="#b2d9f5"] ;
224 -> 242 ;
243 [label="sdComm <= 0.065\ngini = 0.449\nsamples = 88\nvalue = [30, 58]\nclass = True", fillcolor="#9fd0f2"] ;
242 -> 243 ;
244 [label="sdComm <= 0.02\ngini = 0.444\nsamples = 84\nvalue = [28, 56]\nclass = True", fillcolor="#9ccef2"] ;
243 -> 244 ;
245 [label="gini = 0.43\nsamples = 32\nvalue = [10, 22]\nclass = True", fillcolor="#93caf1"] ;
244 -> 245 ;
246 [label="gini = 0.453\nsamples = 52\nvalue = [18, 34]\nclass = True", fillcolor="#a2d1f3"] ;
244 -> 246 ;
247 [label="gini = 0.5\nsamples = 4\nvalue = [2, 2]\nclass = False", fillcolor="#ffffff"] ;
243 -> 247 ;
248 [label="graphDepth <= 25.5\ngini = 0.494\nsamples = 54\nvalue = [24, 30]\nclass = True", fillcolor="#d7ebfa"] ;
242 -> 248 ;
249 [label="sdComm <= 0.065\ngini = 0.5\nsamples = 24\nvalue = [12, 12]\nclass = False", fillcolor="#ffffff"] ;
248 -> 249 ;
250 [label="gini = 0.5\nsamples = 8\nvalue = [4, 4]\nclass = False", fillcolor="#ffffff"] ;
249 -> 250 ;
251 [label="gini = 0.5\nsamples = 16\nvalue = [8, 8]\nclass = False", fillcolor="#ffffff"] ;
249 -> 251 ;
252 [label="sdComm <= 0.065\ngini = 0.48\nsamples = 30\nvalue = [12, 18]\nclass = True", fillcolor="#bddef6"] ;
248 -> 252 ;
253 [label="sdComm <= 0.02\ngini = 0.497\nsamples = 26\nvalue = [12, 14]\nclass = True", fillcolor="#e3f1fb"] ;
252 -> 253 ;
254 [label="gini = 0.494\nsamples = 18\nvalue = [8, 10]\nclass = True", fillcolor="#d7ebfa"] ;
253 -> 254 ;
255 [label="gini = 0.5\nsamples = 8\nvalue = [4, 4]\nclass = False", fillcolor="#ffffff"] ;
253 -> 255 ;
256 [label="gini = 0.0\nsamples = 4\nvalue = [0, 4]\nclass = True", fillcolor="#399de5"] ;
252 -> 256 ;
257 [label="sdComm <= 0.065\ngini = 0.47\nsamples = 2632\nvalue = [992, 1640]\nclass = True", fillcolor="#b1d8f5"] ;
191 -> 257 ;
258 [label="graphSize <= 75.0\ngini = 0.369\nsamples = 606\nvalue = [148, 458]\nclass = True", fillcolor="#79bded"] ;
257 -> 258 ;
259 [label="graphDepth <= 9.0\ngini = 0.379\nsamples = 582\nvalue = [148, 434]\nclass = True", fillcolor="#7dbeee"] ;
258 -> 259 ;
260 [label="sdComm <= 0.02\ngini = 0.295\nsamples = 200\nvalue = [36, 164]\nclass = True", fillcolor="#64b3eb"] ;
259 -> 260 ;
261 [label="graphSize <= 40.0\ngini = 0.403\nsamples = 100\nvalue = [28, 72]\nclass = True", fillcolor="#86c3ef"] ;
260 -> 261 ;
262 [label="gini = 0.387\nsamples = 84\nvalue = [22, 62]\nclass = True", fillcolor="#7fc0ee"] ;
261 -> 262 ;
263 [label="gini = 0.469\nsamples = 16\nvalue = [6, 10]\nclass = True", fillcolor="#b0d8f5"] ;
261 -> 263 ;
264 [label="graphSize <= 40.0\ngini = 0.147\nsamples = 100\nvalue = [8, 92]\nclass = True", fillcolor="#4aa6e7"] ;
260 -> 264 ;
265 [label="gini = 0.169\nsamples = 86\nvalue = [8, 78]\nclass = True", fillcolor="#4da7e8"] ;
264 -> 265 ;
266 [label="gini = 0.0\nsamples = 14\nvalue = [0, 14]\nclass = True", fillcolor="#399de5"] ;
264 -> 266 ;
267 [label="graphSize <= 40.0\ngini = 0.414\nsamples = 382\nvalue = [112, 270]\nclass = True", fillcolor="#8bc6f0"] ;
259 -> 267 ;
268 [label="sdComm <= 0.02\ngini = 0.41\nsamples = 334\nvalue = [96, 238]\nclass = True", fillcolor="#89c5ef"] ;
267 -> 268 ;
269 [label="gini = 0.407\nsamples = 260\nvalue = [74, 186]\nclass = True", fillcolor="#88c4ef"] ;
268 -> 269 ;
270 [label="gini = 0.418\nsamples = 74\nvalue = [22, 52]\nclass = True", fillcolor="#8dc6f0"] ;
268 -> 270 ;
271 [label="sdComm <= 0.02\ngini = 0.444\nsamples = 48\nvalue = [16, 32]\nclass = True", fillcolor="#9ccef2"] ;
267 -> 271 ;
272 [label="gini = 0.415\nsamples = 34\nvalue = [10, 24]\nclass = True", fillcolor="#8bc6f0"] ;
271 -> 272 ;
273 [label="gini = 0.49\nsamples = 14\nvalue = [6, 8]\nclass = True", fillcolor="#cee6f8"] ;
271 -> 273 ;
274 [label="gini = 0.0\nsamples = 24\nvalue = [0, 24]\nclass = True", fillcolor="#399de5"] ;
258 -> 274 ;
275 [label="sdComm <= 0.65\ngini = 0.486\nsamples = 2026\nvalue = [844, 1182]\nclass = True", fillcolor="#c6e3f8"] ;
257 -> 275 ;
276 [label="CCR <= 0.55\ngini = 0.493\nsamples = 1546\nvalue = [682, 864]\nclass = True", fillcolor="#d5eafa"] ;
275 -> 276 ;
277 [label="graphDepth <= 13.5\ngini = 0.469\nsamples = 298\nvalue = [112, 186]\nclass = True", fillcolor="#b0d8f5"] ;
276 -> 277 ;
278 [label="graphDepth <= 7.5\ngini = 0.475\nsamples = 278\nvalue = [108, 170]\nclass = True", fillcolor="#b7dbf6"] ;
277 -> 278 ;
279 [label="gini = 0.481\nsamples = 154\nvalue = [62, 92]\nclass = True", fillcolor="#bedff7"] ;
278 -> 279 ;
280 [label="gini = 0.467\nsamples = 124\nvalue = [46, 78]\nclass = True", fillcolor="#aed7f4"] ;
278 -> 280 ;
281 [label="graphDepth <= 25.5\ngini = 0.32\nsamples = 20\nvalue = [4, 16]\nclass = True", fillcolor="#6ab6ec"] ;
277 -> 281 ;
282 [label="gini = 0.0\nsamples = 12\nvalue = [0, 12]\nclass = True", fillcolor="#399de5"] ;
281 -> 282 ;
283 [label="gini = 0.5\nsamples = 8\nvalue = [4, 4]\nclass = False", fillcolor="#ffffff"] ;
281 -> 283 ;
284 [label="sdComp <= 0.2\ngini = 0.496\nsamples = 1248\nvalue = [570, 678]\nclass = True", fillcolor="#dfeffb"] ;
276 -> 284 ;
285 [label="graphDepth <= 6.5\ngini = 0.5\nsamples = 734\nvalue = [356, 378]\nclass = True", fillcolor="#f3f9fd"] ;
284 -> 285 ;
286 [label="sdComm <= 0.2\ngini = 0.49\nsamples = 154\nvalue = [88, 66]\nclass = False", fillcolor="#f8e0ce"] ;
285 -> 286 ;
287 [label="gini = 0.5\nsamples = 44\nvalue = [22, 22]\nclass = False", fillcolor="#ffffff"] ;
286 -> 287 ;
288 [label="gini = 0.48\nsamples = 110\nvalue = [66, 44]\nclass = False", fillcolor="#f6d5bd"] ;
286 -> 288 ;
289 [label="graphDepth <= 9.0\ngini = 0.497\nsamples = 580\nvalue = [268, 312]\nclass = True", fillcolor="#e3f1fb"] ;
285 -> 289 ;
290 [label="sdComm <= 0.2\ngini = 0.43\nsamples = 64\nvalue = [20, 44]\nclass = True", fillcolor="#93caf1"] ;
289 -> 290 ;
291 [label="gini = 0.5\nsamples = 24\nvalue = [12, 12]\nclass = False", fillcolor="#ffffff"] ;
290 -> 291 ;
292 [label="gini = 0.32\nsamples = 40\nvalue = [8, 32]\nclass = True", fillcolor="#6ab6ec"] ;
290 -> 292 ;
293 [label="graphSize <= 75.0\ngini = 0.499\nsamples = 516\nvalue = [248, 268]\nclass = True", fillcolor="#f0f8fd"] ;
289 -> 293 ;
294 [label="sdComm <= 0.2\ngini = 0.5\nsamples = 304\nvalue = [152, 152]\nclass = False", fillcolor="#ffffff"] ;
293 -> 294 ;
295 [label="graphDepth <= 13.5\ngini = 0.5\nsamples = 164\nvalue = [82, 82]\nclass = False", fillcolor="#ffffff"] ;
294 -> 295 ;
296 [label="gini = 0.5\nsamples = 96\nvalue = [48, 48]\nclass = False", fillcolor="#ffffff"] ;
295 -> 296 ;
297 [label="gini = 0.5\nsamples = 68\nvalue = [34, 34]\nclass = False", fillcolor="#ffffff"] ;
295 -> 297 ;
298 [label="graphSize <= 40.0\ngini = 0.5\nsamples = 140\nvalue = [70, 70]\nclass = False", fillcolor="#ffffff"] ;
294 -> 298 ;
299 [label="gini = 0.5\nsamples = 32\nvalue = [16, 16]\nclass = False", fillcolor="#ffffff"] ;
298 -> 299 ;
300 [label="gini = 0.5\nsamples = 108\nvalue = [54, 54]\nclass = False", fillcolor="#ffffff"] ;
298 -> 300 ;
301 [label="sdComm <= 0.2\ngini = 0.496\nsamples = 212\nvalue = [96, 116]\nclass = True", fillcolor="#ddeefb"] ;
293 -> 301 ;
302 [label="graphDepth <= 25.5\ngini = 0.499\nsamples = 108\nvalue = [52, 56]\nclass = True", fillcolor="#f1f8fd"] ;
301 -> 302 ;
303 [label="gini = 0.5\nsamples = 60\nvalue = [30, 30]\nclass = False", fillcolor="#ffffff"] ;
302 -> 303 ;
304 [label="gini = 0.497\nsamples = 48\nvalue = [22, 26]\nclass = True", fillcolor="#e1f0fb"] ;
302 -> 304 ;
305 [label="graphDepth <= 25.5\ngini = 0.488\nsamples = 104\nvalue = [44, 60]\nclass = True", fillcolor="#cae5f8"] ;
301 -> 305 ;
306 [label="gini = 0.469\nsamples = 32\nvalue = [12, 20]\nclass = True", fillcolor="#b0d8f5"] ;
305 -> 306 ;
307 [label="gini = 0.494\nsamples = 72\nvalue = [32, 40]\nclass = True", fillcolor="#d7ebfa"] ;
305 -> 307 ;
308 [label="graphSize <= 40.0\ngini = 0.486\nsamples = 514\nvalue = [214, 300]\nclass = True", fillcolor="#c6e3f8"] ;
284 -> 308 ;
309 [label="sdComm <= 0.2\ngini = 0.461\nsamples = 222\nvalue = [80, 142]\nclass = True", fillcolor="#a9d4f4"] ;
308 -> 309 ;
310 [label="graphDepth <= 7.5\ngini = 0.471\nsamples = 190\nvalue = [72, 118]\nclass = True", fillcolor="#b2d9f5"] ;
309 -> 310 ;
311 [label="gini = 0.5\nsamples = 16\nvalue = [8, 8]\nclass = False", fillcolor="#ffffff"] ;
310 -> 311 ;
312 [label="gini = 0.465\nsamples = 174\nvalue = [64, 110]\nclass = True", fillcolor="#acd6f4"] ;
310 -> 312 ;
313 [label="graphDepth <= 7.5\ngini = 0.375\nsamples = 32\nvalue = [8, 24]\nclass = True", fillcolor="#7bbeee"] ;
309 -> 313 ;
314 [label="gini = 0.32\nsamples = 20\nvalue = [4, 16]\nclass = True", fillcolor="#6ab6ec"] ;
313 -> 314 ;
315 [label="gini = 0.444\nsamples = 12\nvalue = [4, 8]\nclass = True", fillcolor="#9ccef2"] ;
313 -> 315 ;
316 [label="graphDepth <= 12.5\ngini = 0.497\nsamples = 292\nvalue = [134, 158]\nclass = True", fillcolor="#e1f0fb"] ;
308 -> 316 ;
317 [label="sdComm <= 0.2\ngini = 0.498\nsamples = 64\nvalue = [34, 30]\nclass = False", fillcolor="#fcf0e8"] ;
316 -> 317 ;
318 [label="gini = 0.49\nsamples = 28\nvalue = [16, 12]\nclass = False", fillcolor="#f8e0ce"] ;
317 -> 318 ;
319 [label="gini = 0.5\nsamples = 36\nvalue = [18, 18]\nclass = False", fillcolor="#ffffff"] ;
317 -> 319 ;
320 [label="graphDepth <= 25.5\ngini = 0.492\nsamples = 228\nvalue = [100, 128]\nclass = True", fillcolor="#d4eaf9"] ;
316 -> 320 ;
321 [label="sdComm <= 0.2\ngini = 0.488\nsamples = 170\nvalue = [72, 98]\nclass = True", fillcolor="#cae5f8"] ;
320 -> 321 ;
322 [label="graphSize <= 75.0\ngini = 0.497\nsamples = 78\nvalue = [36, 42]\nclass = True", fillcolor="#e3f1fb"] ;
321 -> 322 ;
323 [label="gini = 0.5\nsamples = 40\nvalue = [20, 20]\nclass = False", fillcolor="#ffffff"] ;
322 -> 323 ;
324 [label="gini = 0.488\nsamples = 38\nvalue = [16, 22]\nclass = True", fillcolor="#c9e4f8"] ;
322 -> 324 ;
325 [label="graphSize <= 75.0\ngini = 0.476\nsamples = 92\nvalue = [36, 56]\nclass = True", fillcolor="#b8dcf6"] ;
321 -> 325 ;
326 [label="gini = 0.463\nsamples = 44\nvalue = [16, 28]\nclass = True", fillcolor="#aad5f4"] ;
325 -> 326 ;
327 [label="gini = 0.486\nsamples = 48\nvalue = [20, 28]\nclass = True", fillcolor="#c6e3f8"] ;
325 -> 327 ;
328 [label="sdComm <= 0.2\ngini = 0.499\nsamples = 58\nvalue = [28, 30]\nclass = True", fillcolor="#f2f8fd"] ;
320 -> 328 ;
329 [label="gini = 0.497\nsamples = 26\nvalue = [12, 14]\nclass = True", fillcolor="#e3f1fb"] ;
328 -> 329 ;
330 [label="gini = 0.5\nsamples = 32\nvalue = [16, 16]\nclass = False", fillcolor="#ffffff"] ;
328 -> 330 ;
331 [label="graphSize <= 40.0\ngini = 0.447\nsamples = 480\nvalue = [162, 318]\nclass = True", fillcolor="#9ecff2"] ;
275 -> 331 ;
332 [label="graphDepth <= 7.5\ngini = 0.496\nsamples = 282\nvalue = [128, 154]\nclass = True", fillcolor="#deeefb"] ;
331 -> 332 ;
333 [label="sdComp <= 0.2\ngini = 0.484\nsamples = 166\nvalue = [68, 98]\nclass = True", fillcolor="#c2e1f7"] ;
332 -> 333 ;
334 [label="gini = 0.488\nsamples = 104\nvalue = [44, 60]\nclass = True", fillcolor="#cae5f8"] ;
333 -> 334 ;
335 [label="gini = 0.475\nsamples = 62\nvalue = [24, 38]\nclass = True", fillcolor="#b6dbf5"] ;
333 -> 335 ;
336 [label="sdComp <= 0.2\ngini = 0.499\nsamples = 116\nvalue = [60, 56]\nclass = False", fillcolor="#fdf7f2"] ;
332 -> 336 ;
337 [label="gini = 0.5\nsamples = 68\nvalue = [34, 34]\nclass = False", fillcolor="#ffffff"] ;
336 -> 337 ;
338 [label="gini = 0.497\nsamples = 48\nvalue = [26, 22]\nclass = False", fillcolor="#fbece1"] ;
336 -> 338 ;
339 [label="sdComp <= 0.2\ngini = 0.284\nsamples = 198\nvalue = [34, 164]\nclass = True", fillcolor="#62b1ea"] ;
331 -> 339 ;
340 [label="graphDepth <= 12.5\ngini = 0.387\nsamples = 84\nvalue = [22, 62]\nclass = True", fillcolor="#7fc0ee"] ;
339 -> 340 ;
341 [label="gini = 0.0\nsamples = 24\nvalue = [0, 24]\nclass = True", fillcolor="#399de5"] ;
340 -> 341 ;
342 [label="graphSize <= 75.0\ngini = 0.464\nsamples = 60\nvalue = [22, 38]\nclass = True", fillcolor="#acd6f4"] ;
340 -> 342 ;
343 [label="gini = 0.5\nsamples = 24\nvalue = [12, 12]\nclass = False", fillcolor="#ffffff"] ;
342 -> 343 ;
344 [label="graphDepth <= 25.5\ngini = 0.401\nsamples = 36\nvalue = [10, 26]\nclass = True", fillcolor="#85c3ef"] ;
342 -> 344 ;
345 [label="gini = 0.278\nsamples = 24\nvalue = [4, 20]\nclass = True", fillcolor="#61b1ea"] ;
344 -> 345 ;
346 [label="gini = 0.5\nsamples = 12\nvalue = [6, 6]\nclass = False", fillcolor="#ffffff"] ;
344 -> 346 ;
347 [label="graphSize <= 75.0\ngini = 0.188\nsamples = 114\nvalue = [12, 102]\nclass = True", fillcolor="#50a9e8"] ;
339 -> 347 ;
348 [label="graphDepth <= 12.5\ngini = 0.128\nsamples = 58\nvalue = [4, 54]\nclass = True", fillcolor="#48a4e7"] ;
347 -> 348 ;
349 [label="gini = 0.0\nsamples = 6\nvalue = [0, 6]\nclass = True", fillcolor="#399de5"] ;
348 -> 349 ;
350 [label="gini = 0.142\nsamples = 52\nvalue = [4, 48]\nclass = True", fillcolor="#49a5e7"] ;
348 -> 350 ;
351 [label="graphDepth <= 25.5\ngini = 0.245\nsamples = 56\nvalue = [8, 48]\nclass = True", fillcolor="#5aade9"] ;
347 -> 351 ;
352 [label="gini = 0.408\nsamples = 14\nvalue = [4, 10]\nclass = True", fillcolor="#88c4ef"] ;
351 -> 352 ;
353 [label="gini = 0.172\nsamples = 42\nvalue = [4, 38]\nclass = True", fillcolor="#4ea7e8"] ;
351 -> 353 ;
354 [label="graphSize <= 22.5\ngini = 0.384\nsamples = 13526\nvalue = [3506, 10020]\nclass = True", fillcolor="#7ebfee"] ;
0 -> 354 [labeldistance=2.5, labelangle=-45, headlabel="False"] ;
355 [label="sdComp <= 6.5\ngini = 0.427\nsamples = 4960\nvalue = [1532, 3428]\nclass = True", fillcolor="#91c9f1"] ;
354 -> 355 ;
356 [label="nbproc <= 4.5\ngini = 0.409\nsamples = 3762\nvalue = [1078, 2684]\nclass = True", fillcolor="#89c4ef"] ;
355 -> 356 ;
357 [label="graphDepth <= 3.5\ngini = 0.356\nsamples = 1906\nvalue = [442, 1464]\nclass = True", fillcolor="#75bbed"] ;
356 -> 357 ;
358 [label="CCR <= 5.5\ngini = 0.23\nsamples = 482\nvalue = [64, 418]\nclass = True", fillcolor="#57ace9"] ;
357 -> 358 ;
359 [label="sdComm <= 0.65\ngini = 0.363\nsamples = 218\nvalue = [52, 166]\nclass = True", fillcolor="#77bced"] ;
358 -> 359 ;
360 [label="gini = 0.0\nsamples = 74\nvalue = [0, 74]\nclass = True", fillcolor="#399de5"] ;
359 -> 360 ;
361 [label="gini = 0.461\nsamples = 144\nvalue = [52, 92]\nclass = True", fillcolor="#a9d4f4"] ;
359 -> 361 ;
362 [label="sdComm <= 6.5\ngini = 0.087\nsamples = 264\nvalue = [12, 252]\nclass = True", fillcolor="#42a2e6"] ;
358 -> 362 ;
363 [label="gini = 0.0\nsamples = 188\nvalue = [0, 188]\nclass = True", fillcolor="#399de5"] ;
362 -> 363 ;
364 [label="sdComp <= 2.0\ngini = 0.266\nsamples = 76\nvalue = [12, 64]\nclass = True", fillcolor="#5eafea"] ;
362 -> 364 ;
365 [label="gini = 0.365\nsamples = 50\nvalue = [12, 38]\nclass = True", fillcolor="#78bced"] ;
364 -> 365 ;
366 [label="gini = 0.0\nsamples = 26\nvalue = [0, 26]\nclass = True", fillcolor="#399de5"] ;
364 -> 366 ;
367 [label="sdComm <= 2.0\ngini = 0.39\nsamples = 1424\nvalue = [378, 1046]\nclass = True", fillcolor="#81c0ee"] ;
357 -> 367 ;
368 [label="CCR <= 5.5\ngini = 0.35\nsamples = 664\nvalue = [150, 514]\nclass = True", fillcolor="#73baed"] ;
367 -> 368 ;
369 [label="sdComm <= 0.65\ngini = 0.395\nsamples = 244\nvalue = [66, 178]\nclass = True", fillcolor="#82c1ef"] ;
368 -> 369 ;
370 [label="sdComm <= 0.2\ngini = 0.364\nsamples = 184\nvalue = [44, 140]\nclass = True", fillcolor="#77bced"] ;
369 -> 370 ;
371 [label="gini = 0.427\nsamples = 84\nvalue = [26, 58]\nclass = True", fillcolor="#92c9f1"] ;
370 -> 371 ;
372 [label="gini = 0.295\nsamples = 100\nvalue = [18, 82]\nclass = True", fillcolor="#64b3eb"] ;
370 -> 372 ;
373 [label="gini = 0.464\nsamples = 60\nvalue = [22, 38]\nclass = True", fillcolor="#acd6f4"] ;
369 -> 373 ;
374 [label="sdComp <= 2.0\ngini = 0.32\nsamples = 420\nvalue = [84, 336]\nclass = True", fillcolor="#6ab6ec"] ;
368 -> 374 ;
375 [label="gini = 0.298\nsamples = 132\nvalue = [24, 108]\nclass = True", fillcolor="#65b3eb"] ;
374 -> 375 ;
376 [label="gini = 0.33\nsamples = 288\nvalue = [60, 228]\nclass = True", fillcolor="#6db7ec"] ;
374 -> 376 ;
377 [label="sdComp <= 2.0\ngini = 0.42\nsamples = 760\nvalue = [228, 532]\nclass = True", fillcolor="#8ec7f0"] ;
367 -> 377 ;
378 [label="sdComm <= 6.5\ngini = 0.347\nsamples = 376\nvalue = [84, 292]\nclass = True", fillcolor="#72b9ec"] ;
377 -> 378 ;
379 [label="gini = 0.383\nsamples = 232\nvalue = [60, 172]\nclass = True", fillcolor="#7ebfee"] ;
378 -> 379 ;
380 [label="gini = 0.278\nsamples = 144\nvalue = [24, 120]\nclass = True", fillcolor="#61b1ea"] ;
378 -> 380 ;
381 [label="sdComm <= 6.5\ngini = 0.469\nsamples = 384\nvalue = [144, 240]\nclass = True", fillcolor="#b0d8f5"] ;
377 -> 381 ;
382 [label="gini = 0.48\nsamples = 180\nvalue = [72, 108]\nclass = True", fillcolor="#bddef6"] ;
381 -> 382 ;
383 [label="gini = 0.457\nsamples = 204\nvalue = [72, 132]\nclass = True", fillcolor="#a5d2f3"] ;
381 -> 383 ;
384 [label="CCR <= 5.5\ngini = 0.45\nsamples = 1856\nvalue = [636, 1220]\nclass = True", fillcolor="#a0d0f3"] ;
356 -> 384 ;
385 [label="graphDepth <= 3.5\ngini = 0.48\nsamples = 1012\nvalue = [406, 606]\nclass = True", fillcolor="#bedff6"] ;
384 -> 385 ;
386 [label="sdComm <= 0.65\ngini = 0.489\nsamples = 632\nvalue = [270, 362]\nclass = True", fillcolor="#cde6f8"] ;
385 -> 386 ;
387 [label="sdComm <= 0.2\ngini = 0.494\nsamples = 510\nvalue = [226, 284]\nclass = True", fillcolor="#d7ebfa"] ;
386 -> 387 ;
388 [label="gini = 0.481\nsamples = 234\nvalue = [94, 140]\nclass = True", fillcolor="#bedff6"] ;
387 -> 388 ;
389 [label="gini = 0.499\nsamples = 276\nvalue = [132, 144]\nclass = True", fillcolor="#eff7fd"] ;
387 -> 389 ;
390 [label="gini = 0.461\nsamples = 122\nvalue = [44, 78]\nclass = True", fillcolor="#a9d4f4"] ;
386 -> 390 ;
391 [label="sdComm <= 0.65\ngini = 0.46\nsamples = 380\nvalue = [136, 244]\nclass = True", fillcolor="#a7d4f3"] ;
385 -> 391 ;
392 [label="sdComm <= 0.2\ngini = 0.437\nsamples = 304\nvalue = [98, 206]\nclass = True", fillcolor="#97ccf1"] ;
391 -> 392 ;
393 [label="gini = 0.496\nsamples = 66\nvalue = [30, 36]\nclass = True", fillcolor="#deeffb"] ;
392 -> 393 ;
394 [label="gini = 0.408\nsamples = 238\nvalue = [68, 170]\nclass = True", fillcolor="#88c4ef"] ;
392 -> 394 ;
395 [label="gini = 0.5\nsamples = 76\nvalue = [38, 38]\nclass = False", fillcolor="#ffffff"] ;
391 -> 395 ;
396 [label="graphDepth <= 3.5\ngini = 0.396\nsamples = 844\nvalue = [230, 614]\nclass = True", fillcolor="#83c2ef"] ;
384 -> 396 ;
397 [label="sdComm <= 2.0\ngini = 0.209\nsamples = 304\nvalue = [36, 268]\nclass = True", fillcolor="#54aae8"] ;
396 -> 397 ;
398 [label="sdComp <= 2.0\ngini = 0.367\nsamples = 124\nvalue = [30, 94]\nclass = True", fillcolor="#78bced"] ;
397 -> 398 ;
399 [label="gini = 0.473\nsamples = 52\nvalue = [20, 32]\nclass = True", fillcolor="#b5daf5"] ;
398 -> 399 ;
400 [label="gini = 0.239\nsamples = 72\nvalue = [10, 62]\nclass = True", fillcolor="#59ade9"] ;
398 -> 400 ;
401 [label="sdComm <= 6.5\ngini = 0.064\nsamples = 180\nvalue = [6, 174]\nclass = True", fillcolor="#40a0e6"] ;
397 -> 401 ;
402 [label="gini = 0.0\nsamples = 112\nvalue = [0, 112]\nclass = True", fillcolor="#399de5"] ;
401 -> 402 ;
403 [label="sdComp <= 2.0\ngini = 0.161\nsamples = 68\nvalue = [6, 62]\nclass = True", fillcolor="#4ca6e8"] ;
401 -> 403 ;
404 [label="gini = 0.219\nsamples = 48\nvalue = [6, 42]\nclass = True", fillcolor="#55abe9"] ;
403 -> 404 ;
405 [label="gini = 0.0\nsamples = 20\nvalue = [0, 20]\nclass = True", fillcolor="#399de5"] ;
403 -> 405 ;
406 [label="sdComp <= 2.0\ngini = 0.46\nsamples = 540\nvalue = [194, 346]\nclass = True", fillcolor="#a8d4f4"] ;
396 -> 406 ;
407 [label="sdComm <= 6.5\ngini = 0.35\nsamples = 168\nvalue = [38, 130]\nclass = True", fillcolor="#73baed"] ;
406 -> 407 ;
408 [label="sdComm <= 2.0\ngini = 0.1\nsamples = 76\nvalue = [4, 72]\nclass = True", fillcolor="#44a2e6"] ;
407 -> 408 ;
409 [label="gini = 0.0\nsamples = 32\nvalue = [0, 32]\nclass = True", fillcolor="#399de5"] ;
408 -> 409 ;
410 [label="gini = 0.165\nsamples = 44\nvalue = [4, 40]\nclass = True", fillcolor="#4da7e8"] ;
408 -> 410 ;
411 [label="gini = 0.466\nsamples = 92\nvalue = [34, 58]\nclass = True", fillcolor="#add6f4"] ;
407 -> 411 ;
412 [label="sdComm <= 6.5\ngini = 0.487\nsamples = 372\nvalue = [156, 216]\nclass = True", fillcolor="#c8e4f8"] ;
406 -> 412 ;
413 [label="sdComm <= 2.0\ngini = 0.499\nsamples = 276\nvalue = [132, 144]\nclass = True", fillcolor="#eff7fd"] ;
412 -> 413 ;
414 [label="gini = 0.499\nsamples = 124\nvalue = [60, 64]\nclass = True", fillcolor="#f3f9fd"] ;
413 -> 414 ;
415 [label="gini = 0.499\nsamples = 152\nvalue = [72, 80]\nclass = True", fillcolor="#ebf5fc"] ;
413 -> 415 ;
416 [label="gini = 0.375\nsamples = 96\nvalue = [24, 72]\nclass = True", fillcolor="#7bbeee"] ;
412 -> 416 ;
417 [label="graphDepth <= 3.5\ngini = 0.471\nsamples = 1198\nvalue = [454, 744]\nclass = True", fillcolor="#b2d9f5"] ;
355 -> 417 ;
418 [label="nbproc <= 4.5\ngini = 0.439\nsamples = 252\nvalue = [82, 170]\nclass = True", fillcolor="#99ccf2"] ;
417 -> 418 ;
419 [label="sdComm <= 6.5\ngini = 0.102\nsamples = 74\nvalue = [4, 70]\nclass = True", fillcolor="#44a3e6"] ;
418 -> 419 ;
420 [label="sdComm <= 2.0\ngini = 0.188\nsamples = 38\nvalue = [4, 34]\nclass = True", fillcolor="#50a9e8"] ;
419 -> 420 ;
421 [label="gini = 0.0\nsamples = 14\nvalue = [0, 14]\nclass = True", fillcolor="#399de5"] ;
420 -> 421 ;
422 [label="gini = 0.278\nsamples = 24\nvalue = [4, 20]\nclass = True", fillcolor="#61b1ea"] ;
420 -> 422 ;
423 [label="gini = 0.0\nsamples = 36\nvalue = [0, 36]\nclass = True", fillcolor="#399de5"] ;
419 -> 423 ;
424 [label="sdComm <= 2.0\ngini = 0.492\nsamples = 178\nvalue = [78, 100]\nclass = True", fillcolor="#d3e9f9"] ;
418 -> 424 ;
425 [label="gini = 0.5\nsamples = 56\nvalue = [28, 28]\nclass = False", fillcolor="#ffffff"] ;
424 -> 425 ;
426 [label="sdComm <= 6.5\ngini = 0.484\nsamples = 122\nvalue = [50, 72]\nclass = True", fillcolor="#c2e1f7"] ;
424 -> 426 ;
427 [label="gini = 0.489\nsamples = 94\nvalue = [40, 54]\nclass = True", fillcolor="#cce6f8"] ;
426 -> 427 ;
428 [label="gini = 0.459\nsamples = 28\nvalue = [10, 18]\nclass = True", fillcolor="#a7d3f3"] ;
426 -> 428 ;
429 [label="sdComm <= 6.5\ngini = 0.477\nsamples = 946\nvalue = [372, 574]\nclass = True", fillcolor="#b9ddf6"] ;
417 -> 429 ;
430 [label="nbproc <= 4.5\ngini = 0.47\nsamples = 634\nvalue = [240, 394]\nclass = True", fillcolor="#b2d9f5"] ;
429 -> 430 ;
431 [label="sdComm <= 2.0\ngini = 0.483\nsamples = 558\nvalue = [228, 330]\nclass = True", fillcolor="#c2e1f7"] ;
430 -> 431 ;
432 [label="gini = 0.499\nsamples = 314\nvalue = [150, 164]\nclass = True", fillcolor="#eef7fd"] ;
431 -> 432 ;
433 [label="gini = 0.435\nsamples = 244\nvalue = [78, 166]\nclass = True", fillcolor="#96cbf1"] ;
431 -> 433 ;
434 [label="sdComm <= 2.0\ngini = 0.266\nsamples = 76\nvalue = [12, 64]\nclass = True", fillcolor="#5eafea"] ;
430 -> 434 ;
435 [label="gini = 0.0\nsamples = 44\nvalue = [0, 44]\nclass = True", fillcolor="#399de5"] ;
434 -> 435 ;
436 [label="gini = 0.469\nsamples = 32\nvalue = [12, 20]\nclass = True", fillcolor="#b0d8f5"] ;
434 -> 436 ;
437 [label="nbproc <= 4.5\ngini = 0.488\nsamples = 312\nvalue = [132, 180]\nclass = True", fillcolor="#cae5f8"] ;
429 -> 437 ;
438 [label="gini = 0.475\nsamples = 216\nvalue = [84, 132]\nclass = True", fillcolor="#b7dbf6"] ;
437 -> 438 ;
439 [label="gini = 0.5\nsamples = 96\nvalue = [48, 48]\nclass = False", fillcolor="#ffffff"] ;
437 -> 439 ;
440 [label="graphDepth <= 9.0\ngini = 0.355\nsamples = 8566\nvalue = [1974, 6592]\nclass = True", fillcolor="#74baed"] ;
354 -> 440 ;
441 [label="sdComm <= 0.65\ngini = 0.181\nsamples = 2026\nvalue = [204, 1822]\nclass = True", fillcolor="#4fa8e8"] ;
440 -> 441 ;
442 [label="nbproc <= 4.5\ngini = 0.441\nsamples = 286\nvalue = [94, 192]\nclass = True", fillcolor="#9acdf2"] ;
441 -> 442 ;
443 [label="gini = 0.0\nsamples = 48\nvalue = [0, 48]\nclass = True", fillcolor="#399de5"] ;
442 -> 443 ;
444 [label="sdComm <= 0.2\ngini = 0.478\nsamples = 238\nvalue = [94, 144]\nclass = True", fillcolor="#baddf6"] ;
442 -> 444 ;
445 [label="graphDepth <= 6.5\ngini = 0.5\nsamples = 120\nvalue = [60, 60]\nclass = False", fillcolor="#ffffff"] ;
444 -> 445 ;
446 [label="gini = 0.499\nsamples = 116\nvalue = [60, 56]\nclass = False", fillcolor="#fdf7f2"] ;
445 -> 446 ;
447 [label="gini = 0.0\nsamples = 4\nvalue = [0, 4]\nclass = True", fillcolor="#399de5"] ;
445 -> 447 ;
448 [label="graphDepth <= 6.5\ngini = 0.41\nsamples = 118\nvalue = [34, 84]\nclass = True", fillcolor="#89c5f0"] ;
444 -> 448 ;
449 [label="gini = 0.406\nsamples = 106\nvalue = [30, 76]\nclass = True", fillcolor="#87c4ef"] ;
448 -> 449 ;
450 [label="gini = 0.444\nsamples = 12\nvalue = [4, 8]\nclass = True", fillcolor="#9ccef2"] ;
448 -> 450 ;
451 [label="sdComp <= 6.5\ngini = 0.118\nsamples = 1740\nvalue = [110, 1630]\nclass = True", fillcolor="#46a4e7"] ;
441 -> 451 ;
452 [label="CCR <= 5.5\ngini = 0.061\nsamples = 1402\nvalue = [44, 1358]\nclass = True", fillcolor="#3fa0e6"] ;
451 -> 452 ;
453 [label="graphSize <= 40.0\ngini = 0.231\nsamples = 60\nvalue = [8, 52]\nclass = True", fillcolor="#57ace9"] ;
452 -> 453 ;
454 [label="nbproc <= 4.5\ngini = 0.278\nsamples = 48\nvalue = [8, 40]\nclass = True", fillcolor="#61b1ea"] ;
453 -> 454 ;
455 [label="gini = 0.0\nsamples = 8\nvalue = [0, 8]\nclass = True", fillcolor="#399de5"] ;
454 -> 455 ;
456 [label="gini = 0.32\nsamples = 40\nvalue = [8, 32]\nclass = True", fillcolor="#6ab6ec"] ;
454 -> 456 ;
457 [label="gini = 0.0\nsamples = 12\nvalue = [0, 12]\nclass = True", fillcolor="#399de5"] ;
453 -> 457 ;
458 [label="graphSize <= 40.0\ngini = 0.052\nsamples = 1342\nvalue = [36, 1306]\nclass = True", fillcolor="#3ea0e6"] ;
452 -> 458 ;
459 [label="sdComm <= 2.0\ngini = 0.019\nsamples = 626\nvalue = [6, 620]\nclass = True", fillcolor="#3b9ee5"] ;
458 -> 459 ;
460 [label="sdComp <= 2.0\ngini = 0.061\nsamples = 190\nvalue = [6, 184]\nclass = True", fillcolor="#3fa0e6"] ;
459 -> 460 ;
461 [label="nbproc <= 4.5\ngini = 0.036\nsamples = 108\nvalue = [2, 106]\nclass = True", fillcolor="#3d9fe5"] ;
460 -> 461 ;
462 [label="gini = 0.0\nsamples = 68\nvalue = [0, 68]\nclass = True", fillcolor="#399de5"] ;
461 -> 462 ;
463 [label="gini = 0.095\nsamples = 40\nvalue = [2, 38]\nclass = True", fillcolor="#43a2e6"] ;
461 -> 463 ;
464 [label="gini = 0.093\nsamples = 82\nvalue = [4, 78]\nclass = True", fillcolor="#43a2e6"] ;
460 -> 464 ;
465 [label="gini = 0.0\nsamples = 436\nvalue = [0, 436]\nclass = True", fillcolor="#399de5"] ;
459 -> 465 ;
466 [label="sdComp <= 2.0\ngini = 0.08\nsamples = 716\nvalue = [30, 686]\nclass = True", fillcolor="#42a1e6"] ;
458 -> 466 ;
467 [label="nbproc <= 4.5\ngini = 0.139\nsamples = 320\nvalue = [24, 296]\nclass = True", fillcolor="#49a5e7"] ;
466 -> 467 ;
468 [label="sdComm <= 2.0\ngini = 0.236\nsamples = 88\nvalue = [12, 76]\nclass = True", fillcolor="#58ace9"] ;
467 -> 468 ;
469 [label="gini = 0.375\nsamples = 48\nvalue = [12, 36]\nclass = True", fillcolor="#7bbeee"] ;
468 -> 469 ;
470 [label="gini = 0.0\nsamples = 40\nvalue = [0, 40]\nclass = True", fillcolor="#399de5"] ;
468 -> 470 ;
471 [label="sdComm <= 6.5\ngini = 0.098\nsamples = 232\nvalue = [12, 220]\nclass = True", fillcolor="#44a2e6"] ;
467 -> 471 ;
472 [label="gini = 0.0\nsamples = 136\nvalue = [0, 136]\nclass = True", fillcolor="#399de5"] ;
471 -> 472 ;
473 [label="gini = 0.219\nsamples = 96\nvalue = [12, 84]\nclass = True", fillcolor="#55abe9"] ;
471 -> 473 ;
474 [label="sdComm <= 6.5\ngini = 0.03\nsamples = 396\nvalue = [6, 390]\nclass = True", fillcolor="#3c9fe5"] ;
466 -> 474 ;
475 [label="nbproc <= 4.5\ngini = 0.056\nsamples = 208\nvalue = [6, 202]\nclass = True", fillcolor="#3fa0e6"] ;
474 -> 475 ;
476 [label="sdComm <= 2.0\ngini = 0.101\nsamples = 112\nvalue = [6, 106]\nclass = True", fillcolor="#44a3e6"] ;
475 -> 476 ;
477 [label="gini = 0.0\nsamples = 36\nvalue = [0, 36]\nclass = True", fillcolor="#399de5"] ;
476 -> 477 ;
478 [label="gini = 0.145\nsamples = 76\nvalue = [6, 70]\nclass = True", fillcolor="#4aa5e7"] ;
476 -> 478 ;
479 [label="gini = 0.0\nsamples = 96\nvalue = [0, 96]\nclass = True", fillcolor="#399de5"] ;
475 -> 479 ;
480 [label="gini = 0.0\nsamples = 188\nvalue = [0, 188]\nclass = True", fillcolor="#399de5"] ;
474 -> 480 ;
481 [label="sdComm <= 6.5\ngini = 0.314\nsamples = 338\nvalue = [66, 272]\nclass = True", fillcolor="#69b5eb"] ;
451 -> 481 ;
482 [label="nbproc <= 4.5\ngini = 0.119\nsamples = 158\nvalue = [10, 148]\nclass = True", fillcolor="#46a4e7"] ;
481 -> 482 ;
483 [label="gini = 0.0\nsamples = 74\nvalue = [0, 74]\nclass = True", fillcolor="#399de5"] ;
482 -> 483 ;
484 [label="sdComm <= 2.0\ngini = 0.21\nsamples = 84\nvalue = [10, 74]\nclass = True", fillcolor="#54aae9"] ;
482 -> 484 ;
485 [label="graphDepth <= 6.5\ngini = 0.264\nsamples = 64\nvalue = [10, 54]\nclass = True", fillcolor="#5eafea"] ;
484 -> 485 ;
486 [label="gini = 0.266\nsamples = 38\nvalue = [6, 32]\nclass = True", fillcolor="#5eafea"] ;
485 -> 486 ;
487 [label="gini = 0.26\nsamples = 26\nvalue = [4, 22]\nclass = True", fillcolor="#5dafea"] ;
485 -> 487 ;
488 [label="gini = 0.0\nsamples = 20\nvalue = [0, 20]\nclass = True", fillcolor="#399de5"] ;
484 -> 488 ;
489 [label="nbproc <= 4.5\ngini = 0.429\nsamples = 180\nvalue = [56, 124]\nclass = True", fillcolor="#92c9f1"] ;
481 -> 489 ;
490 [label="graphSize <= 40.0\ngini = 0.433\nsamples = 164\nvalue = [52, 112]\nclass = True", fillcolor="#95caf1"] ;
489 -> 490 ;
491 [label="gini = 0.426\nsamples = 156\nvalue = [48, 108]\nclass = True", fillcolor="#91c9f1"] ;
490 -> 491 ;
492 [label="gini = 0.5\nsamples = 8\nvalue = [4, 4]\nclass = False", fillcolor="#ffffff"] ;
490 -> 492 ;
493 [label="graphDepth <= 6.5\ngini = 0.375\nsamples = 16\nvalue = [4, 12]\nclass = True", fillcolor="#7bbeee"] ;
489 -> 493 ;
494 [label="gini = 0.5\nsamples = 8\nvalue = [4, 4]\nclass = False", fillcolor="#ffffff"] ;
493 -> 494 ;
495 [label="gini = 0.0\nsamples = 8\nvalue = [0, 8]\nclass = True", fillcolor="#399de5"] ;
493 -> 495 ;
496 [label="graphDepth <= 25.5\ngini = 0.395\nsamples = 6540\nvalue = [1770, 4770]\nclass = True", fillcolor="#82c1ef"] ;
440 -> 496 ;
497 [label="sdComm <= 6.5\ngini = 0.368\nsamples = 4956\nvalue = [1206, 3750]\nclass = True", fillcolor="#79bded"] ;
496 -> 497 ;
498 [label="sdComp <= 2.0\ngini = 0.391\nsamples = 3428\nvalue = [914, 2514]\nclass = True", fillcolor="#81c1ee"] ;
497 -> 498 ;
499 [label="graphDepth <= 13.5\ngini = 0.344\nsamples = 1488\nvalue = [328, 1160]\nclass = True", fillcolor="#71b9ec"] ;
498 -> 499 ;
500 [label="nbproc <= 4.5\ngini = 0.4\nsamples = 766\nvalue = [212, 554]\nclass = True", fillcolor="#85c3ef"] ;
499 -> 500 ;
501 [label="sdComm <= 0.2\ngini = 0.176\nsamples = 288\nvalue = [28, 260]\nclass = True", fillcolor="#4ea8e8"] ;
500 -> 501 ;
502 [label="gini = 0.488\nsamples = 38\nvalue = [16, 22]\nclass = True", fillcolor="#c9e4f8"] ;
501 -> 502 ;
503 [label="CCR <= 5.5\ngini = 0.091\nsamples = 250\nvalue = [12, 238]\nclass = True", fillcolor="#43a2e6"] ;
501 -> 503 ;
504 [label="sdComm <= 0.65\ngini = 0.183\nsamples = 118\nvalue = [12, 106]\nclass = True", fillcolor="#4fa8e8"] ;
503 -> 504 ;
505 [label="gini = 0.0\nsamples = 36\nvalue = [0, 36]\nclass = True", fillcolor="#399de5"] ;
504 -> 505 ;
506 [label="gini = 0.25\nsamples = 82\nvalue = [12, 70]\nclass = True", fillcolor="#5baee9"] ;
504 -> 506 ;
507 [label="gini = 0.0\nsamples = 132\nvalue = [0, 132]\nclass = True", fillcolor="#399de5"] ;
503 -> 507 ;
508 [label="CCR <= 5.5\ngini = 0.474\nsamples = 478\nvalue = [184, 294]\nclass = True", fillcolor="#b5daf5"] ;
500 -> 508 ;
509 [label="gini = 0.0\nsamples = 10\nvalue = [10, 0]\nclass = False", fillcolor="#e58139"] ;
508 -> 509 ;
510 [label="sdComm <= 2.0\ngini = 0.467\nsamples = 468\nvalue = [174, 294]\nclass = True", fillcolor="#aed7f4"] ;
508 -> 510 ;
511 [label="gini = 0.427\nsamples = 252\nvalue = [78, 174]\nclass = True", fillcolor="#92c9f1"] ;
510 -> 511 ;
512 [label="gini = 0.494\nsamples = 216\nvalue = [96, 120]\nclass = True", fillcolor="#d7ebfa"] ;
510 -> 512 ;
513 [label="nbproc <= 4.5\ngini = 0.27\nsamples = 722\nvalue = [116, 606]\nclass = True", fillcolor="#5fb0ea"] ;
499 -> 513 ;
514 [label="sdComm <= 0.65\ngini = 0.345\nsamples = 452\nvalue = [100, 352]\nclass = True", fillcolor="#71b9ec"] ;
513 -> 514 ;
515 [label="gini = 0.0\nsamples = 42\nvalue = [0, 42]\nclass = True", fillcolor="#399de5"] ;
514 -> 515 ;
516 [label="sdComm <= 2.0\ngini = 0.369\nsamples = 410\nvalue = [100, 310]\nclass = True", fillcolor="#79bded"] ;
514 -> 516 ;
517 [label="graphSize <= 75.0\ngini = 0.425\nsamples = 170\nvalue = [52, 118]\nclass = True", fillcolor="#90c8f0"] ;
516 -> 517 ;
518 [label="CCR <= 5.5\ngini = 0.493\nsamples = 118\nvalue = [52, 66]\nclass = True", fillcolor="#d5eaf9"] ;
517 -> 518 ;
519 [label="gini = 0.48\nsamples = 10\nvalue = [4, 6]\nclass = True", fillcolor="#bddef6"] ;
518 -> 519 ;
520 [label="gini = 0.494\nsamples = 108\nvalue = [48, 60]\nclass = True", fillcolor="#d7ebfa"] ;
518 -> 520 ;
521 [label="gini = 0.0\nsamples = 52\nvalue = [0, 52]\nclass = True", fillcolor="#399de5"] ;
517 -> 521 ;
522 [label="graphSize <= 75.0\ngini = 0.32\nsamples = 240\nvalue = [48, 192]\nclass = True", fillcolor="#6ab6ec"] ;
516 -> 522 ;
523 [label="gini = 0.0\nsamples = 120\nvalue = [0, 120]\nclass = True", fillcolor="#399de5"] ;
522 -> 523 ;
524 [label="gini = 0.48\nsamples = 120\nvalue = [48, 72]\nclass = True", fillcolor="#bddef6"] ;
522 -> 524 ;
525 [label="sdComm <= 0.2\ngini = 0.111\nsamples = 270\nvalue = [16, 254]\nclass = True", fillcolor="#45a3e7"] ;
513 -> 525 ;
526 [label="graphSize <= 75.0\ngini = 0.497\nsamples = 26\nvalue = [14, 12]\nclass = False", fillcolor="#fbede3"] ;
525 -> 526 ;
527 [label="gini = 0.463\nsamples = 22\nvalue = [14, 8]\nclass = False", fillcolor="#f4c9aa"] ;
526 -> 527 ;
528 [label="gini = 0.0\nsamples = 4\nvalue = [0, 4]\nclass = True", fillcolor="#399de5"] ;
526 -> 528 ;
529 [label="CCR <= 5.5\ngini = 0.016\nsamples = 244\nvalue = [2, 242]\nclass = True", fillcolor="#3b9ee5"] ;
525 -> 529 ;
530 [label="sdComm <= 0.65\ngini = 0.133\nsamples = 28\nvalue = [2, 26]\nclass = True", fillcolor="#48a5e7"] ;
529 -> 530 ;
531 [label="gini = 0.0\nsamples = 6\nvalue = [0, 6]\nclass = True", fillcolor="#399de5"] ;
530 -> 531 ;
532 [label="gini = 0.165\nsamples = 22\nvalue = [2, 20]\nclass = True", fillcolor="#4da7e8"] ;
530 -> 532 ;
533 [label="gini = 0.0\nsamples = 216\nvalue = [0, 216]\nclass = True", fillcolor="#399de5"] ;
529 -> 533 ;
534 [label="graphSize <= 75.0\ngini = 0.422\nsamples = 1940\nvalue = [586, 1354]\nclass = True", fillcolor="#8fc7f0"] ;
498 -> 534 ;
535 [label="sdComm <= 2.0\ngini = 0.428\nsamples = 1682\nvalue = [522, 1160]\nclass = True", fillcolor="#92c9f1"] ;
534 -> 535 ;
536 [label="graphDepth <= 13.5\ngini = 0.41\nsamples = 800\nvalue = [230, 570]\nclass = True", fillcolor="#89c5ef"] ;
535 -> 536 ;
537 [label="sdComp <= 6.5\ngini = 0.283\nsamples = 234\nvalue = [40, 194]\nclass = True", fillcolor="#62b1ea"] ;
536 -> 537 ;
538 [label="gini = 0.0\nsamples = 124\nvalue = [0, 124]\nclass = True", fillcolor="#399de5"] ;
537 -> 538 ;
539 [label="nbproc <= 4.5\ngini = 0.463\nsamples = 110\nvalue = [40, 70]\nclass = True", fillcolor="#aad5f4"] ;
537 -> 539 ;
540 [label="gini = 0.494\nsamples = 54\nvalue = [24, 30]\nclass = True", fillcolor="#d7ebfa"] ;
539 -> 540 ;
541 [label="gini = 0.408\nsamples = 56\nvalue = [16, 40]\nclass = True", fillcolor="#88c4ef"] ;
539 -> 541 ;
542 [label="nbproc <= 4.5\ngini = 0.446\nsamples = 566\nvalue = [190, 376]\nclass = True", fillcolor="#9dcff2"] ;
536 -> 542 ;
543 [label="sdComp <= 6.5\ngini = 0.481\nsamples = 264\nvalue = [106, 158]\nclass = True", fillcolor="#bedff6"] ;
542 -> 543 ;
544 [label="gini = 0.489\nsamples = 164\nvalue = [70, 94]\nclass = True", fillcolor="#cce6f8"] ;
543 -> 544 ;
545 [label="gini = 0.461\nsamples = 100\nvalue = [36, 64]\nclass = True", fillcolor="#a8d4f4"] ;
543 -> 545 ;
546 [label="sdComp <= 6.5\ngini = 0.402\nsamples = 302\nvalue = [84, 218]\nclass = True", fillcolor="#85c3ef"] ;
542 -> 546 ;
547 [label="gini = 0.325\nsamples = 196\nvalue = [40, 156]\nclass = True", fillcolor="#6cb6ec"] ;
546 -> 547 ;
548 [label="gini = 0.486\nsamples = 106\nvalue = [44, 62]\nclass = True", fillcolor="#c6e3f7"] ;
546 -> 548 ;
549 [label="sdComp <= 6.5\ngini = 0.443\nsamples = 882\nvalue = [292, 590]\nclass = True", fillcolor="#9bcef2"] ;
535 -> 549 ;
550 [label="nbproc <= 4.5\ngini = 0.465\nsamples = 684\nvalue = [252, 432]\nclass = True", fillcolor="#acd6f4"] ;
549 -> 550 ;
551 [label="graphSize <= 40.0\ngini = 0.417\nsamples = 284\nvalue = [84, 200]\nclass = True", fillcolor="#8cc6f0"] ;
550 -> 551 ;
552 [label="gini = 0.406\nsamples = 212\nvalue = [60, 152]\nclass = True", fillcolor="#87c4ef"] ;
551 -> 552 ;
553 [label="gini = 0.444\nsamples = 72\nvalue = [24, 48]\nclass = True", fillcolor="#9ccef2"] ;
551 -> 553 ;
554 [label="graphDepth <= 13.5\ngini = 0.487\nsamples = 400\nvalue = [168, 232]\nclass = True", fillcolor="#c8e4f8"] ;
550 -> 554 ;
555 [label="gini = 0.483\nsamples = 264\nvalue = [108, 156]\nclass = True", fillcolor="#c2e1f7"] ;
554 -> 555 ;
556 [label="gini = 0.493\nsamples = 136\nvalue = [60, 76]\nclass = True", fillcolor="#d5eafa"] ;
554 -> 556 ;
557 [label="nbproc <= 4.5\ngini = 0.322\nsamples = 198\nvalue = [40, 158]\nclass = True", fillcolor="#6bb6ec"] ;
549 -> 557 ;
558 [label="graphDepth <= 13.5\ngini = 0.423\nsamples = 92\nvalue = [28, 64]\nclass = True", fillcolor="#90c8f0"] ;
557 -> 558 ;
559 [label="gini = 0.0\nsamples = 8\nvalue = [0, 8]\nclass = True", fillcolor="#399de5"] ;
558 -> 559 ;
560 [label="gini = 0.444\nsamples = 84\nvalue = [28, 56]\nclass = True", fillcolor="#9ccef2"] ;
558 -> 560 ;
561 [label="graphDepth <= 13.5\ngini = 0.201\nsamples = 106\nvalue = [12, 94]\nclass = True", fillcolor="#52aae8"] ;
557 -> 561 ;
562 [label="gini = 0.346\nsamples = 18\nvalue = [4, 14]\nclass = True", fillcolor="#72b9ec"] ;
561 -> 562 ;
563 [label="gini = 0.165\nsamples = 88\nvalue = [8, 80]\nclass = True", fillcolor="#4da7e8"] ;
561 -> 563 ;
564 [label="nbproc <= 4.5\ngini = 0.373\nsamples = 258\nvalue = [64, 194]\nclass = True", fillcolor="#7abdee"] ;
534 -> 564 ;
565 [label="sdComp <= 6.5\ngini = 0.259\nsamples = 118\nvalue = [18, 100]\nclass = True", fillcolor="#5dafea"] ;
564 -> 565 ;
566 [label="sdComm <= 2.0\ngini = 0.165\nsamples = 44\nvalue = [4, 40]\nclass = True", fillcolor="#4da7e8"] ;
565 -> 566 ;
567 [label="gini = 0.0\nsamples = 24\nvalue = [0, 24]\nclass = True", fillcolor="#399de5"] ;
566 -> 567 ;
568 [label="gini = 0.32\nsamples = 20\nvalue = [4, 16]\nclass = True", fillcolor="#6ab6ec"] ;
566 -> 568 ;
569 [label="sdComm <= 2.0\ngini = 0.307\nsamples = 74\nvalue = [14, 60]\nclass = True", fillcolor="#67b4eb"] ;
565 -> 569 ;
570 [label="gini = 0.43\nsamples = 32\nvalue = [10, 22]\nclass = True", fillcolor="#93caf1"] ;
569 -> 570 ;
571 [label="gini = 0.172\nsamples = 42\nvalue = [4, 38]\nclass = True", fillcolor="#4ea7e8"] ;
569 -> 571 ;
572 [label="sdComp <= 6.5\ngini = 0.441\nsamples = 140\nvalue = [46, 94]\nclass = True", fillcolor="#9acdf2"] ;
564 -> 572 ;
573 [label="sdComm <= 2.0\ngini = 0.48\nsamples = 40\nvalue = [16, 24]\nclass = True", fillcolor="#bddef6"] ;
572 -> 573 ;
574 [label="gini = 0.0\nsamples = 8\nvalue = [0, 8]\nclass = True", fillcolor="#399de5"] ;
573 -> 574 ;
575 [label="gini = 0.5\nsamples = 32\nvalue = [16, 16]\nclass = False", fillcolor="#ffffff"] ;
573 -> 575 ;
576 [label="sdComm <= 2.0\ngini = 0.42\nsamples = 100\nvalue = [30, 70]\nclass = True", fillcolor="#8ec7f0"] ;
572 -> 576 ;
577 [label="gini = 0.469\nsamples = 16\nvalue = [6, 10]\nclass = True", fillcolor="#b0d8f5"] ;
576 -> 577 ;
578 [label="gini = 0.408\nsamples = 84\nvalue = [24, 60]\nclass = True", fillcolor="#88c4ef"] ;
576 -> 578 ;
579 [label="sdComp <= 6.5\ngini = 0.309\nsamples = 1528\nvalue = [292, 1236]\nclass = True", fillcolor="#68b4eb"] ;
497 -> 579 ;
580 [label="graphSize <= 75.0\ngini = 0.26\nsamples = 1092\nvalue = [168, 924]\nclass = True", fillcolor="#5dafea"] ;
579 -> 580 ;
581 [label="sdComp <= 2.0\ngini = 0.312\nsamples = 868\nvalue = [168, 700]\nclass = True", fillcolor="#69b5eb"] ;
580 -> 581 ;
582 [label="graphDepth <= 13.5\ngini = 0.372\nsamples = 388\nvalue = [96, 292]\nclass = True", fillcolor="#7abdee"] ;
581 -> 582 ;
583 [label="nbproc <= 4.5\ngini = 0.402\nsamples = 172\nvalue = [48, 124]\nclass = True", fillcolor="#86c3ef"] ;
582 -> 583 ;
584 [label="gini = 0.0\nsamples = 36\nvalue = [0, 36]\nclass = True", fillcolor="#399de5"] ;
583 -> 584 ;
585 [label="gini = 0.457\nsamples = 136\nvalue = [48, 88]\nclass = True", fillcolor="#a5d2f3"] ;
583 -> 585 ;
586 [label="nbproc <= 4.5\ngini = 0.346\nsamples = 216\nvalue = [48, 168]\nclass = True", fillcolor="#72b9ec"] ;
582 -> 586 ;
587 [label="gini = 0.444\nsamples = 72\nvalue = [24, 48]\nclass = True", fillcolor="#9ccef2"] ;
586 -> 587 ;
588 [label="gini = 0.278\nsamples = 144\nvalue = [24, 120]\nclass = True", fillcolor="#61b1ea"] ;
586 -> 588 ;
589 [label="graphSize <= 40.0\ngini = 0.255\nsamples = 480\nvalue = [72, 408]\nclass = True", fillcolor="#5caeea"] ;
581 -> 589 ;
590 [label="nbproc <= 4.5\ngini = 0.204\nsamples = 312\nvalue = [36, 276]\nclass = True", fillcolor="#53aae8"] ;
589 -> 590 ;
591 [label="gini = 0.32\nsamples = 120\nvalue = [24, 96]\nclass = True", fillcolor="#6ab6ec"] ;
590 -> 591 ;
592 [label="gini = 0.117\nsamples = 192\nvalue = [12, 180]\nclass = True", fillcolor="#46a4e7"] ;
590 -> 592 ;
593 [label="nbproc <= 4.5\ngini = 0.337\nsamples = 168\nvalue = [36, 132]\nclass = True", fillcolor="#6fb8ec"] ;
589 -> 593 ;
594 [label="gini = 0.219\nsamples = 96\nvalue = [12, 84]\nclass = True", fillcolor="#55abe9"] ;
593 -> 594 ;
595 [label="gini = 0.444\nsamples = 72\nvalue = [24, 48]\nclass = True", fillcolor="#9ccef2"] ;
593 -> 595 ;
596 [label="gini = 0.0\nsamples = 224\nvalue = [0, 224]\nclass = True", fillcolor="#399de5"] ;
580 -> 596 ;
597 [label="graphSize <= 75.0\ngini = 0.407\nsamples = 436\nvalue = [124, 312]\nclass = True", fillcolor="#88c4ef"] ;
579 -> 597 ;
598 [label="nbproc <= 4.5\ngini = 0.361\nsamples = 356\nvalue = [84, 272]\nclass = True", fillcolor="#76bbed"] ;
597 -> 598 ;
599 [label="graphDepth <= 13.5\ngini = 0.391\nsamples = 300\nvalue = [80, 220]\nclass = True", fillcolor="#81c1ee"] ;
598 -> 599 ;
600 [label="gini = 0.398\nsamples = 204\nvalue = [56, 148]\nclass = True", fillcolor="#84c2ef"] ;
599 -> 600 ;
601 [label="gini = 0.375\nsamples = 96\nvalue = [24, 72]\nclass = True", fillcolor="#7bbeee"] ;
599 -> 601 ;
602 [label="graphSize <= 40.0\ngini = 0.133\nsamples = 56\nvalue = [4, 52]\nclass = True", fillcolor="#48a5e7"] ;
598 -> 602 ;
603 [label="gini = 0.0\nsamples = 36\nvalue = [0, 36]\nclass = True", fillcolor="#399de5"] ;
602 -> 603 ;
604 [label="gini = 0.32\nsamples = 20\nvalue = [4, 16]\nclass = True", fillcolor="#6ab6ec"] ;
602 -> 604 ;
605 [label="gini = 0.5\nsamples = 80\nvalue = [40, 40]\nclass = False", fillcolor="#ffffff"] ;
597 -> 605 ;
606 [label="nbproc <= 4.5\ngini = 0.459\nsamples = 1584\nvalue = [564, 1020]\nclass = True", fillcolor="#a6d3f3"] ;
496 -> 606 ;
607 [label="sdComp <= 6.5\ngini = 0.401\nsamples = 606\nvalue = [168, 438]\nclass = True", fillcolor="#85c3ef"] ;
606 -> 607 ;
608 [label="sdComm <= 2.0\ngini = 0.248\nsamples = 358\nvalue = [52, 306]\nclass = True", fillcolor="#5baee9"] ;
607 -> 608 ;
609 [label="sdComp <= 2.0\ngini = 0.389\nsamples = 106\nvalue = [28, 78]\nclass = True", fillcolor="#80c0ee"] ;
608 -> 609 ;
610 [label="sdComm <= 0.65\ngini = 0.429\nsamples = 90\nvalue = [28, 62]\nclass = True", fillcolor="#92c9f1"] ;
609 -> 610 ;
611 [label="gini = 0.0\nsamples = 6\nvalue = [0, 6]\nclass = True", fillcolor="#399de5"] ;
610 -> 611 ;
612 [label="CCR <= 5.5\ngini = 0.444\nsamples = 84\nvalue = [28, 56]\nclass = True", fillcolor="#9ccef2"] ;
610 -> 612 ;
613 [label="gini = 0.444\nsamples = 12\nvalue = [4, 8]\nclass = True", fillcolor="#9ccef2"] ;
612 -> 613 ;
614 [label="gini = 0.444\nsamples = 72\nvalue = [24, 48]\nclass = True", fillcolor="#9ccef2"] ;
612 -> 614 ;
615 [label="gini = 0.0\nsamples = 16\nvalue = [0, 16]\nclass = True", fillcolor="#399de5"] ;
609 -> 615 ;
616 [label="sdComm <= 6.5\ngini = 0.172\nsamples = 252\nvalue = [24, 228]\nclass = True", fillcolor="#4ea7e8"] ;
608 -> 616 ;
617 [label="gini = 0.0\nsamples = 144\nvalue = [0, 144]\nclass = True", fillcolor="#399de5"] ;
616 -> 617 ;
618 [label="sdComp <= 2.0\ngini = 0.346\nsamples = 108\nvalue = [24, 84]\nclass = True", fillcolor="#72b9ec"] ;
616 -> 618 ;
619 [label="gini = 0.0\nsamples = 24\nvalue = [0, 24]\nclass = True", fillcolor="#399de5"] ;
618 -> 619 ;
620 [label="gini = 0.408\nsamples = 84\nvalue = [24, 60]\nclass = True", fillcolor="#88c4ef"] ;
618 -> 620 ;
621 [label="sdComm <= 6.5\ngini = 0.498\nsamples = 248\nvalue = [116, 132]\nclass = True", fillcolor="#e7f3fc"] ;
607 -> 621 ;
622 [label="sdComm <= 2.0\ngini = 0.5\nsamples = 208\nvalue = [104, 104]\nclass = False", fillcolor="#ffffff"] ;
621 -> 622 ;
623 [label="gini = 0.5\nsamples = 160\nvalue = [80, 80]\nclass = False", fillcolor="#ffffff"] ;
622 -> 623 ;
624 [label="gini = 0.5\nsamples = 48\nvalue = [24, 24]\nclass = False", fillcolor="#ffffff"] ;
622 -> 624 ;
625 [label="gini = 0.42\nsamples = 40\nvalue = [12, 28]\nclass = True", fillcolor="#8ec7f0"] ;
621 -> 625 ;
626 [label="sdComp <= 6.5\ngini = 0.482\nsamples = 978\nvalue = [396, 582]\nclass = True", fillcolor="#c0e0f7"] ;
606 -> 626 ;
627 [label="CCR <= 5.5\ngini = 0.489\nsamples = 910\nvalue = [388, 522]\nclass = True", fillcolor="#cce6f8"] ;
626 -> 627 ;
628 [label="gini = 0.0\nsamples = 14\nvalue = [0, 14]\nclass = True", fillcolor="#399de5"] ;
627 -> 628 ;
629 [label="sdComm <= 2.0\ngini = 0.491\nsamples = 896\nvalue = [388, 508]\nclass = True", fillcolor="#d0e8f9"] ;
627 -> 629 ;
630 [label="sdComp <= 2.0\ngini = 0.472\nsamples = 252\nvalue = [96, 156]\nclass = True", fillcolor="#b3d9f5"] ;
629 -> 630 ;
631 [label="gini = 0.255\nsamples = 80\nvalue = [12, 68]\nclass = True", fillcolor="#5caeea"] ;
630 -> 631 ;
632 [label="gini = 0.5\nsamples = 172\nvalue = [84, 88]\nclass = True", fillcolor="#f6fbfe"] ;
630 -> 632 ;
633 [label="sdComp <= 2.0\ngini = 0.496\nsamples = 644\nvalue = [292, 352]\nclass = True", fillcolor="#ddeefb"] ;
629 -> 633 ;
634 [label="sdComm <= 6.5\ngini = 0.5\nsamples = 408\nvalue = [204, 204]\nclass = False", fillcolor="#ffffff"] ;
633 -> 634 ;
635 [label="gini = 0.5\nsamples = 192\nvalue = [96, 96]\nclass = False", fillcolor="#ffffff"] ;
634 -> 635 ;
636 [label="gini = 0.5\nsamples = 216\nvalue = [108, 108]\nclass = False", fillcolor="#ffffff"] ;
634 -> 636 ;
637 [label="sdComm <= 6.5\ngini = 0.468\nsamples = 236\nvalue = [88, 148]\nclass = True", fillcolor="#afd7f4"] ;
633 -> 637 ;
638 [label="gini = 0.463\nsamples = 132\nvalue = [48, 84]\nclass = True", fillcolor="#aad5f4"] ;
637 -> 638 ;
639 [label="gini = 0.473\nsamples = 104\nvalue = [40, 64]\nclass = True", fillcolor="#b5daf5"] ;
637 -> 639 ;
640 [label="sdComm <= 2.0\ngini = 0.208\nsamples = 68\nvalue = [8, 60]\nclass = True", fillcolor="#53aae8"] ;
626 -> 640 ;
641 [label="gini = 0.0\nsamples = 16\nvalue = [0, 16]\nclass = True", fillcolor="#399de5"] ;
640 -> 641 ;
642 [label="sdComm <= 6.5\ngini = 0.26\nsamples = 52\nvalue = [8, 44]\nclass = True", fillcolor="#5dafea"] ;
640 -> 642 ;
643 [label="gini = 0.32\nsamples = 40\nvalue = [8, 32]\nclass = True", fillcolor="#6ab6ec"] ;
642 -> 643 ;
644 [label="gini = 0.0\nsamples = 12\nvalue = [0, 12]\nclass = True", fillcolor="#399de5"] ;
642 -> 644 ;
}