digraph Tree {
node [shape=box, style="filled", color="black"] ;
0 [label="CCR <= 0.55\ngini = 0.743\nsamples = 11670\nvalue = [5152, 1334, 1316, 1276, 1276, 1316]\nclass = mean", fillcolor="#f5d0b6"] ;
1 [label="nbproc <= 4.5\ngini = 0.395\nsamples = 2219\nvalue = [1711, 92, 120, 88, 88, 120]\nclass = mean", fillcolor="#eb9f69"] ;
0 -> 1 [labeldistance=2.5, labelangle=45, headlabel="True"] ;
2 [label="graphDepth <= 3.5\ngini = 0.669\nsamples = 971\nvalue = [519, 76, 116, 72, 72, 116]\nclass = mean", fillcolor="#f3c4a2"] ;
1 -> 2 ;
3 [label="sdComp <= 0.02\ngini = 0.805\nsamples = 389\nvalue = [109, 44, 80, 38, 38, 80]\nclass = mean", fillcolor="#fdf3ec"] ;
2 -> 3 ;
4 [label="(...)", fillcolor="#C0C0C0"] ;
3 -> 4 ;
9 [label="(...)", fillcolor="#C0C0C0"] ;
3 -> 9 ;
16 [label="sdComp <= 0.065\ngini = 0.486\nsamples = 582\nvalue = [410, 32, 36, 34, 34, 36]\nclass = mean", fillcolor="#eda977"] ;
2 -> 16 ;
17 [label="(...)", fillcolor="#C0C0C0"] ;
16 -> 17 ;
40 [label="(...)", fillcolor="#C0C0C0"] ;
16 -> 40 ;
51 [label="sdComp <= 0.02\ngini = 0.087\nsamples = 1248\nvalue = [1192, 16, 4, 16, 16, 4]\nclass = mean", fillcolor="#e68742"] ;
1 -> 51 ;
52 [label="graphDepth <= 6.5\ngini = 0.312\nsamples = 320\nvalue = [264, 16, 4, 16, 16, 4]\nclass = mean", fillcolor="#ea985d"] ;
51 -> 52 ;
53 [label="(...)", fillcolor="#C0C0C0"] ;
52 -> 53 ;
60 [label="(...)", fillcolor="#C0C0C0"] ;
52 -> 60 ;
65 [label="gini = 0.0\nsamples = 928\nvalue = [928, 0, 0, 0, 0, 0]\nclass = mean", fillcolor="#e58139"] ;
51 -> 65 ;
66 [label="graphSize <= 40.0\ngini = 0.787\nsamples = 9451\nvalue = [3441, 1242, 1196, 1188, 1188, 1196]\nclass = mean", fillcolor="#f8ddca"] ;
0 -> 66 [labeldistance=2.5, labelangle=-45, headlabel="False"] ;
67 [label="graphSize <= 22.5\ngini = 0.811\nsamples = 6105\nvalue = [1851, 878, 838, 850, 850, 838]\nclass = mean", fillcolor="#fae8da"] ;
66 -> 67 ;
68 [label="sdComp <= 0.65\ngini = 0.82\nsamples = 4033\nvalue = [1089, 616, 578, 586, 586, 578]\nclass = mean", fillcolor="#fbeee4"] ;
67 -> 68 ;
69 [label="(...)", fillcolor="#C0C0C0"] ;
68 -> 69 ;
112 [label="(...)", fillcolor="#C0C0C0"] ;
68 -> 112 ;
193 [label="CCR <= 5.5\ngini = 0.785\nsamples = 2072\nvalue = [762, 262, 260, 264, 264, 260]\nclass = mean", fillcolor="#f8dcc8"] ;
67 -> 193 ;
194 [label="(...)", fillcolor="#C0C0C0"] ;
193 -> 194 ;
215 [label="(...)", fillcolor="#C0C0C0"] ;
193 -> 215 ;
282 [label="CCR <= 5.5\ngini = 0.719\nsamples = 3346\nvalue = [1590, 364, 358, 338, 338, 358]\nclass = mean", fillcolor="#f4cbae"] ;
66 -> 282 ;
283 [label="graphDepth <= 12.5\ngini = 0.127\nsamples = 212\nvalue = [198, 2, 4, 2, 2, 4]\nclass = mean", fillcolor="#e78946"] ;
282 -> 283 ;
284 [label="(...)", fillcolor="#C0C0C0"] ;
283 -> 284 ;
293 [label="(...)", fillcolor="#C0C0C0"] ;
283 -> 293 ;
300 [label="sdComp <= 2.0\ngini = 0.741\nsamples = 3134\nvalue = [1392, 362, 354, 336, 336, 354]\nclass = mean", fillcolor="#f5d0b5"] ;
282 -> 300 ;
301 [label="(...)", fillcolor="#C0C0C0"] ;
300 -> 301 ;
336 [label="(...)", fillcolor="#C0C0C0"] ;
300 -> 336 ;
}