digraph Tree {
node [shape=box, style="filled", color="black"] ;
0 [label="graphDepth <= 3.5\ngini = 0.833\nsamples = 26338\nvalue = [4337, 4401, 4496, 4304, 4304, 4496]\nclass = maxmax", fillcolor="#ffffff"] ;
1 [label="CCR <= 0.55\ngini = 0.832\nsamples = 3413\nvalue = [467, 570, 576, 612, 612, 576]\nclass = minmax", fillcolor="#ffffff"] ;
0 -> 1 [labeldistance=2.5, labelangle=45, headlabel="True"] ;
2 [label="sdComm <= 0.065\ngini = 0.829\nsamples = 1657\nvalue = [195, 274, 332, 262, 262, 332]\nclass = maxmax", fillcolor="#ffffff"] ;
1 -> 2 ;
3 [label="sdComp <= 0.02\ngini = 0.825\nsamples = 952\nvalue = [82, 178, 158, 188, 188, 158]\nclass = minmax", fillcolor="#ffffff"] ;
2 -> 3 ;
4 [label="nbproc <= 4.5\ngini = 0.779\nsamples = 190\nvalue = [8, 38, 18, 54, 54, 18]\nclass = minmax", fillcolor="#ffffff"] ;
3 -> 4 ;
5 [label="sdComm <= 0.02\ngini = 0.576\nsamples = 48\nvalue = [2, 2, 0, 22, 22, 0]\nclass = minmax", fillcolor="#ffffff"] ;
4 -> 5 ;
6 [label="gini = 0.568\nsamples = 26\nvalue = [0, 2, 0, 12, 12, 0]\nclass = minmax", fillcolor="#ffffff"] ;
5 -> 6 ;
7 [label="gini = 0.579\nsamples = 22\nvalue = [2, 0, 0, 10, 10, 0]\nclass = minmax", fillcolor="#ffffff"] ;
5 -> 7 ;
8 [label="sdComm <= 0.02\ngini = 0.8\nsamples = 142\nvalue = [6, 36, 18, 32, 32, 18]\nclass = median", fillcolor="#fbfef8"] ;
4 -> 8 ;
9 [label="gini = 0.804\nsamples = 130\nvalue = [6, 24, 18, 32, 32, 18]\nclass = minmax", fillcolor="#ffffff"] ;
8 -> 9 ;
10 [label="gini = 0.0\nsamples = 12\nvalue = [0, 12, 0, 0, 0, 0]\nclass = median", fillcolor="#9de539"] ;
8 -> 10 ;
11 [label="nbproc <= 4.5\ngini = 0.827\nsamples = 762\nvalue = [74, 140, 140, 134, 134, 140]\nclass = median", fillcolor="#ffffff"] ;
3 -> 11 ;
12 [label="sdComm <= 0.02\ngini = 0.797\nsamples = 170\nvalue = [14, 56, 28, 22, 22, 28]\nclass = median", fillcolor="#ecfad8"] ;
11 -> 12 ;
13 [label="gini = 0.779\nsamples = 86\nvalue = [14, 32, 8, 12, 12, 8]\nclass = median", fillcolor="#e6f8ce"] ;
12 -> 13 ;
14 [label="gini = 0.777\nsamples = 84\nvalue = [0, 24, 20, 10, 10, 20]\nclass = median", fillcolor="#f9fdf3"] ;
12 -> 14 ;
15 [label="sdComm <= 0.02\ngini = 0.826\nsamples = 592\nvalue = [60, 84, 112, 112, 112, 112]\nclass = maxmax", fillcolor="#ffffff"] ;
11 -> 15 ;
16 [label="sdComp <= 0.065\ngini = 0.823\nsamples = 408\nvalue = [56, 40, 88, 68, 68, 88]\nclass = maxmax", fillcolor="#ffffff"] ;
15 -> 16 ;
17 [label="gini = 0.625\nsamples = 16\nvalue = [0, 8, 0, 4, 4, 0]\nclass = median", fillcolor="#def6bd"] ;
16 -> 17 ;
18 [label="gini = 0.819\nsamples = 392\nvalue = [56, 32, 88, 64, 64, 88]\nclass = maxmax", fillcolor="#ffffff"] ;
16 -> 18 ;
19 [label="sdComp <= 0.065\ngini = 0.794\nsamples = 184\nvalue = [4, 44, 24, 44, 44, 24]\nclass = median", fillcolor="#ffffff"] ;
15 -> 19 ;
20 [label="gini = 0.612\nsamples = 28\nvalue = [0, 4, 12, 0, 0, 12]\nclass = maxmax", fillcolor="#ffffff"] ;
19 -> 20 ;
21 [label="gini = 0.763\nsamples = 156\nvalue = [4, 40, 12, 44, 44, 12]\nclass = minmax", fillcolor="#ffffff"] ;
19 -> 21 ;
22 [label="nbproc <= 4.5\ngini = 0.812\nsamples = 705\nvalue = [113, 96, 174, 74, 74, 174]\nclass = maxmax", fillcolor="#ffffff"] ;
2 -> 22 ;
23 [label="sdComp <= 0.02\ngini = 0.613\nsamples = 119\nvalue = [1, 2, 52, 6, 6, 52]\nclass = maxmax", fillcolor="#ffffff"] ;
22 -> 23 ;
24 [label="gini = 0.0\nsamples = 2\nvalue = [0, 2, 0, 0, 0, 0]\nclass = median", fillcolor="#9de539"] ;
23 -> 24 ;
25 [label="sdComp <= 0.065\ngini = 0.6\nsamples = 117\nvalue = [1, 0, 52, 6, 6, 52]\nclass = maxmax", fillcolor="#ffffff"] ;
23 -> 25 ;
26 [label="gini = 0.71\nsamples = 40\nvalue = [0, 0, 14, 6, 6, 14]\nclass = maxmax", fillcolor="#ffffff"] ;
25 -> 26 ;
27 [label="gini = 0.513\nsamples = 77\nvalue = [1, 0, 38, 0, 0, 38]\nclass = maxmax", fillcolor="#ffffff"] ;
25 -> 27 ;
28 [label="sdComp <= 0.02\ngini = 0.824\nsamples = 586\nvalue = [112, 94, 122, 68, 68, 122]\nclass = maxmax", fillcolor="#ffffff"] ;
22 -> 28 ;
29 [label="gini = 0.64\nsamples = 20\nvalue = [4, 0, 8, 0, 0, 8]\nclass = maxmax", fillcolor="#ffffff"] ;
28 -> 29 ;
30 [label="sdComp <= 0.065\ngini = 0.826\nsamples = 566\nvalue = [108, 94, 114, 68, 68, 114]\nclass = maxmax", fillcolor="#ffffff"] ;
28 -> 30 ;
31 [label="gini = 0.831\nsamples = 70\nvalue = [12, 14, 10, 12, 12, 10]\nclass = median", fillcolor="#fcfef8"] ;
30 -> 31 ;
32 [label="gini = 0.823\nsamples = 496\nvalue = [96, 80, 104, 56, 56, 104]\nclass = maxmax", fillcolor="#ffffff"] ;
30 -> 32 ;
33 [label="sdComm <= 0.65\ngini = 0.83\nsamples = 1756\nvalue = [272, 296, 244, 350, 350, 244]\nclass = minmax", fillcolor="#ffffff"] ;
1 -> 33 ;
34 [label="nbproc <= 4.5\ngini = 0.822\nsamples = 782\nvalue = [118, 140, 90, 172, 172, 90]\nclass = minmax", fillcolor="#ffffff"] ;
33 -> 34 ;
35 [label="sdComm <= 0.2\ngini = 0.656\nsamples = 118\nvalue = [12, 6, 2, 48, 48, 2]\nclass = minmax", fillcolor="#ffffff"] ;
34 -> 35 ;
36 [label="sdComp <= 0.65\ngini = 0.806\nsamples = 28\nvalue = [6, 6, 2, 6, 6, 2]\nclass = mean", fillcolor="#ffffff"] ;
35 -> 36 ;
37 [label="sdComp <= 0.2\ngini = 0.72\nsamples = 10\nvalue = [4, 2, 2, 0, 0, 2]\nclass = mean", fillcolor="#f8e0ce"] ;
36 -> 37 ;
38 [label="gini = 0.0\nsamples = 2\nvalue = [0, 2, 0, 0, 0, 0]\nclass = median", fillcolor="#9de539"] ;
37 -> 38 ;
39 [label="gini = 0.625\nsamples = 8\nvalue = [4, 0, 2, 0, 0, 2]\nclass = mean", fillcolor="#f6d5bd"] ;
37 -> 39 ;
40 [label="gini = 0.716\nsamples = 18\nvalue = [2, 4, 0, 6, 6, 0]\nclass = minmax", fillcolor="#ffffff"] ;
36 -> 40 ;
41 [label="sdComp <= 0.65\ngini = 0.56\nsamples = 90\nvalue = [6, 0, 0, 42, 42, 0]\nclass = minmax", fillcolor="#ffffff"] ;
35 -> 41 ;
42 [label="sdComp <= 0.2\ngini = 0.612\nsamples = 42\nvalue = [6, 0, 0, 18, 18, 0]\nclass = minmax", fillcolor="#ffffff"] ;
41 -> 42 ;
43 [label="gini = 0.5\nsamples = 20\nvalue = [0, 0, 0, 10, 10, 0]\nclass = minmax", fillcolor="#ffffff"] ;
42 -> 43 ;
44 [label="gini = 0.661\nsamples = 22\nvalue = [6, 0, 0, 8, 8, 0]\nclass = minmax", fillcolor="#ffffff"] ;
42 -> 44 ;
45 [label="gini = 0.5\nsamples = 48\nvalue = [0, 0, 0, 24, 24, 0]\nclass = minmax", fillcolor="#ffffff"] ;
41 -> 45 ;
46 [label="sdComp <= 0.65\ngini = 0.829\nsamples = 664\nvalue = [106, 134, 88, 124, 124, 88]\nclass = median", fillcolor="#fdfffb"] ;
34 -> 46 ;
47 [label="sdComm <= 0.2\ngini = 0.798\nsamples = 100\nvalue = [20, 20, 24, 6, 6, 24]\nclass = maxmax", fillcolor="#ffffff"] ;
46 -> 47 ;
48 [label="sdComp <= 0.2\ngini = 0.74\nsamples = 48\nvalue = [4, 0, 16, 6, 6, 16]\nclass = maxmax", fillcolor="#ffffff"] ;
47 -> 48 ;
49 [label="gini = 0.656\nsamples = 16\nvalue = [4, 0, 6, 0, 0, 6]\nclass = maxmax", fillcolor="#ffffff"] ;
48 -> 49 ;
50 [label="gini = 0.734\nsamples = 32\nvalue = [0, 0, 10, 6, 6, 10]\nclass = maxmax", fillcolor="#ffffff"] ;
48 -> 50 ;
51 [label="sdComp <= 0.2\ngini = 0.71\nsamples = 52\nvalue = [16, 20, 8, 0, 0, 8]\nclass = median", fillcolor="#f4fce9"] ;
47 -> 51 ;
52 [label="gini = 0.667\nsamples = 12\nvalue = [4, 0, 4, 0, 0, 4]\nclass = mean", fillcolor="#ffffff"] ;
51 -> 52 ;
53 [label="gini = 0.64\nsamples = 40\nvalue = [12, 20, 4, 0, 0, 4]\nclass = median", fillcolor="#e3f8c6"] ;
51 -> 53 ;
54 [label="sdComm <= 0.2\ngini = 0.823\nsamples = 564\nvalue = [86, 114, 64, 118, 118, 64]\nclass = minmax", fillcolor="#ffffff"] ;
46 -> 54 ;
55 [label="gini = 0.831\nsamples = 242\nvalue = [48, 42, 34, 42, 42, 34]\nclass = mean", fillcolor="#fefbf9"] ;
54 -> 55 ;
56 [label="gini = 0.807\nsamples = 322\nvalue = [38, 72, 30, 76, 76, 30]\nclass = minmax", fillcolor="#ffffff"] ;
54 -> 56 ;
57 [label="nbproc <= 4.5\ngini = 0.833\nsamples = 974\nvalue = [154, 156, 154, 178, 178, 154]\nclass = minmax", fillcolor="#ffffff"] ;
33 -> 57 ;
58 [label="sdComp <= 0.2\ngini = 0.831\nsamples = 468\nvalue = [72, 68, 90, 74, 74, 90]\nclass = maxmax", fillcolor="#ffffff"] ;
57 -> 58 ;
59 [label="gini = 0.5\nsamples = 12\nvalue = [6, 6, 0, 0, 0, 0]\nclass = mean", fillcolor="#ffffff"] ;
58 -> 59 ;
60 [label="sdComp <= 2.0\ngini = 0.83\nsamples = 456\nvalue = [66, 62, 90, 74, 74, 90]\nclass = maxmax", fillcolor="#ffffff"] ;
58 -> 60 ;
61 [label="sdComm <= 2.0\ngini = 0.824\nsamples = 372\nvalue = [52, 36, 78, 64, 64, 78]\nclass = maxmax", fillcolor="#ffffff"] ;
60 -> 61 ;
62 [label="CCR <= 5.5\ngini = 0.823\nsamples = 324\nvalue = [44, 28, 66, 60, 60, 66]\nclass = maxmax", fillcolor="#ffffff"] ;
61 -> 62 ;
63 [label="sdComp <= 0.65\ngini = 0.821\nsamples = 300\nvalue = [40, 24, 62, 56, 56, 62]\nclass = maxmax", fillcolor="#ffffff"] ;
62 -> 63 ;
64 [label="gini = 0.814\nsamples = 44\nvalue = [4, 4, 10, 8, 8, 10]\nclass = maxmax", fillcolor="#ffffff"] ;
63 -> 64 ;
65 [label="gini = 0.821\nsamples = 256\nvalue = [36, 20, 52, 48, 48, 52]\nclass = maxmax", fillcolor="#ffffff"] ;
63 -> 65 ;
66 [label="gini = 0.833\nsamples = 24\nvalue = [4, 4, 4, 4, 4, 4]\nclass = mean", fillcolor="#ffffff"] ;
62 -> 66 ;
67 [label="gini = 0.806\nsamples = 48\nvalue = [8, 8, 12, 4, 4, 12]\nclass = maxmax", fillcolor="#ffffff"] ;
61 -> 67 ;
68 [label="sdComm <= 2.0\ngini = 0.807\nsamples = 84\nvalue = [14, 26, 12, 10, 10, 12]\nclass = median", fillcolor="#eefbdd"] ;
60 -> 68 ;
69 [label="gini = 0.0\nsamples = 12\nvalue = [0, 12, 0, 0, 0, 0]\nclass = median", fillcolor="#9de539"] ;
68 -> 69 ;
70 [label="sdComp <= 6.5\ngini = 0.83\nsamples = 72\nvalue = [14, 14, 12, 10, 10, 12]\nclass = mean", fillcolor="#ffffff"] ;
68 -> 70 ;
71 [label="gini = 0.833\nsamples = 60\nvalue = [10, 10, 10, 10, 10, 10]\nclass = mean", fillcolor="#ffffff"] ;
70 -> 71 ;
72 [label="gini = 0.722\nsamples = 12\nvalue = [4, 4, 2, 0, 0, 2]\nclass = mean", fillcolor="#ffffff"] ;
70 -> 72 ;
73 [label="sdComp <= 6.5\ngini = 0.827\nsamples = 506\nvalue = [82, 88, 64, 104, 104, 64]\nclass = minmax", fillcolor="#ffffff"] ;
57 -> 73 ;
74 [label="CCR <= 5.5\ngini = 0.823\nsamples = 418\nvalue = [78, 88, 46, 80, 80, 46]\nclass = median", fillcolor="#fdfefa"] ;
73 -> 74 ;
75 [label="sdComp <= 0.55\ngini = 0.825\nsamples = 178\nvalue = [38, 40, 26, 24, 24, 26]\nclass = median", fillcolor="#fefffc"] ;
74 -> 75 ;
76 [label="gini = 0.831\nsamples = 88\nvalue = [16, 16, 12, 16, 16, 12]\nclass = mean", fillcolor="#ffffff"] ;
75 -> 76 ;
77 [label="gini = 0.805\nsamples = 90\nvalue = [22, 24, 14, 8, 8, 14]\nclass = median", fillcolor="#fcfef9"] ;
75 -> 77 ;
78 [label="sdComp <= 2.0\ngini = 0.809\nsamples = 240\nvalue = [40, 48, 20, 56, 56, 20]\nclass = minmax", fillcolor="#ffffff"] ;
74 -> 78 ;
79 [label="sdComm <= 2.0\ngini = 0.784\nsamples = 156\nvalue = [24, 32, 8, 42, 42, 8]\nclass = minmax", fillcolor="#ffffff"] ;
78 -> 79 ;
80 [label="gini = 0.789\nsamples = 88\nvalue = [20, 20, 4, 20, 20, 4]\nclass = mean", fillcolor="#ffffff"] ;
79 -> 80 ;
81 [label="gini = 0.749\nsamples = 68\nvalue = [4, 12, 4, 22, 22, 4]\nclass = minmax", fillcolor="#ffffff"] ;
79 -> 81 ;
82 [label="sdComm <= 6.5\ngini = 0.831\nsamples = 84\nvalue = [16, 16, 12, 14, 14, 12]\nclass = mean", fillcolor="#ffffff"] ;
78 -> 82 ;
83 [label="gini = 0.82\nsamples = 40\nvalue = [8, 8, 4, 8, 8, 4]\nclass = mean", fillcolor="#ffffff"] ;
82 -> 83 ;
84 [label="gini = 0.831\nsamples = 44\nvalue = [8, 8, 8, 6, 6, 8]\nclass = mean", fillcolor="#ffffff"] ;
82 -> 84 ;
85 [label="sdComm <= 5.5\ngini = 0.765\nsamples = 88\nvalue = [4, 0, 18, 24, 24, 18]\nclass = minmax", fillcolor="#ffffff"] ;
73 -> 85 ;
86 [label="gini = 0.771\nsamples = 80\nvalue = [4, 0, 18, 20, 20, 18]\nclass = minmax", fillcolor="#ffffff"] ;
85 -> 86 ;
87 [label="gini = 0.5\nsamples = 8\nvalue = [0, 0, 0, 4, 4, 0]\nclass = minmax", fillcolor="#ffffff"] ;
85 -> 87 ;
88 [label="graphDepth <= 25.5\ngini = 0.833\nsamples = 22925\nvalue = [3870, 3831, 3920, 3692, 3692, 3920]\nclass = maxmax", fillcolor="#ffffff"] ;
0 -> 88 [labeldistance=2.5, labelangle=-45, headlabel="False"] ;
89 [label="sdComp <= 0.02\ngini = 0.833\nsamples = 21297\nvalue = [3606, 3579, 3678, 3378, 3378, 3678]\nclass = maxmax", fillcolor="#ffffff"] ;
88 -> 89 ;
90 [label="graphSize <= 75.0\ngini = 0.83\nsamples = 1738\nvalue = [254, 296, 342, 252, 252, 342]\nclass = maxmax", fillcolor="#ffffff"] ;
89 -> 90 ;
91 [label="graphDepth <= 9.0\ngini = 0.832\nsamples = 1562\nvalue = [230, 256, 296, 242, 242, 296]\nclass = maxmax", fillcolor="#ffffff"] ;
90 -> 91 ;
92 [label="graphSize <= 22.5\ngini = 0.828\nsamples = 1160\nvalue = [168, 208, 236, 156, 156, 236]\nclass = maxmax", fillcolor="#ffffff"] ;
91 -> 92 ;
93 [label="sdComm <= 0.065\ngini = 0.83\nsamples = 836\nvalue = [144, 168, 148, 114, 114, 148]\nclass = median", fillcolor="#fcfef9"] ;
92 -> 93 ;
94 [label="sdComm <= 0.02\ngini = 0.83\nsamples = 668\nvalue = [112, 120, 128, 90, 90, 128]\nclass = maxmax", fillcolor="#ffffff"] ;
93 -> 94 ;
95 [label="nbproc <= 4.5\ngini = 0.823\nsamples = 168\nvalue = [28, 40, 20, 30, 30, 20]\nclass = median", fillcolor="#f8fdf1"] ;
94 -> 95 ;
96 [label="gini = 0.645\nsamples = 56\nvalue = [0, 12, 0, 22, 22, 0]\nclass = minmax", fillcolor="#ffffff"] ;
95 -> 96 ;
97 [label="gini = 0.801\nsamples = 112\nvalue = [28, 28, 20, 8, 8, 20]\nclass = mean", fillcolor="#ffffff"] ;
95 -> 97 ;
98 [label="nbproc <= 4.5\ngini = 0.824\nsamples = 500\nvalue = [84, 80, 108, 60, 60, 108]\nclass = maxmax", fillcolor="#ffffff"] ;
94 -> 98 ;
99 [label="gini = 0.824\nsamples = 168\nvalue = [28, 28, 36, 20, 20, 36]\nclass = maxmax", fillcolor="#ffffff"] ;
98 -> 99 ;
100 [label="gini = 0.824\nsamples = 332\nvalue = [56, 52, 72, 40, 40, 72]\nclass = maxmax", fillcolor="#ffffff"] ;
98 -> 100 ;
101 [label="nbproc <= 4.5\ngini = 0.813\nsamples = 168\nvalue = [32, 48, 20, 24, 24, 20]\nclass = median", fillcolor="#f3fce8"] ;
93 -> 101 ;
102 [label="gini = 0.828\nsamples = 52\nvalue = [8, 12, 8, 8, 8, 8]\nclass = median", fillcolor="#f6fded"] ;
101 -> 102 ;
103 [label="gini = 0.801\nsamples = 116\nvalue = [24, 36, 12, 16, 16, 12]\nclass = median", fillcolor="#f2fce5"] ;
101 -> 103 ;
104 [label="nbproc <= 4.5\ngini = 0.798\nsamples = 324\nvalue = [24, 40, 88, 42, 42, 88]\nclass = maxmax", fillcolor="#ffffff"] ;
92 -> 104 ;
105 [label="graphSize <= 40.0\ngini = 0.8\nsamples = 172\nvalue = [10, 34, 44, 20, 20, 44]\nclass = maxmax", fillcolor="#ffffff"] ;
104 -> 105 ;
106 [label="sdComm <= 0.065\ngini = 0.785\nsamples = 72\nvalue = [0, 20, 10, 16, 16, 10]\nclass = median", fillcolor="#f8fdf1"] ;
105 -> 106 ;
107 [label="sdComm <= 0.02\ngini = 0.793\nsamples = 64\nvalue = [0, 16, 10, 14, 14, 10]\nclass = median", fillcolor="#fbfef7"] ;
106 -> 107 ;
108 [label="gini = 0.778\nsamples = 12\nvalue = [0, 4, 2, 2, 2, 2]\nclass = median", fillcolor="#ebfad7"] ;
107 -> 108 ;
109 [label="gini = 0.793\nsamples = 52\nvalue = [0, 12, 8, 12, 12, 8]\nclass = median", fillcolor="#ffffff"] ;
107 -> 109 ;
110 [label="gini = 0.625\nsamples = 8\nvalue = [0, 4, 0, 2, 2, 0]\nclass = median", fillcolor="#def6bd"] ;
106 -> 110 ;
111 [label="sdComm <= 0.065\ngini = 0.736\nsamples = 100\nvalue = [10, 14, 34, 4, 4, 34]\nclass = maxmax", fillcolor="#ffffff"] ;
105 -> 111 ;
112 [label="sdComm <= 0.02\ngini = 0.649\nsamples = 62\nvalue = [0, 14, 24, 0, 0, 24]\nclass = maxmax", fillcolor="#ffffff"] ;
111 -> 112 ;
113 [label="gini = 0.593\nsamples = 36\nvalue = [0, 4, 16, 0, 0, 16]\nclass = maxmax", fillcolor="#ffffff"] ;
112 -> 113 ;
114 [label="gini = 0.663\nsamples = 26\nvalue = [0, 10, 8, 0, 0, 8]\nclass = median", fillcolor="#f4fce9"] ;
112 -> 114 ;
115 [label="gini = 0.77\nsamples = 38\nvalue = [10, 0, 10, 4, 4, 10]\nclass = mean", fillcolor="#ffffff"] ;
111 -> 115 ;
116 [label="graphDepth <= 6.5\ngini = 0.78\nsamples = 152\nvalue = [14, 6, 44, 22, 22, 44]\nclass = maxmax", fillcolor="#ffffff"] ;
104 -> 116 ;
117 [label="sdComm <= 0.065\ngini = 0.725\nsamples = 80\nvalue = [12, 4, 28, 4, 4, 28]\nclass = maxmax", fillcolor="#ffffff"] ;
116 -> 117 ;
118 [label="sdComm <= 0.02\ngini = 0.709\nsamples = 76\nvalue = [8, 4, 28, 4, 4, 28]\nclass = maxmax", fillcolor="#ffffff"] ;
117 -> 118 ;
119 [label="gini = 0.64\nsamples = 20\nvalue = [4, 0, 8, 0, 0, 8]\nclass = maxmax", fillcolor="#ffffff"] ;
118 -> 119 ;
120 [label="gini = 0.724\nsamples = 56\nvalue = [4, 4, 20, 4, 4, 20]\nclass = maxmax", fillcolor="#ffffff"] ;
118 -> 120 ;
121 [label="gini = 0.0\nsamples = 4\nvalue = [4, 0, 0, 0, 0, 0]\nclass = mean", fillcolor="#e58139"] ;
117 -> 121 ;
122 [label="sdComm <= 0.065\ngini = 0.775\nsamples = 72\nvalue = [2, 2, 16, 18, 18, 16]\nclass = minmax", fillcolor="#ffffff"] ;
116 -> 122 ;
123 [label="sdComm <= 0.02\ngini = 0.701\nsamples = 48\nvalue = [2, 2, 4, 18, 18, 4]\nclass = minmax", fillcolor="#ffffff"] ;
122 -> 123 ;
124 [label="gini = 0.72\nsamples = 34\nvalue = [0, 2, 4, 12, 12, 4]\nclass = minmax", fillcolor="#ffffff"] ;
123 -> 124 ;
125 [label="gini = 0.612\nsamples = 14\nvalue = [2, 0, 0, 6, 6, 0]\nclass = minmax", fillcolor="#ffffff"] ;
123 -> 125 ;
126 [label="gini = 0.5\nsamples = 24\nvalue = [0, 0, 12, 0, 0, 12]\nclass = maxmax", fillcolor="#ffffff"] ;
122 -> 126 ;
127 [label="sdComm <= 0.02\ngini = 0.826\nsamples = 402\nvalue = [62, 48, 60, 86, 86, 60]\nclass = minmax", fillcolor="#ffffff"] ;
91 -> 127 ;
128 [label="graphDepth <= 13.5\ngini = 0.825\nsamples = 98\nvalue = [14, 20, 20, 12, 12, 20]\nclass = median", fillcolor="#ffffff"] ;
127 -> 128 ;
129 [label="nbproc <= 4.5\ngini = 0.658\nsamples = 30\nvalue = [2, 4, 0, 12, 12, 0]\nclass = minmax", fillcolor="#ffffff"] ;
128 -> 129 ;
130 [label="gini = 0.694\nsamples = 22\nvalue = [2, 4, 0, 8, 8, 0]\nclass = minmax", fillcolor="#ffffff"] ;
129 -> 130 ;
131 [label="gini = 0.5\nsamples = 8\nvalue = [0, 0, 0, 4, 4, 0]\nclass = minmax", fillcolor="#ffffff"] ;
129 -> 131 ;
132 [label="nbproc <= 4.5\ngini = 0.74\nsamples = 68\nvalue = [12, 16, 20, 0, 0, 20]\nclass = maxmax", fillcolor="#ffffff"] ;
128 -> 132 ;
133 [label="gini = 0.667\nsamples = 36\nvalue = [12, 16, 4, 0, 0, 4]\nclass = median", fillcolor="#effbde"] ;
132 -> 133 ;
134 [label="gini = 0.5\nsamples = 32\nvalue = [0, 0, 16, 0, 0, 16]\nclass = maxmax", fillcolor="#ffffff"] ;
132 -> 134 ;
135 [label="sdComm <= 0.065\ngini = 0.813\nsamples = 304\nvalue = [48, 28, 40, 74, 74, 40]\nclass = minmax", fillcolor="#ffffff"] ;
127 -> 135 ;
136 [label="graphDepth <= 13.5\ngini = 0.778\nsamples = 140\nvalue = [20, 12, 12, 42, 42, 12]\nclass = minmax", fillcolor="#ffffff"] ;
135 -> 136 ;
137 [label="nbproc <= 4.5\ngini = 0.716\nsamples = 76\nvalue = [0, 0, 12, 26, 26, 12]\nclass = minmax", fillcolor="#ffffff"] ;
136 -> 137 ;
138 [label="gini = 0.75\nsamples = 16\nvalue = [0, 0, 4, 4, 4, 4]\nclass = maxmax", fillcolor="#ffffff"] ;
137 -> 138 ;
139 [label="gini = 0.696\nsamples = 60\nvalue = [0, 0, 8, 22, 22, 8]\nclass = minmax", fillcolor="#ffffff"] ;
137 -> 139 ;
140 [label="nbproc <= 4.5\ngini = 0.742\nsamples = 64\nvalue = [20, 12, 0, 16, 16, 0]\nclass = mean", fillcolor="#fdf4ee"] ;
136 -> 140 ;
141 [label="gini = 0.708\nsamples = 48\nvalue = [12, 4, 0, 16, 16, 0]\nclass = minmax", fillcolor="#ffffff"] ;
140 -> 141 ;
142 [label="gini = 0.5\nsamples = 16\nvalue = [8, 8, 0, 0, 0, 0]\nclass = mean", fillcolor="#ffffff"] ;
140 -> 142 ;
143 [label="graphSize <= 40.0\ngini = 0.827\nsamples = 164\nvalue = [28, 16, 28, 32, 32, 28]\nclass = minmax", fillcolor="#ffffff"] ;
135 -> 143 ;
144 [label="nbproc <= 4.5\ngini = 0.722\nsamples = 48\nvalue = [16, 16, 8, 0, 0, 8]\nclass = mean", fillcolor="#ffffff"] ;
143 -> 144 ;
145 [label="gini = 0.667\nsamples = 24\nvalue = [8, 0, 8, 0, 0, 8]\nclass = mean", fillcolor="#ffffff"] ;
144 -> 145 ;
146 [label="gini = 0.444\nsamples = 24\nvalue = [8, 16, 0, 0, 0, 0]\nclass = median", fillcolor="#cef29c"] ;
144 -> 146 ;
147 [label="nbproc <= 4.5\ngini = 0.778\nsamples = 116\nvalue = [12, 0, 20, 32, 32, 20]\nclass = minmax", fillcolor="#ffffff"] ;
143 -> 147 ;
148 [label="gini = 0.773\nsamples = 60\nvalue = [4, 0, 12, 16, 16, 12]\nclass = minmax", fillcolor="#ffffff"] ;
147 -> 148 ;
149 [label="gini = 0.776\nsamples = 56\nvalue = [8, 0, 8, 16, 16, 8]\nclass = minmax", fillcolor="#ffffff"] ;
147 -> 149 ;
150 [label="sdComm <= 0.02\ngini = 0.787\nsamples = 176\nvalue = [24, 40, 46, 10, 10, 46]\nclass = maxmax", fillcolor="#ffffff"] ;
90 -> 150 ;
151 [label="nbproc <= 4.5\ngini = 0.656\nsamples = 64\nvalue = [0, 16, 24, 0, 0, 24]\nclass = maxmax", fillcolor="#ffffff"] ;
150 -> 151 ;
152 [label="gini = 0.625\nsamples = 32\nvalue = [0, 16, 8, 0, 0, 8]\nclass = median", fillcolor="#def6bd"] ;
151 -> 152 ;
153 [label="gini = 0.5\nsamples = 32\nvalue = [0, 0, 16, 0, 0, 16]\nclass = maxmax", fillcolor="#ffffff"] ;
151 -> 153 ;
154 [label="sdComm <= 0.065\ngini = 0.815\nsamples = 112\nvalue = [24, 24, 22, 10, 10, 22]\nclass = mean", fillcolor="#ffffff"] ;
150 -> 154 ;
155 [label="nbproc <= 4.5\ngini = 0.649\nsamples = 44\nvalue = [24, 8, 2, 4, 4, 2]\nclass = mean", fillcolor="#f3c7a7"] ;
154 -> 155 ;
156 [label="gini = 0.525\nsamples = 36\nvalue = [24, 0, 2, 4, 4, 2]\nclass = mean", fillcolor="#efb083"] ;
155 -> 156 ;
157 [label="gini = 0.0\nsamples = 8\nvalue = [0, 8, 0, 0, 0, 0]\nclass = median", fillcolor="#9de539"] ;
155 -> 157 ;
158 [label="nbproc <= 4.5\ngini = 0.756\nsamples = 68\nvalue = [0, 16, 20, 6, 6, 20]\nclass = maxmax", fillcolor="#ffffff"] ;
154 -> 158 ;
159 [label="gini = 0.678\nsamples = 52\nvalue = [0, 8, 20, 2, 2, 20]\nclass = maxmax", fillcolor="#ffffff"] ;
158 -> 159 ;
160 [label="gini = 0.625\nsamples = 16\nvalue = [0, 8, 0, 4, 4, 0]\nclass = median", fillcolor="#def6bd"] ;
158 -> 160 ;
161 [label="graphSize <= 75.0\ngini = 0.833\nsamples = 19559\nvalue = [3352, 3283, 3336, 3126, 3126, 3336]\nclass = mean", fillcolor="#ffffff"] ;
89 -> 161 ;
162 [label="sdComm <= 0.02\ngini = 0.833\nsamples = 18575\nvalue = [3178, 3141, 3188, 2940, 2940, 3188]\nclass = maxmax", fillcolor="#ffffff"] ;
161 -> 162 ;
163 [label="graphSize <= 22.5\ngini = 0.831\nsamples = 2688\nvalue = [498, 426, 494, 388, 388, 494]\nclass = mean", fillcolor="#ffffff"] ;
162 -> 163 ;
164 [label="sdComp <= 0.065\ngini = 0.831\nsamples = 1648\nvalue = [268, 212, 312, 272, 272, 312]\nclass = maxmax", fillcolor="#ffffff"] ;
163 -> 164 ;
165 [label="nbproc <= 4.5\ngini = 0.824\nsamples = 596\nvalue = [96, 76, 132, 80, 80, 132]\nclass = maxmax", fillcolor="#ffffff"] ;
164 -> 165 ;
166 [label="gini = 0.81\nsamples = 248\nvalue = [48, 48, 56, 20, 20, 56]\nclass = maxmax", fillcolor="#ffffff"] ;
165 -> 166 ;
167 [label="gini = 0.82\nsamples = 348\nvalue = [48, 28, 76, 60, 60, 76]\nclass = maxmax", fillcolor="#ffffff"] ;
165 -> 167 ;
168 [label="nbproc <= 4.5\ngini = 0.831\nsamples = 1052\nvalue = [172, 136, 180, 192, 192, 180]\nclass = minmax", fillcolor="#ffffff"] ;
164 -> 168 ;
169 [label="gini = 0.83\nsamples = 348\nvalue = [48, 44, 64, 64, 64, 64]\nclass = maxmax", fillcolor="#ffffff"] ;
168 -> 169 ;
170 [label="gini = 0.831\nsamples = 704\nvalue = [124, 92, 116, 128, 128, 116]\nclass = minmax", fillcolor="#ffffff"] ;
168 -> 170 ;
171 [label="graphDepth <= 6.5\ngini = 0.823\nsamples = 1040\nvalue = [230, 214, 182, 116, 116, 182]\nclass = mean", fillcolor="#fefdfb"] ;
163 -> 171 ;
172 [label="sdComp <= 0.065\ngini = 0.776\nsamples = 216\nvalue = [70, 58, 30, 14, 14, 30]\nclass = mean", fillcolor="#fdf5f0"] ;
171 -> 172 ;
173 [label="nbproc <= 4.5\ngini = 0.657\nsamples = 96\nvalue = [44, 32, 0, 10, 10, 0]\nclass = mean", fillcolor="#fae7da"] ;
172 -> 173 ;
174 [label="gini = 0.656\nsamples = 48\nvalue = [24, 12, 0, 6, 6, 0]\nclass = mean", fillcolor="#f6d5bd"] ;
173 -> 174 ;
175 [label="gini = 0.639\nsamples = 48\nvalue = [20, 20, 0, 4, 4, 0]\nclass = mean", fillcolor="#ffffff"] ;
173 -> 175 ;
176 [label="nbproc <= 4.5\ngini = 0.779\nsamples = 120\nvalue = [26, 26, 30, 4, 4, 30]\nclass = maxmax", fillcolor="#ffffff"] ;
172 -> 176 ;
177 [label="gini = 0.667\nsamples = 12\nvalue = [0, 4, 0, 4, 4, 0]\nclass = median", fillcolor="#ffffff"] ;
176 -> 177 ;
178 [label="gini = 0.746\nsamples = 108\nvalue = [26, 22, 30, 0, 0, 30]\nclass = maxmax", fillcolor="#ffffff"] ;
176 -> 178 ;
179 [label="graphDepth <= 9.0\ngini = 0.828\nsamples = 824\nvalue = [160, 156, 152, 102, 102, 152]\nclass = mean", fillcolor="#fffefe"] ;
171 -> 179 ;
180 [label="sdComp <= 0.065\ngini = 0.796\nsamples = 180\nvalue = [40, 16, 46, 16, 16, 46]\nclass = maxmax", fillcolor="#ffffff"] ;
179 -> 180 ;
181 [label="nbproc <= 4.5\ngini = 0.82\nsamples = 76\nvalue = [12, 16, 8, 16, 16, 8]\nclass = median", fillcolor="#ffffff"] ;
180 -> 181 ;
182 [label="gini = 0.735\nsamples = 28\nvalue = [4, 8, 8, 0, 0, 8]\nclass = median", fillcolor="#ffffff"] ;
181 -> 182 ;
183 [label="gini = 0.722\nsamples = 48\nvalue = [8, 8, 0, 16, 16, 0]\nclass = minmax", fillcolor="#ffffff"] ;
181 -> 183 ;
184 [label="nbproc <= 4.5\ngini = 0.661\nsamples = 104\nvalue = [28, 0, 38, 0, 0, 38]\nclass = maxmax", fillcolor="#ffffff"] ;
180 -> 184 ;
185 [label="gini = 0.625\nsamples = 8\nvalue = [4, 0, 2, 0, 0, 2]\nclass = mean", fillcolor="#f6d5bd"] ;
184 -> 185 ;
186 [label="gini = 0.656\nsamples = 96\nvalue = [24, 0, 36, 0, 0, 36]\nclass = maxmax", fillcolor="#ffffff"] ;
184 -> 186 ;
187 [label="nbproc <= 4.5\ngini = 0.828\nsamples = 644\nvalue = [120, 140, 106, 86, 86, 106]\nclass = median", fillcolor="#fbfef7"] ;
179 -> 187 ;
188 [label="sdComp <= 0.065\ngini = 0.819\nsamples = 162\nvalue = [18, 16, 28, 36, 36, 28]\nclass = minmax", fillcolor="#ffffff"] ;
187 -> 188 ;
189 [label="graphDepth <= 13.5\ngini = 0.79\nsamples = 98\nvalue = [10, 8, 28, 12, 12, 28]\nclass = maxmax", fillcolor="#ffffff"] ;
188 -> 189 ;
190 [label="gini = 0.675\nsamples = 52\nvalue = [4, 8, 20, 0, 0, 20]\nclass = maxmax", fillcolor="#ffffff"] ;
189 -> 190 ;
191 [label="gini = 0.786\nsamples = 46\nvalue = [6, 0, 8, 12, 12, 8]\nclass = minmax", fillcolor="#ffffff"] ;
189 -> 191 ;
192 [label="graphDepth <= 13.5\ngini = 0.688\nsamples = 64\nvalue = [8, 8, 0, 24, 24, 0]\nclass = minmax", fillcolor="#ffffff"] ;
188 -> 192 ;
193 [label="gini = 0.612\nsamples = 56\nvalue = [0, 8, 0, 24, 24, 0]\nclass = minmax", fillcolor="#ffffff"] ;
192 -> 193 ;
194 [label="gini = 0.0\nsamples = 8\nvalue = [8, 0, 0, 0, 0, 0]\nclass = mean", fillcolor="#e58139"] ;
192 -> 194 ;
195 [label="graphSize <= 40.0\ngini = 0.815\nsamples = 482\nvalue = [102, 124, 78, 50, 50, 78]\nclass = median", fillcolor="#f9fdf4"] ;
187 -> 195 ;
196 [label="sdComp <= 0.065\ngini = 0.816\nsamples = 438\nvalue = [102, 96, 78, 42, 42, 78]\nclass = mean", fillcolor="#fffdfc"] ;
195 -> 196 ;
197 [label="gini = 0.831\nsamples = 88\nvalue = [16, 16, 16, 12, 12, 16]\nclass = mean", fillcolor="#ffffff"] ;
196 -> 197 ;
198 [label="gini = 0.81\nsamples = 350\nvalue = [86, 80, 62, 30, 30, 62]\nclass = mean", fillcolor="#fefcfb"] ;
196 -> 198 ;
199 [label="sdComp <= 0.065\ngini = 0.529\nsamples = 44\nvalue = [0, 28, 0, 8, 8, 0]\nclass = median", fillcolor="#c9f191"] ;
195 -> 199 ;
200 [label="gini = 0.64\nsamples = 20\nvalue = [0, 4, 0, 8, 8, 0]\nclass = minmax", fillcolor="#ffffff"] ;
199 -> 200 ;
201 [label="gini = 0.0\nsamples = 24\nvalue = [0, 24, 0, 0, 0, 0]\nclass = median", fillcolor="#9de539"] ;
199 -> 201 ;
202 [label="graphDepth <= 9.0\ngini = 0.833\nsamples = 15887\nvalue = [2680, 2715, 2694, 2552, 2552, 2694]\nclass = median", fillcolor="#ffffff"] ;
162 -> 202 ;
203 [label="nbproc <= 4.5\ngini = 0.833\nsamples = 11251\nvalue = [1922, 1905, 1864, 1848, 1848, 1864]\nclass = mean", fillcolor="#ffffff"] ;
202 -> 203 ;
204 [label="graphSize <= 40.0\ngini = 0.833\nsamples = 4829\nvalue = [818, 839, 746, 840, 840, 746]\nclass = minmax", fillcolor="#ffffff"] ;
203 -> 204 ;
205 [label="sdComp <= 0.065\ngini = 0.833\nsamples = 4185\nvalue = [718, 719, 684, 690, 690, 684]\nclass = median", fillcolor="#ffffff"] ;
204 -> 205 ;
206 [label="graphSize <= 22.5\ngini = 0.82\nsamples = 290\nvalue = [28, 42, 44, 66, 66, 44]\nclass = minmax", fillcolor="#ffffff"] ;
205 -> 206 ;
207 [label="sdComm <= 0.065\ngini = 0.808\nsamples = 220\nvalue = [24, 20, 32, 56, 56, 32]\nclass = minmax", fillcolor="#ffffff"] ;
206 -> 207 ;
208 [label="gini = 0.796\nsamples = 104\nvalue = [8, 8, 16, 28, 28, 16]\nclass = minmax", fillcolor="#ffffff"] ;
207 -> 208 ;
209 [label="gini = 0.816\nsamples = 116\nvalue = [16, 12, 16, 28, 28, 16]\nclass = minmax", fillcolor="#ffffff"] ;
207 -> 209 ;
210 [label="sdComm <= 0.065\ngini = 0.798\nsamples = 70\nvalue = [4, 22, 12, 10, 10, 12]\nclass = median", fillcolor="#eefbdd"] ;
206 -> 210 ;
211 [label="gini = 0.79\nsamples = 54\nvalue = [0, 14, 12, 8, 8, 12]\nclass = median", fillcolor="#fafef6"] ;
210 -> 211 ;
212 [label="gini = 0.656\nsamples = 16\nvalue = [4, 8, 0, 2, 2, 0]\nclass = median", fillcolor="#def6bd"] ;
210 -> 212 ;
213 [label="sdComp <= 0.2\ngini = 0.833\nsamples = 3895\nvalue = [690, 677, 640, 624, 624, 640]\nclass = mean", fillcolor="#fffefe"] ;
205 -> 213 ;
214 [label="CCR <= 0.55\ngini = 0.828\nsamples = 1104\nvalue = [222, 238, 158, 164, 164, 158]\nclass = median", fillcolor="#fdfffb"] ;
213 -> 214 ;
215 [label="sdComm <= 0.065\ngini = 0.831\nsamples = 894\nvalue = [156, 182, 144, 134, 134, 144]\nclass = median", fillcolor="#fcfef8"] ;
214 -> 215 ;
216 [label="graphSize <= 22.5\ngini = 0.832\nsamples = 442\nvalue = [78, 76, 64, 80, 80, 64]\nclass = minmax", fillcolor="#ffffff"] ;
215 -> 216 ;
217 [label="gini = 0.832\nsamples = 406\nvalue = [76, 70, 58, 72, 72, 58]\nclass = mean", fillcolor="#fffdfd"] ;
216 -> 217 ;
218 [label="gini = 0.815\nsamples = 36\nvalue = [2, 6, 6, 8, 8, 6]\nclass = minmax", fillcolor="#ffffff"] ;
216 -> 218 ;
219 [label="graphSize <= 22.5\ngini = 0.824\nsamples = 452\nvalue = [78, 106, 80, 54, 54, 80]\nclass = median", fillcolor="#f8fdf1"] ;
215 -> 219 ;
220 [label="gini = 0.825\nsamples = 424\nvalue = [72, 100, 72, 54, 54, 72]\nclass = median", fillcolor="#f7fdef"] ;
219 -> 220 ;
221 [label="gini = 0.745\nsamples = 28\nvalue = [6, 6, 8, 0, 0, 8]\nclass = maxmax", fillcolor="#ffffff"] ;
219 -> 221 ;
222 [label="sdComm <= 0.65\ngini = 0.78\nsamples = 210\nvalue = [66, 56, 14, 30, 30, 14]\nclass = mean", fillcolor="#fdf7f2"] ;
214 -> 222 ;
223 [label="graphSize <= 22.5\ngini = 0.766\nsamples = 186\nvalue = [62, 52, 10, 26, 26, 10]\nclass = mean", fillcolor="#fdf6f0"] ;
222 -> 223 ;
224 [label="gini = 0.786\nsamples = 162\nvalue = [46, 44, 10, 26, 26, 10]\nclass = mean", fillcolor="#fffdfc"] ;
223 -> 224 ;
225 [label="sdComm <= 0.2\ngini = 0.444\nsamples = 24\nvalue = [16, 8, 0, 0, 0, 0]\nclass = mean", fillcolor="#f2c09c"] ;
223 -> 225 ;
226 [label="gini = 0.375\nsamples = 16\nvalue = [12, 4, 0, 0, 0, 0]\nclass = mean", fillcolor="#eeab7b"] ;
225 -> 226 ;
227 [label="gini = 0.5\nsamples = 8\nvalue = [4, 4, 0, 0, 0, 0]\nclass = mean", fillcolor="#ffffff"] ;
225 -> 227 ;
228 [label="gini = 0.833\nsamples = 24\nvalue = [4, 4, 4, 4, 4, 4]\nclass = mean", fillcolor="#ffffff"] ;
222 -> 228 ;
229 [label="sdComm <= 0.2\ngini = 0.833\nsamples = 2791\nvalue = [468, 439, 482, 460, 460, 482]\nclass = maxmax", fillcolor="#ffffff"] ;
213 -> 229 ;
230 [label="sdComp <= 0.65\ngini = 0.818\nsamples = 276\nvalue = [40, 24, 42, 64, 64, 42]\nclass = minmax", fillcolor="#ffffff"] ;
229 -> 230 ;
231 [label="graphSize <= 22.5\ngini = 0.812\nsamples = 236\nvalue = [40, 24, 28, 58, 58, 28]\nclass = minmax", fillcolor="#ffffff"] ;
230 -> 231 ;
232 [label="gini = 0.811\nsamples = 208\nvalue = [28, 20, 28, 52, 52, 28]\nclass = minmax", fillcolor="#ffffff"] ;
231 -> 232 ;
233 [label="gini = 0.704\nsamples = 28\nvalue = [12, 4, 0, 6, 6, 0]\nclass = mean", fillcolor="#f8ddc9"] ;
231 -> 233 ;
234 [label="gini = 0.71\nsamples = 40\nvalue = [0, 0, 14, 6, 6, 14]\nclass = maxmax", fillcolor="#ffffff"] ;
230 -> 234 ;
235 [label="sdComp <= 0.65\ngini = 0.833\nsamples = 2515\nvalue = [428, 415, 440, 396, 396, 440]\nclass = maxmax", fillcolor="#ffffff"] ;
229 -> 235 ;
236 [label="sdComm <= 0.65\ngini = 0.697\nsamples = 70\nvalue = [2, 0, 26, 8, 8, 26]\nclass = maxmax", fillcolor="#ffffff"] ;
235 -> 236 ;
237 [label="gini = 0.757\nsamples = 26\nvalue = [2, 0, 4, 8, 8, 4]\nclass = minmax", fillcolor="#ffffff"] ;
236 -> 237 ;
238 [label="graphSize <= 22.5\ngini = 0.5\nsamples = 44\nvalue = [0, 0, 22, 0, 0, 22]\nclass = maxmax", fillcolor="#ffffff"] ;
236 -> 238 ;
239 [label="gini = 0.5\nsamples = 24\nvalue = [0, 0, 12, 0, 0, 12]\nclass = maxmax", fillcolor="#ffffff"] ;
238 -> 239 ;
240 [label="gini = 0.5\nsamples = 20\nvalue = [0, 0, 10, 0, 0, 10]\nclass = maxmax", fillcolor="#ffffff"] ;
238 -> 240 ;
241 [label="CCR <= 5.5\ngini = 0.833\nsamples = 2445\nvalue = [426, 415, 414, 388, 388, 414]\nclass = mean", fillcolor="#fffefe"] ;
235 -> 241 ;
242 [label="graphSize <= 22.5\ngini = 0.828\nsamples = 233\nvalue = [48, 49, 36, 32, 32, 36]\nclass = median", fillcolor="#fefffe"] ;
241 -> 242 ;
243 [label="sdComm <= 0.65\ngini = 0.832\nsamples = 202\nvalue = [38, 36, 34, 30, 30, 34]\nclass = mean", fillcolor="#fffdfd"] ;
242 -> 243 ;
244 [label="gini = 0.831\nsamples = 156\nvalue = [30, 30, 24, 24, 24, 24]\nclass = mean", fillcolor="#ffffff"] ;
243 -> 244 ;
245 [label="gini = 0.824\nsamples = 46\nvalue = [8, 6, 10, 6, 6, 10]\nclass = maxmax", fillcolor="#ffffff"] ;
243 -> 245 ;
246 [label="sdComm <= 0.65\ngini = 0.703\nsamples = 31\nvalue = [10, 13, 2, 2, 2, 2]\nclass = median", fillcolor="#f1fbe3"] ;
242 -> 246 ;
247 [label="gini = 0.5\nsamples = 4\nvalue = [0, 0, 0, 2, 2, 0]\nclass = minmax", fillcolor="#ffffff"] ;
246 -> 247 ;
248 [label="gini = 0.62\nsamples = 27\nvalue = [10, 13, 2, 0, 0, 2]\nclass = median", fillcolor="#eefadc"] ;
246 -> 248 ;
249 [label="sdComm <= 2.0\ngini = 0.833\nsamples = 2212\nvalue = [378, 366, 378, 356, 356, 378]\nclass = mean", fillcolor="#ffffff"] ;
241 -> 249 ;
250 [label="sdComp <= 6.5\ngini = 0.832\nsamples = 868\nvalue = [156, 140, 154, 132, 132, 154]\nclass = mean", fillcolor="#fffffe"] ;
249 -> 250 ;
251 [label="sdComp <= 2.0\ngini = 0.827\nsamples = 392\nvalue = [72, 68, 78, 48, 48, 78]\nclass = maxmax", fillcolor="#ffffff"] ;
250 -> 251 ;
252 [label="graphSize <= 22.5\ngini = 0.833\nsamples = 192\nvalue = [30, 34, 34, 30, 30, 34]\nclass = median", fillcolor="#ffffff"] ;
251 -> 252 ;
253 [label="gini = 0.832\nsamples = 168\nvalue = [26, 30, 30, 26, 26, 30]\nclass = median", fillcolor="#ffffff"] ;
252 -> 253 ;
254 [label="gini = 0.833\nsamples = 24\nvalue = [4, 4, 4, 4, 4, 4]\nclass = mean", fillcolor="#ffffff"] ;
252 -> 254 ;
255 [label="graphSize <= 22.5\ngini = 0.814\nsamples = 200\nvalue = [42, 34, 44, 18, 18, 44]\nclass = maxmax", fillcolor="#ffffff"] ;
251 -> 255 ;
256 [label="gini = 0.803\nsamples = 168\nvalue = [36, 28, 40, 12, 12, 40]\nclass = maxmax", fillcolor="#ffffff"] ;
255 -> 256 ;
257 [label="gini = 0.828\nsamples = 32\nvalue = [6, 6, 4, 6, 6, 4]\nclass = mean", fillcolor="#ffffff"] ;
255 -> 257 ;
258 [label="graphSize <= 22.5\ngini = 0.833\nsamples = 476\nvalue = [84, 72, 76, 84, 84, 76]\nclass = mean", fillcolor="#ffffff"] ;
250 -> 258 ;
259 [label="gini = 0.832\nsamples = 456\nvalue = [84, 68, 72, 80, 80, 72]\nclass = mean", fillcolor="#fffefd"] ;
258 -> 259 ;
260 [label="gini = 0.8\nsamples = 20\nvalue = [0, 4, 4, 4, 4, 4]\nclass = median", fillcolor="#ffffff"] ;
258 -> 260 ;
261 [label="graphSize <= 22.5\ngini = 0.833\nsamples = 1344\nvalue = [222, 226, 224, 224, 224, 224]\nclass = median", fillcolor="#ffffff"] ;
249 -> 261 ;
262 [label="sdComp <= 6.5\ngini = 0.833\nsamples = 1024\nvalue = [172, 176, 166, 172, 172, 166]\nclass = median", fillcolor="#fffffe"] ;
261 -> 262 ;
263 [label="sdComm <= 6.5\ngini = 0.833\nsamples = 612\nvalue = [104, 108, 96, 104, 104, 96]\nclass = median", fillcolor="#fefffd"] ;
262 -> 263 ;
264 [label="sdComp <= 2.0\ngini = 0.833\nsamples = 256\nvalue = [42, 46, 42, 42, 42, 42]\nclass = median", fillcolor="#fdfffb"] ;
263 -> 264 ;
265 [label="gini = 0.828\nsamples = 52\nvalue = [8, 12, 8, 8, 8, 8]\nclass = median", fillcolor="#f6fded"] ;
264 -> 265 ;
266 [label="gini = 0.833\nsamples = 204\nvalue = [34, 34, 34, 34, 34, 34]\nclass = mean", fillcolor="#ffffff"] ;
264 -> 266 ;
267 [label="sdComp <= 2.0\ngini = 0.833\nsamples = 356\nvalue = [62, 62, 54, 62, 62, 54]\nclass = mean", fillcolor="#ffffff"] ;
263 -> 267 ;
268 [label="gini = 0.833\nsamples = 144\nvalue = [24, 24, 24, 24, 24, 24]\nclass = mean", fillcolor="#ffffff"] ;
267 -> 268 ;
269 [label="gini = 0.831\nsamples = 212\nvalue = [38, 38, 30, 38, 38, 30]\nclass = mean", fillcolor="#ffffff"] ;
267 -> 269 ;
270 [label="sdComm <= 6.5\ngini = 0.833\nsamples = 412\nvalue = [68, 68, 70, 68, 68, 70]\nclass = maxmax", fillcolor="#ffffff"] ;
262 -> 270 ;
271 [label="gini = 0.833\nsamples = 216\nvalue = [36, 36, 36, 36, 36, 36]\nclass = mean", fillcolor="#ffffff"] ;
270 -> 271 ;
272 [label="gini = 0.833\nsamples = 196\nvalue = [32, 32, 34, 32, 32, 34]\nclass = maxmax", fillcolor="#ffffff"] ;
270 -> 272 ;
273 [label="sdComp <= 6.5\ngini = 0.833\nsamples = 320\nvalue = [50, 50, 58, 52, 52, 58]\nclass = maxmax", fillcolor="#ffffff"] ;
261 -> 273 ;
274 [label="sdComm <= 6.5\ngini = 0.833\nsamples = 276\nvalue = [44, 44, 48, 46, 46, 48]\nclass = maxmax", fillcolor="#ffffff"] ;
273 -> 274 ;
275 [label="sdComp <= 2.0\ngini = 0.833\nsamples = 200\nvalue = [32, 32, 36, 32, 32, 36]\nclass = maxmax", fillcolor="#ffffff"] ;
274 -> 275 ;
276 [label="gini = 0.833\nsamples = 24\nvalue = [4, 4, 4, 4, 4, 4]\nclass = mean", fillcolor="#ffffff"] ;
275 -> 276 ;
277 [label="gini = 0.833\nsamples = 176\nvalue = [28, 28, 32, 28, 28, 32]\nclass = maxmax", fillcolor="#ffffff"] ;
275 -> 277 ;
278 [label="sdComp <= 2.0\ngini = 0.832\nsamples = 76\nvalue = [12, 12, 12, 14, 14, 12]\nclass = minmax", fillcolor="#ffffff"] ;
274 -> 278 ;
279 [label="gini = 0.833\nsamples = 24\nvalue = [4, 4, 4, 4, 4, 4]\nclass = mean", fillcolor="#ffffff"] ;
278 -> 279 ;
280 [label="gini = 0.831\nsamples = 52\nvalue = [8, 8, 8, 10, 10, 8]\nclass = minmax", fillcolor="#ffffff"] ;
278 -> 280 ;
281 [label="sdComm <= 6.5\ngini = 0.822\nsamples = 44\nvalue = [6, 6, 10, 6, 6, 10]\nclass = maxmax", fillcolor="#ffffff"] ;
273 -> 281 ;
282 [label="gini = 0.5\nsamples = 8\nvalue = [0, 0, 4, 0, 0, 4]\nclass = maxmax", fillcolor="#ffffff"] ;
281 -> 282 ;
283 [label="gini = 0.833\nsamples = 36\nvalue = [6, 6, 6, 6, 6, 6]\nclass = mean", fillcolor="#ffffff"] ;
281 -> 283 ;
284 [label="CCR <= 5.5\ngini = 0.814\nsamples = 644\nvalue = [100, 120, 62, 150, 150, 62]\nclass = minmax", fillcolor="#ffffff"] ;
204 -> 284 ;
285 [label="sdComp <= 0.065\ngini = 0.767\nsamples = 362\nvalue = [46, 80, 14, 104, 104, 14]\nclass = minmax", fillcolor="#ffffff"] ;
284 -> 285 ;
286 [label="sdComm <= 0.065\ngini = 0.799\nsamples = 76\nvalue = [16, 24, 10, 8, 8, 10]\nclass = median", fillcolor="#f2fce5"] ;
285 -> 286 ;
287 [label="gini = 0.769\nsamples = 52\nvalue = [8, 20, 4, 8, 8, 4]\nclass = median", fillcolor="#e4f8c9"] ;
286 -> 287 ;
288 [label="gini = 0.736\nsamples = 24\nvalue = [8, 4, 6, 0, 0, 6]\nclass = mean", fillcolor="#fcf1e9"] ;
286 -> 288 ;
289 [label="CCR <= 0.55\ngini = 0.725\nsamples = 286\nvalue = [30, 56, 4, 96, 96, 4]\nclass = minmax", fillcolor="#ffffff"] ;
285 -> 289 ;
290 [label="sdComm <= 0.065\ngini = 0.5\nsamples = 44\nvalue = [0, 0, 0, 22, 22, 0]\nclass = minmax", fillcolor="#ffffff"] ;
289 -> 290 ;
291 [label="gini = 0.5\nsamples = 20\nvalue = [0, 0, 0, 10, 10, 0]\nclass = minmax", fillcolor="#ffffff"] ;
290 -> 291 ;
292 [label="gini = 0.5\nsamples = 24\nvalue = [0, 0, 0, 12, 12, 0]\nclass = minmax", fillcolor="#ffffff"] ;
290 -> 292 ;
293 [label="sdComp <= 0.2\ngini = 0.744\nsamples = 242\nvalue = [30, 56, 4, 74, 74, 4]\nclass = minmax", fillcolor="#ffffff"] ;
289 -> 293 ;
294 [label="sdComm <= 0.2\ngini = 0.694\nsamples = 54\nvalue = [4, 22, 0, 14, 14, 0]\nclass = median", fillcolor="#ebfad7"] ;
293 -> 294 ;
295 [label="gini = 0.727\nsamples = 32\nvalue = [4, 8, 0, 10, 10, 0]\nclass = minmax", fillcolor="#ffffff"] ;
294 -> 295 ;
296 [label="sdComm <= 0.65\ngini = 0.529\nsamples = 22\nvalue = [0, 14, 0, 4, 4, 0]\nclass = median", fillcolor="#c9f191"] ;
294 -> 296 ;
297 [label="gini = 0.0\nsamples = 12\nvalue = [0, 12, 0, 0, 0, 0]\nclass = median", fillcolor="#9de539"] ;
296 -> 297 ;
298 [label="gini = 0.64\nsamples = 10\nvalue = [0, 2, 0, 4, 4, 0]\nclass = minmax", fillcolor="#ffffff"] ;
296 -> 298 ;
299 [label="sdComp <= 0.65\ngini = 0.744\nsamples = 188\nvalue = [26, 34, 4, 60, 60, 4]\nclass = minmax", fillcolor="#ffffff"] ;
293 -> 299 ;
300 [label="sdComm <= 0.65\ngini = 0.72\nsamples = 102\nvalue = [20, 14, 0, 34, 34, 0]\nclass = minmax", fillcolor="#ffffff"] ;
299 -> 300 ;
301 [label="sdComm <= 0.2\ngini = 0.729\nsamples = 94\nvalue = [20, 14, 0, 30, 30, 0]\nclass = minmax", fillcolor="#ffffff"] ;
300 -> 301 ;
302 [label="gini = 0.741\nsamples = 54\nvalue = [12, 10, 0, 16, 16, 0]\nclass = minmax", fillcolor="#ffffff"] ;
301 -> 302 ;
303 [label="gini = 0.705\nsamples = 40\nvalue = [8, 4, 0, 14, 14, 0]\nclass = minmax", fillcolor="#ffffff"] ;
301 -> 303 ;
304 [label="gini = 0.5\nsamples = 8\nvalue = [0, 0, 0, 4, 4, 0]\nclass = minmax", fillcolor="#ffffff"] ;
300 -> 304 ;
305 [label="sdComm <= 0.65\ngini = 0.754\nsamples = 86\nvalue = [6, 20, 4, 26, 26, 4]\nclass = minmax", fillcolor="#ffffff"] ;
299 -> 305 ;
306 [label="sdComm <= 0.2\ngini = 0.747\nsamples = 66\nvalue = [6, 16, 2, 20, 20, 2]\nclass = minmax", fillcolor="#ffffff"] ;
305 -> 306 ;
307 [label="gini = 0.746\nsamples = 26\nvalue = [0, 6, 2, 8, 8, 2]\nclass = minmax", fillcolor="#ffffff"] ;
306 -> 307 ;
308 [label="gini = 0.735\nsamples = 40\nvalue = [6, 10, 0, 12, 12, 0]\nclass = minmax", fillcolor="#ffffff"] ;
306 -> 308 ;
309 [label="gini = 0.76\nsamples = 20\nvalue = [0, 4, 2, 6, 6, 2]\nclass = minmax", fillcolor="#ffffff"] ;
305 -> 309 ;
310 [label="sdComp <= 6.5\ngini = 0.832\nsamples = 282\nvalue = [54, 40, 48, 46, 46, 48]\nclass = mean", fillcolor="#fefcfa"] ;
284 -> 310 ;
311 [label="sdComm <= 6.5\ngini = 0.832\nsamples = 264\nvalue = [48, 40, 48, 40, 40, 48]\nclass = mean", fillcolor="#ffffff"] ;
310 -> 311 ;
312 [label="sdComp <= 2.0\ngini = 0.83\nsamples = 168\nvalue = [32, 24, 32, 24, 24, 32]\nclass = mean", fillcolor="#ffffff"] ;
311 -> 312 ;
313 [label="gini = 0.833\nsamples = 48\nvalue = [8, 8, 8, 8, 8, 8]\nclass = mean", fillcolor="#ffffff"] ;
312 -> 313 ;
314 [label="sdComm <= 2.0\ngini = 0.827\nsamples = 120\nvalue = [24, 16, 24, 16, 16, 24]\nclass = mean", fillcolor="#ffffff"] ;
312 -> 314 ;
315 [label="gini = 0.833\nsamples = 24\nvalue = [4, 4, 4, 4, 4, 4]\nclass = mean", fillcolor="#ffffff"] ;
314 -> 315 ;
316 [label="gini = 0.823\nsamples = 96\nvalue = [20, 12, 20, 12, 12, 20]\nclass = mean", fillcolor="#ffffff"] ;
314 -> 316 ;
317 [label="sdComp <= 2.0\ngini = 0.833\nsamples = 96\nvalue = [16, 16, 16, 16, 16, 16]\nclass = mean", fillcolor="#ffffff"] ;
311 -> 317 ;
318 [label="gini = 0.833\nsamples = 48\nvalue = [8, 8, 8, 8, 8, 8]\nclass = mean", fillcolor="#ffffff"] ;
317 -> 318 ;
319 [label="gini = 0.833\nsamples = 48\nvalue = [8, 8, 8, 8, 8, 8]\nclass = mean", fillcolor="#ffffff"] ;
317 -> 319 ;
320 [label="sdComm <= 2.0\ngini = 0.667\nsamples = 18\nvalue = [6, 0, 0, 6, 6, 0]\nclass = mean", fillcolor="#ffffff"] ;
310 -> 320 ;
321 [label="gini = 0.64\nsamples = 10\nvalue = [2, 0, 0, 4, 4, 0]\nclass = minmax", fillcolor="#ffffff"] ;
320 -> 321 ;
322 [label="gini = 0.625\nsamples = 8\nvalue = [4, 0, 0, 2, 2, 0]\nclass = mean", fillcolor="#f6d5bd"] ;
320 -> 322 ;
323 [label="sdComp <= 6.5\ngini = 0.833\nsamples = 6422\nvalue = [1104, 1066, 1118, 1008, 1008, 1118]\nclass = maxmax", fillcolor="#ffffff"] ;
203 -> 323 ;
324 [label="sdComm <= 0.2\ngini = 0.833\nsamples = 6276\nvalue = [1084, 1044, 1080, 994, 994, 1080]\nclass = mean", fillcolor="#ffffff"] ;
323 -> 324 ;
325 [label="sdComp <= 0.2\ngini = 0.832\nsamples = 3330\nvalue = [622, 576, 560, 506, 506, 560]\nclass = mean", fillcolor="#fffdfc"] ;
324 -> 325 ;
326 [label="graphSize <= 22.5\ngini = 0.833\nsamples = 3062\nvalue = [560, 502, 528, 472, 472, 528]\nclass = mean", fillcolor="#fffdfc"] ;
325 -> 326 ;
327 [label="sdComm <= 0.065\ngini = 0.833\nsamples = 2624\nvalue = [464, 456, 440, 412, 412, 440]\nclass = mean", fillcolor="#fffffe"] ;
326 -> 327 ;
328 [label="sdComp <= 0.065\ngini = 0.831\nsamples = 1084\nvalue = [172, 152, 212, 168, 168, 212]\nclass = maxmax", fillcolor="#ffffff"] ;
327 -> 328 ;
329 [label="gini = 0.825\nsamples = 164\nvalue = [24, 20, 36, 24, 24, 36]\nclass = maxmax", fillcolor="#ffffff"] ;
328 -> 329 ;
330 [label="gini = 0.831\nsamples = 920\nvalue = [148, 132, 176, 144, 144, 176]\nclass = maxmax", fillcolor="#ffffff"] ;
328 -> 330 ;
331 [label="sdComp <= 0.065\ngini = 0.831\nsamples = 1540\nvalue = [292, 304, 228, 244, 244, 228]\nclass = median", fillcolor="#fefffd"] ;
327 -> 331 ;
332 [label="gini = 0.823\nsamples = 352\nvalue = [64, 80, 40, 64, 64, 40]\nclass = median", fillcolor="#fafef4"] ;
331 -> 332 ;
333 [label="CCR <= 0.55\ngini = 0.832\nsamples = 1188\nvalue = [228, 224, 188, 180, 180, 188]\nclass = mean", fillcolor="#fffefe"] ;
331 -> 333 ;
334 [label="gini = 0.831\nsamples = 1104\nvalue = [212, 212, 176, 164, 164, 176]\nclass = mean", fillcolor="#ffffff"] ;
333 -> 334 ;
335 [label="gini = 0.83\nsamples = 84\nvalue = [16, 12, 12, 16, 16, 12]\nclass = mean", fillcolor="#ffffff"] ;
333 -> 335 ;
336 [label="sdComm <= 0.065\ngini = 0.823\nsamples = 438\nvalue = [96, 46, 88, 60, 60, 88]\nclass = mean", fillcolor="#fefcfa"] ;
326 -> 336 ;
337 [label="graphDepth <= 6.5\ngini = 0.795\nsamples = 174\nvalue = [60, 22, 22, 24, 24, 22]\nclass = mean", fillcolor="#f9e1cf"] ;
336 -> 337 ;
338 [label="sdComp <= 0.065\ngini = 0.798\nsamples = 124\nvalue = [40, 12, 22, 14, 14, 22]\nclass = mean", fillcolor="#fae9dc"] ;
337 -> 338 ;
339 [label="gini = 0.406\nsamples = 16\nvalue = [12, 0, 2, 0, 0, 2]\nclass = mean", fillcolor="#eca572"] ;
338 -> 339 ;
340 [label="gini = 0.818\nsamples = 108\nvalue = [28, 12, 20, 14, 14, 20]\nclass = mean", fillcolor="#fdf4ed"] ;
338 -> 340 ;
341 [label="sdComp <= 0.065\ngini = 0.72\nsamples = 50\nvalue = [20, 10, 0, 10, 10, 0]\nclass = mean", fillcolor="#f8e0ce"] ;
337 -> 341 ;
342 [label="gini = 0.75\nsamples = 32\nvalue = [8, 8, 0, 8, 8, 0]\nclass = mean", fillcolor="#ffffff"] ;
341 -> 342 ;
343 [label="gini = 0.519\nsamples = 18\nvalue = [12, 2, 0, 2, 2, 0]\nclass = mean", fillcolor="#efb083"] ;
341 -> 343 ;
344 [label="graphDepth <= 6.5\ngini = 0.811\nsamples = 264\nvalue = [36, 24, 66, 36, 36, 66]\nclass = maxmax", fillcolor="#ffffff"] ;
336 -> 344 ;
345 [label="sdComp <= 0.065\ngini = 0.82\nsamples = 216\nvalue = [28, 20, 48, 36, 36, 48]\nclass = maxmax", fillcolor="#ffffff"] ;
344 -> 345 ;
346 [label="gini = 0.656\nsamples = 32\nvalue = [8, 0, 0, 12, 12, 0]\nclass = minmax", fillcolor="#ffffff"] ;
345 -> 346 ;
347 [label="CCR <= 0.55\ngini = 0.806\nsamples = 184\nvalue = [20, 20, 48, 24, 24, 48]\nclass = maxmax", fillcolor="#ffffff"] ;
345 -> 347 ;
348 [label="gini = 0.816\nsamples = 144\nvalue = [12, 20, 34, 22, 22, 34]\nclass = maxmax", fillcolor="#ffffff"] ;
347 -> 348 ;
349 [label="gini = 0.71\nsamples = 40\nvalue = [8, 0, 14, 2, 2, 14]\nclass = maxmax", fillcolor="#ffffff"] ;
347 -> 349 ;
350 [label="CCR <= 0.55\ngini = 0.684\nsamples = 48\nvalue = [8, 4, 18, 0, 0, 18]\nclass = maxmax", fillcolor="#ffffff"] ;
344 -> 350 ;
351 [label="sdComp <= 0.065\ngini = 0.625\nsamples = 24\nvalue = [4, 0, 10, 0, 0, 10]\nclass = maxmax", fillcolor="#ffffff"] ;
350 -> 351 ;
352 [label="gini = 0.64\nsamples = 20\nvalue = [4, 0, 8, 0, 0, 8]\nclass = maxmax", fillcolor="#ffffff"] ;
351 -> 352 ;
353 [label="gini = 0.5\nsamples = 4\nvalue = [0, 0, 2, 0, 0, 2]\nclass = maxmax", fillcolor="#ffffff"] ;
351 -> 353 ;
354 [label="gini = 0.722\nsamples = 24\nvalue = [4, 4, 8, 0, 0, 8]\nclass = maxmax", fillcolor="#ffffff"] ;
350 -> 354 ;
355 [label="graphSize <= 22.5\ngini = 0.81\nsamples = 268\nvalue = [62, 74, 32, 34, 34, 32]\nclass = median", fillcolor="#f9fdf3"] ;
325 -> 355 ;
356 [label="sdComp <= 0.65\ngini = 0.824\nsamples = 148\nvalue = [24, 16, 32, 22, 22, 32]\nclass = maxmax", fillcolor="#ffffff"] ;
355 -> 356 ;
357 [label="gini = 0.831\nsamples = 124\nvalue = [24, 16, 20, 22, 22, 20]\nclass = mean", fillcolor="#fefdfb"] ;
356 -> 357 ;
358 [label="gini = 0.5\nsamples = 24\nvalue = [0, 0, 12, 0, 0, 12]\nclass = maxmax", fillcolor="#ffffff"] ;
356 -> 358 ;
359 [label="sdComp <= 0.65\ngini = 0.646\nsamples = 120\nvalue = [38, 58, 0, 12, 12, 0]\nclass = median", fillcolor="#e7f9cf"] ;
355 -> 359 ;
360 [label="graphSize <= 40.0\ngini = 0.5\nsamples = 40\nvalue = [20, 20, 0, 0, 0, 0]\nclass = mean", fillcolor="#ffffff"] ;
359 -> 360 ;
361 [label="gini = 0.494\nsamples = 36\nvalue = [16, 20, 0, 0, 0, 0]\nclass = median", fillcolor="#ebfad7"] ;
360 -> 361 ;
362 [label="gini = 0.0\nsamples = 4\nvalue = [4, 0, 0, 0, 0, 0]\nclass = mean", fillcolor="#e58139"] ;
360 -> 362 ;
363 [label="graphSize <= 40.0\ngini = 0.679\nsamples = 80\nvalue = [18, 38, 0, 12, 12, 0]\nclass = median", fillcolor="#dff7bf"] ;
359 -> 363 ;
364 [label="gini = 0.685\nsamples = 68\nvalue = [12, 32, 0, 12, 12, 0]\nclass = median", fillcolor="#dcf6b8"] ;
363 -> 364 ;
365 [label="gini = 0.5\nsamples = 12\nvalue = [6, 6, 0, 0, 0, 0]\nclass = mean", fillcolor="#ffffff"] ;
363 -> 365 ;
366 [label="sdComp <= 0.2\ngini = 0.833\nsamples = 2946\nvalue = [462, 468, 520, 488, 488, 520]\nclass = maxmax", fillcolor="#ffffff"] ;
324 -> 366 ;
367 [label="graphDepth <= 6.5\ngini = 0.83\nsamples = 716\nvalue = [122, 102, 104, 142, 142, 104]\nclass = minmax", fillcolor="#ffffff"] ;
366 -> 367 ;
368 [label="graphSize <= 22.5\ngini = 0.829\nsamples = 708\nvalue = [122, 102, 100, 142, 142, 100]\nclass = minmax", fillcolor="#ffffff"] ;
367 -> 368 ;
369 [label="sdComm <= 0.65\ngini = 0.831\nsamples = 592\nvalue = [106, 94, 86, 110, 110, 86]\nclass = minmax", fillcolor="#ffffff"] ;
368 -> 369 ;
370 [label="gini = 0.832\nsamples = 388\nvalue = [66, 66, 58, 70, 70, 58]\nclass = minmax", fillcolor="#ffffff"] ;
369 -> 370 ;
371 [label="gini = 0.828\nsamples = 204\nvalue = [40, 28, 28, 40, 40, 28]\nclass = mean", fillcolor="#ffffff"] ;
369 -> 371 ;
372 [label="sdComm <= 0.65\ngini = 0.795\nsamples = 116\nvalue = [16, 8, 14, 32, 32, 14]\nclass = minmax", fillcolor="#ffffff"] ;
368 -> 372 ;
373 [label="gini = 0.819\nsamples = 48\nvalue = [12, 4, 8, 8, 8, 8]\nclass = mean", fillcolor="#fcf2eb"] ;
372 -> 373 ;
374 [label="gini = 0.728\nsamples = 68\nvalue = [4, 4, 6, 24, 24, 6]\nclass = minmax", fillcolor="#ffffff"] ;
372 -> 374 ;
375 [label="gini = 0.5\nsamples = 8\nvalue = [0, 0, 4, 0, 0, 4]\nclass = maxmax", fillcolor="#ffffff"] ;
367 -> 375 ;
376 [label="CCR <= 5.5\ngini = 0.832\nsamples = 2230\nvalue = [340, 366, 416, 346, 346, 416]\nclass = maxmax", fillcolor="#ffffff"] ;
366 -> 376 ;
377 [label="graphSize <= 40.0\ngini = 0.83\nsamples = 1230\nvalue = [176, 202, 244, 182, 182, 244]\nclass = maxmax", fillcolor="#ffffff"] ;
376 -> 377 ;
378 [label="graphSize <= 22.5\ngini = 0.83\nsamples = 1130\nvalue = [170, 172, 224, 170, 170, 224]\nclass = maxmax", fillcolor="#ffffff"] ;
377 -> 378 ;
379 [label="sdComp <= 0.65\ngini = 0.831\nsamples = 896\nvalue = [146, 154, 172, 126, 126, 172]\nclass = maxmax", fillcolor="#ffffff"] ;
378 -> 379 ;
380 [label="sdComm <= 0.65\ngini = 0.83\nsamples = 588\nvalue = [92, 88, 118, 86, 86, 118]\nclass = maxmax", fillcolor="#ffffff"] ;
379 -> 380 ;
381 [label="gini = 0.816\nsamples = 192\nvalue = [32, 24, 46, 22, 22, 46]\nclass = maxmax", fillcolor="#ffffff"] ;
380 -> 381 ;
382 [label="gini = 0.833\nsamples = 396\nvalue = [60, 64, 72, 64, 64, 72]\nclass = maxmax", fillcolor="#ffffff"] ;
380 -> 382 ;
383 [label="sdComm <= 0.65\ngini = 0.828\nsamples = 308\nvalue = [54, 66, 54, 40, 40, 54]\nclass = median", fillcolor="#fafef6"] ;
379 -> 383 ;
384 [label="gini = 0.83\nsamples = 206\nvalue = [30, 36, 30, 40, 40, 30]\nclass = minmax", fillcolor="#ffffff"] ;
383 -> 384 ;
385 [label="gini = 0.747\nsamples = 102\nvalue = [24, 30, 24, 0, 0, 24]\nclass = median", fillcolor="#f7fdf0"] ;
383 -> 385 ;
386 [label="sdComp <= 0.65\ngini = 0.814\nsamples = 234\nvalue = [24, 18, 52, 44, 44, 52]\nclass = maxmax", fillcolor="#ffffff"] ;
378 -> 386 ;
387 [label="sdComm <= 0.65\ngini = 0.822\nsamples = 116\nvalue = [16, 12, 26, 18, 18, 26]\nclass = maxmax", fillcolor="#ffffff"] ;
386 -> 387 ;
388 [label="gini = 0.813\nsamples = 60\nvalue = [8, 4, 14, 10, 10, 14]\nclass = maxmax", fillcolor="#ffffff"] ;
387 -> 388 ;
389 [label="gini = 0.827\nsamples = 56\nvalue = [8, 8, 12, 8, 8, 12]\nclass = maxmax", fillcolor="#ffffff"] ;
387 -> 389 ;
390 [label="sdComm <= 0.65\ngini = 0.799\nsamples = 118\nvalue = [8, 6, 26, 26, 26, 26]\nclass = maxmax", fillcolor="#ffffff"] ;
386 -> 390 ;
391 [label="gini = 0.803\nsamples = 86\nvalue = [8, 6, 22, 14, 14, 22]\nclass = maxmax", fillcolor="#ffffff"] ;
390 -> 391 ;
392 [label="gini = 0.688\nsamples = 32\nvalue = [0, 0, 4, 12, 12, 4]\nclass = minmax", fillcolor="#ffffff"] ;
390 -> 392 ;
393 [label="sdComp <= 0.65\ngini = 0.798\nsamples = 100\nvalue = [6, 30, 20, 12, 12, 20]\nclass = median", fillcolor="#f3fce6"] ;
377 -> 393 ;
394 [label="sdComm <= 0.65\ngini = 0.66\nsamples = 40\nvalue = [0, 16, 0, 12, 12, 0]\nclass = median", fillcolor="#f1fbe3"] ;
393 -> 394 ;
395 [label="gini = 0.625\nsamples = 16\nvalue = [0, 8, 0, 4, 4, 0]\nclass = median", fillcolor="#def6bd"] ;
394 -> 395 ;
396 [label="gini = 0.667\nsamples = 24\nvalue = [0, 8, 0, 8, 8, 0]\nclass = median", fillcolor="#ffffff"] ;
394 -> 396 ;
397 [label="sdComm <= 0.65\ngini = 0.713\nsamples = 60\nvalue = [6, 14, 20, 0, 0, 20]\nclass = maxmax", fillcolor="#ffffff"] ;
393 -> 397 ;
398 [label="gini = 0.731\nsamples = 44\nvalue = [6, 14, 12, 0, 0, 12]\nclass = median", fillcolor="#f9fdf3"] ;
397 -> 398 ;
399 [label="gini = 0.5\nsamples = 16\nvalue = [0, 0, 8, 0, 0, 8]\nclass = maxmax", fillcolor="#ffffff"] ;
397 -> 399 ;
400 [label="graphSize <= 22.5\ngini = 0.833\nsamples = 1000\nvalue = [164, 164, 172, 164, 164, 172]\nclass = maxmax", fillcolor="#ffffff"] ;
376 -> 400 ;
401 [label="sdComp <= 2.0\ngini = 0.833\nsamples = 484\nvalue = [82, 82, 78, 82, 82, 78]\nclass = mean", fillcolor="#ffffff"] ;
400 -> 401 ;
402 [label="sdComm <= 6.5\ngini = 0.833\nsamples = 164\nvalue = [30, 30, 26, 26, 26, 26]\nclass = mean", fillcolor="#ffffff"] ;
401 -> 402 ;
403 [label="sdComm <= 2.0\ngini = 0.831\nsamples = 92\nvalue = [18, 18, 14, 14, 14, 14]\nclass = mean", fillcolor="#ffffff"] ;
402 -> 403 ;
404 [label="gini = 0.833\nsamples = 24\nvalue = [4, 4, 4, 4, 4, 4]\nclass = mean", fillcolor="#ffffff"] ;
403 -> 404 ;
405 [label="gini = 0.829\nsamples = 68\nvalue = [14, 14, 10, 10, 10, 10]\nclass = mean", fillcolor="#ffffff"] ;
403 -> 405 ;
406 [label="gini = 0.833\nsamples = 72\nvalue = [12, 12, 12, 12, 12, 12]\nclass = mean", fillcolor="#ffffff"] ;
402 -> 406 ;
407 [label="sdComm <= 2.0\ngini = 0.833\nsamples = 320\nvalue = [52, 52, 52, 56, 56, 52]\nclass = minmax", fillcolor="#ffffff"] ;
401 -> 407 ;
408 [label="gini = 0.833\nsamples = 96\nvalue = [16, 16, 16, 16, 16, 16]\nclass = mean", fillcolor="#ffffff"] ;
407 -> 408 ;
409 [label="sdComm <= 6.5\ngini = 0.833\nsamples = 224\nvalue = [36, 36, 36, 40, 40, 36]\nclass = minmax", fillcolor="#ffffff"] ;
407 -> 409 ;
410 [label="gini = 0.832\nsamples = 152\nvalue = [24, 24, 24, 28, 28, 24]\nclass = minmax", fillcolor="#ffffff"] ;
409 -> 410 ;
411 [label="gini = 0.833\nsamples = 72\nvalue = [12, 12, 12, 12, 12, 12]\nclass = mean", fillcolor="#ffffff"] ;
409 -> 411 ;
412 [label="sdComm <= 2.0\ngini = 0.833\nsamples = 516\nvalue = [82, 82, 94, 82, 82, 94]\nclass = maxmax", fillcolor="#ffffff"] ;
400 -> 412 ;
413 [label="graphDepth <= 6.5\ngini = 0.832\nsamples = 140\nvalue = [22, 22, 22, 26, 26, 22]\nclass = minmax", fillcolor="#ffffff"] ;
412 -> 413 ;
414 [label="sdComp <= 2.0\ngini = 0.827\nsamples = 56\nvalue = [8, 8, 8, 12, 12, 8]\nclass = minmax", fillcolor="#ffffff"] ;
413 -> 414 ;
415 [label="gini = 0.833\nsamples = 24\nvalue = [4, 4, 4, 4, 4, 4]\nclass = mean", fillcolor="#ffffff"] ;
414 -> 415 ;
416 [label="gini = 0.812\nsamples = 32\nvalue = [4, 4, 4, 8, 8, 4]\nclass = minmax", fillcolor="#ffffff"] ;
414 -> 416 ;
417 [label="sdComp <= 2.0\ngini = 0.833\nsamples = 84\nvalue = [14, 14, 14, 14, 14, 14]\nclass = mean", fillcolor="#ffffff"] ;
413 -> 417 ;
418 [label="gini = 0.833\nsamples = 48\nvalue = [8, 8, 8, 8, 8, 8]\nclass = mean", fillcolor="#ffffff"] ;
417 -> 418 ;
419 [label="gini = 0.833\nsamples = 36\nvalue = [6, 6, 6, 6, 6, 6]\nclass = mean", fillcolor="#ffffff"] ;
417 -> 419 ;
420 [label="graphDepth <= 6.5\ngini = 0.831\nsamples = 376\nvalue = [60, 60, 72, 56, 56, 72]\nclass = maxmax", fillcolor="#ffffff"] ;
412 -> 420 ;
421 [label="sdComm <= 6.5\ngini = 0.829\nsamples = 148\nvalue = [22, 22, 30, 22, 22, 30]\nclass = maxmax", fillcolor="#ffffff"] ;
420 -> 421 ;
422 [label="gini = 0.827\nsamples = 56\nvalue = [8, 8, 12, 8, 8, 12]\nclass = maxmax", fillcolor="#ffffff"] ;
421 -> 422 ;
423 [label="sdComp <= 2.0\ngini = 0.831\nsamples = 92\nvalue = [14, 14, 18, 14, 14, 18]\nclass = maxmax", fillcolor="#ffffff"] ;
421 -> 423 ;
424 [label="gini = 0.833\nsamples = 36\nvalue = [6, 6, 6, 6, 6, 6]\nclass = mean", fillcolor="#ffffff"] ;
423 -> 424 ;
425 [label="gini = 0.827\nsamples = 56\nvalue = [8, 8, 12, 8, 8, 12]\nclass = maxmax", fillcolor="#ffffff"] ;
423 -> 425 ;
426 [label="sdComp <= 2.0\ngini = 0.832\nsamples = 228\nvalue = [38, 38, 42, 34, 34, 42]\nclass = maxmax", fillcolor="#ffffff"] ;
420 -> 426 ;
427 [label="sdComm <= 6.5\ngini = 0.833\nsamples = 72\nvalue = [12, 12, 12, 12, 12, 12]\nclass = mean", fillcolor="#ffffff"] ;
426 -> 427 ;
428 [label="gini = 0.833\nsamples = 48\nvalue = [8, 8, 8, 8, 8, 8]\nclass = mean", fillcolor="#ffffff"] ;
427 -> 428 ;
429 [label="gini = 0.833\nsamples = 24\nvalue = [4, 4, 4, 4, 4, 4]\nclass = mean", fillcolor="#ffffff"] ;
427 -> 429 ;
430 [label="sdComm <= 6.5\ngini = 0.831\nsamples = 156\nvalue = [26, 26, 30, 22, 22, 30]\nclass = maxmax", fillcolor="#ffffff"] ;
426 -> 430 ;
431 [label="gini = 0.827\nsamples = 56\nvalue = [8, 8, 12, 8, 8, 12]\nclass = maxmax", fillcolor="#ffffff"] ;
430 -> 431 ;
432 [label="gini = 0.831\nsamples = 100\nvalue = [18, 18, 18, 14, 14, 18]\nclass = mean", fillcolor="#ffffff"] ;
430 -> 432 ;
433 [label="graphSize <= 22.5\ngini = 0.805\nsamples = 146\nvalue = [20, 22, 38, 14, 14, 38]\nclass = maxmax", fillcolor="#ffffff"] ;
323 -> 433 ;
434 [label="sdComm <= 2.0\ngini = 0.831\nsamples = 88\nvalue = [16, 16, 16, 12, 12, 16]\nclass = mean", fillcolor="#ffffff"] ;
433 -> 434 ;
435 [label="gini = 0.833\nsamples = 48\nvalue = [8, 8, 8, 8, 8, 8]\nclass = mean", fillcolor="#ffffff"] ;
434 -> 435 ;
436 [label="gini = 0.82\nsamples = 40\nvalue = [8, 8, 8, 4, 4, 8]\nclass = mean", fillcolor="#ffffff"] ;
434 -> 436 ;
437 [label="graphSize <= 40.0\ngini = 0.694\nsamples = 58\nvalue = [4, 6, 22, 2, 2, 22]\nclass = maxmax", fillcolor="#ffffff"] ;
433 -> 437 ;
438 [label="sdComm <= 5.5\ngini = 0.5\nsamples = 28\nvalue = [0, 0, 14, 0, 0, 14]\nclass = maxmax", fillcolor="#ffffff"] ;
437 -> 438 ;
439 [label="gini = 0.5\nsamples = 12\nvalue = [0, 0, 6, 0, 0, 6]\nclass = maxmax", fillcolor="#ffffff"] ;
438 -> 439 ;
440 [label="gini = 0.5\nsamples = 16\nvalue = [0, 0, 8, 0, 0, 8]\nclass = maxmax", fillcolor="#ffffff"] ;
438 -> 440 ;
441 [label="sdComm <= 5.5\ngini = 0.791\nsamples = 30\nvalue = [4, 6, 8, 2, 2, 8]\nclass = maxmax", fillcolor="#ffffff"] ;
437 -> 441 ;
442 [label="gini = 0.776\nsamples = 14\nvalue = [0, 2, 4, 2, 2, 4]\nclass = maxmax", fillcolor="#ffffff"] ;
441 -> 442 ;
443 [label="gini = 0.75\nsamples = 16\nvalue = [4, 4, 4, 0, 0, 4]\nclass = mean", fillcolor="#ffffff"] ;
441 -> 443 ;
444 [label="sdComm <= 0.065\ngini = 0.833\nsamples = 4636\nvalue = [758, 810, 830, 704, 704, 830]\nclass = maxmax", fillcolor="#ffffff"] ;
202 -> 444 ;
445 [label="nbproc <= 4.5\ngini = 0.818\nsamples = 344\nvalue = [28, 68, 76, 48, 48, 76]\nclass = maxmax", fillcolor="#ffffff"] ;
444 -> 445 ;
446 [label="graphSize <= 40.0\ngini = 0.81\nsamples = 100\nvalue = [20, 20, 22, 8, 8, 22]\nclass = maxmax", fillcolor="#ffffff"] ;
445 -> 446 ;
447 [label="sdComp <= 0.065\ngini = 0.766\nsamples = 80\nvalue = [20, 0, 22, 8, 8, 22]\nclass = maxmax", fillcolor="#ffffff"] ;
446 -> 447 ;
448 [label="gini = 0.734\nsamples = 52\nvalue = [20, 0, 12, 4, 4, 12]\nclass = mean", fillcolor="#fae6d7"] ;
447 -> 448 ;
449 [label="gini = 0.704\nsamples = 28\nvalue = [0, 0, 10, 4, 4, 10]\nclass = maxmax", fillcolor="#ffffff"] ;
447 -> 449 ;
450 [label="gini = 0.0\nsamples = 20\nvalue = [0, 20, 0, 0, 0, 0]\nclass = median", fillcolor="#9de539"] ;
446 -> 450 ;
451 [label="sdComp <= 0.065\ngini = 0.809\nsamples = 244\nvalue = [8, 48, 54, 40, 40, 54]\nclass = maxmax", fillcolor="#ffffff"] ;
445 -> 451 ;
452 [label="graphDepth <= 13.5\ngini = 0.804\nsamples = 176\nvalue = [8, 28, 44, 26, 26, 44]\nclass = maxmax", fillcolor="#ffffff"] ;
451 -> 452 ;
453 [label="gini = 0.795\nsamples = 128\nvalue = [4, 28, 32, 16, 16, 32]\nclass = maxmax", fillcolor="#ffffff"] ;
452 -> 453 ;
454 [label="gini = 0.781\nsamples = 48\nvalue = [4, 0, 12, 10, 10, 12]\nclass = maxmax", fillcolor="#ffffff"] ;
452 -> 454 ;
455 [label="graphSize <= 40.0\ngini = 0.785\nsamples = 68\nvalue = [0, 20, 10, 14, 14, 10]\nclass = median", fillcolor="#f4fce9"] ;
451 -> 455 ;
456 [label="gini = 0.793\nsamples = 64\nvalue = [0, 16, 10, 14, 14, 10]\nclass = median", fillcolor="#fbfef7"] ;
455 -> 456 ;
457 [label="gini = 0.0\nsamples = 4\nvalue = [0, 4, 0, 0, 0, 0]\nclass = median", fillcolor="#9de539"] ;
455 -> 457 ;
458 [label="sdComp <= 0.065\ngini = 0.833\nsamples = 4292\nvalue = [730, 742, 754, 656, 656, 754]\nclass = maxmax", fillcolor="#ffffff"] ;
444 -> 458 ;
459 [label="nbproc <= 4.5\ngini = 0.744\nsamples = 44\nvalue = [12, 8, 0, 12, 12, 0]\nclass = mean", fillcolor="#ffffff"] ;
458 -> 459 ;
460 [label="graphDepth <= 13.5\ngini = 0.75\nsamples = 32\nvalue = [8, 8, 0, 8, 8, 0]\nclass = mean", fillcolor="#ffffff"] ;
459 -> 460 ;
461 [label="gini = 0.72\nsamples = 20\nvalue = [8, 4, 0, 4, 4, 0]\nclass = mean", fillcolor="#f8e0ce"] ;
460 -> 461 ;
462 [label="gini = 0.667\nsamples = 12\nvalue = [0, 4, 0, 4, 4, 0]\nclass = median", fillcolor="#ffffff"] ;
460 -> 462 ;
463 [label="graphDepth <= 13.5\ngini = 0.667\nsamples = 12\nvalue = [4, 0, 0, 4, 4, 0]\nclass = mean", fillcolor="#ffffff"] ;
459 -> 463 ;
464 [label="gini = 0.5\nsamples = 8\nvalue = [0, 0, 0, 4, 4, 0]\nclass = minmax", fillcolor="#ffffff"] ;
463 -> 464 ;
465 [label="gini = 0.0\nsamples = 4\nvalue = [4, 0, 0, 0, 0, 0]\nclass = mean", fillcolor="#e58139"] ;
463 -> 465 ;
466 [label="sdComp <= 0.65\ngini = 0.833\nsamples = 4248\nvalue = [718, 734, 754, 644, 644, 754]\nclass = maxmax", fillcolor="#ffffff"] ;
458 -> 466 ;
467 [label="nbproc <= 4.5\ngini = 0.828\nsamples = 992\nvalue = [168, 172, 200, 126, 126, 200]\nclass = maxmax", fillcolor="#ffffff"] ;
466 -> 467 ;
468 [label="sdComm <= 0.65\ngini = 0.814\nsamples = 274\nvalue = [50, 56, 60, 24, 24, 60]\nclass = maxmax", fillcolor="#ffffff"] ;
467 -> 468 ;
469 [label="graphSize <= 40.0\ngini = 0.815\nsamples = 198\nvalue = [38, 28, 46, 20, 20, 46]\nclass = maxmax", fillcolor="#ffffff"] ;
468 -> 469 ;
470 [label="CCR <= 0.55\ngini = 0.83\nsamples = 144\nvalue = [24, 24, 28, 20, 20, 28]\nclass = maxmax", fillcolor="#ffffff"] ;
469 -> 470 ;
471 [label="gini = 0.5\nsamples = 8\nvalue = [0, 0, 0, 4, 4, 0]\nclass = minmax", fillcolor="#ffffff"] ;
470 -> 471 ;
472 [label="sdComp <= 0.2\ngini = 0.825\nsamples = 136\nvalue = [24, 24, 28, 16, 16, 28]\nclass = maxmax", fillcolor="#ffffff"] ;
470 -> 472 ;
473 [label="sdComm <= 0.2\ngini = 0.806\nsamples = 48\nvalue = [8, 8, 12, 4, 4, 12]\nclass = maxmax", fillcolor="#ffffff"] ;
472 -> 473 ;
474 [label="gini = 0.667\nsamples = 12\nvalue = [4, 0, 4, 0, 0, 4]\nclass = mean", fillcolor="#ffffff"] ;
473 -> 474 ;
475 [label="gini = 0.815\nsamples = 36\nvalue = [4, 8, 8, 4, 4, 8]\nclass = median", fillcolor="#ffffff"] ;
473 -> 475 ;
476 [label="sdComm <= 0.2\ngini = 0.831\nsamples = 88\nvalue = [16, 16, 16, 12, 12, 16]\nclass = mean", fillcolor="#ffffff"] ;
472 -> 476 ;
477 [label="gini = 0.833\nsamples = 48\nvalue = [8, 8, 8, 8, 8, 8]\nclass = mean", fillcolor="#ffffff"] ;
476 -> 477 ;
478 [label="gini = 0.82\nsamples = 40\nvalue = [8, 8, 8, 4, 4, 8]\nclass = mean", fillcolor="#ffffff"] ;
476 -> 478 ;
479 [label="CCR <= 0.55\ngini = 0.705\nsamples = 54\nvalue = [14, 4, 18, 0, 0, 18]\nclass = maxmax", fillcolor="#ffffff"] ;
469 -> 479 ;
480 [label="gini = 0.625\nsamples = 8\nvalue = [0, 4, 2, 0, 0, 2]\nclass = median", fillcolor="#def6bd"] ;
479 -> 480 ;
481 [label="sdComp <= 0.2\ngini = 0.665\nsamples = 46\nvalue = [14, 0, 16, 0, 0, 16]\nclass = maxmax", fillcolor="#ffffff"] ;
479 -> 481 ;
482 [label="sdComm <= 0.2\ngini = 0.64\nsamples = 20\nvalue = [4, 0, 8, 0, 0, 8]\nclass = maxmax", fillcolor="#ffffff"] ;
481 -> 482 ;
483 [label="gini = 0.5\nsamples = 8\nvalue = [0, 0, 4, 0, 0, 4]\nclass = maxmax", fillcolor="#ffffff"] ;
482 -> 483 ;
484 [label="gini = 0.667\nsamples = 12\nvalue = [4, 0, 4, 0, 0, 4]\nclass = mean", fillcolor="#ffffff"] ;
482 -> 484 ;
485 [label="sdComm <= 0.2\ngini = 0.663\nsamples = 26\nvalue = [10, 0, 8, 0, 0, 8]\nclass = mean", fillcolor="#fcf1e9"] ;
481 -> 485 ;
486 [label="gini = 0.0\nsamples = 2\nvalue = [2, 0, 0, 0, 0, 0]\nclass = mean", fillcolor="#e58139"] ;
485 -> 486 ;
487 [label="gini = 0.667\nsamples = 24\nvalue = [8, 0, 8, 0, 0, 8]\nclass = mean", fillcolor="#ffffff"] ;
485 -> 487 ;
488 [label="graphSize <= 40.0\ngini = 0.766\nsamples = 76\nvalue = [12, 28, 14, 4, 4, 14]\nclass = median", fillcolor="#e9f9d2"] ;
468 -> 488 ;
489 [label="sdComp <= 0.2\ngini = 0.749\nsamples = 52\nvalue = [12, 12, 14, 0, 0, 14]\nclass = maxmax", fillcolor="#ffffff"] ;
488 -> 489 ;
490 [label="gini = 0.74\nsamples = 20\nvalue = [4, 4, 6, 0, 0, 6]\nclass = maxmax", fillcolor="#ffffff"] ;
489 -> 490 ;
491 [label="gini = 0.75\nsamples = 32\nvalue = [8, 8, 8, 0, 0, 8]\nclass = mean", fillcolor="#ffffff"] ;
489 -> 491 ;
492 [label="sdComp <= 0.2\ngini = 0.5\nsamples = 24\nvalue = [0, 16, 0, 4, 4, 0]\nclass = median", fillcolor="#c4ef88"] ;
488 -> 492 ;
493 [label="gini = 0.5\nsamples = 12\nvalue = [0, 8, 0, 2, 2, 0]\nclass = median", fillcolor="#c4ef88"] ;
492 -> 493 ;
494 [label="gini = 0.5\nsamples = 12\nvalue = [0, 8, 0, 2, 2, 0]\nclass = median", fillcolor="#c4ef88"] ;
492 -> 494 ;
495 [label="CCR <= 0.55\ngini = 0.83\nsamples = 718\nvalue = [118, 116, 140, 102, 102, 140]\nclass = maxmax", fillcolor="#ffffff"] ;
467 -> 495 ;
496 [label="graphSize <= 40.0\ngini = 0.815\nsamples = 132\nvalue = [36, 24, 22, 14, 14, 22]\nclass = mean", fillcolor="#fcf1e9"] ;
495 -> 496 ;
497 [label="gini = 0.817\nsamples = 120\nvalue = [32, 24, 18, 14, 14, 18]\nclass = mean", fillcolor="#fdf5ef"] ;
496 -> 497 ;
498 [label="gini = 0.667\nsamples = 12\nvalue = [4, 0, 4, 0, 0, 4]\nclass = mean", fillcolor="#ffffff"] ;
496 -> 498 ;
499 [label="sdComp <= 0.2\ngini = 0.83\nsamples = 586\nvalue = [82, 92, 118, 88, 88, 118]\nclass = maxmax", fillcolor="#ffffff"] ;
495 -> 499 ;
500 [label="sdComm <= 0.65\ngini = 0.83\nsamples = 316\nvalue = [40, 44, 60, 56, 56, 60]\nclass = maxmax", fillcolor="#ffffff"] ;
499 -> 500 ;
501 [label="graphDepth <= 13.5\ngini = 0.813\nsamples = 116\nvalue = [8, 12, 24, 24, 24, 24]\nclass = maxmax", fillcolor="#ffffff"] ;
500 -> 501 ;
502 [label="sdComm <= 0.2\ngini = 0.784\nsamples = 72\nvalue = [4, 4, 20, 12, 12, 20]\nclass = maxmax", fillcolor="#ffffff"] ;
501 -> 502 ;
503 [label="gini = 0.797\nsamples = 64\nvalue = [4, 4, 16, 12, 12, 16]\nclass = maxmax", fillcolor="#ffffff"] ;
502 -> 503 ;
504 [label="gini = 0.5\nsamples = 8\nvalue = [0, 0, 4, 0, 0, 4]\nclass = maxmax", fillcolor="#ffffff"] ;
502 -> 504 ;
505 [label="gini = 0.793\nsamples = 44\nvalue = [4, 8, 4, 12, 12, 4]\nclass = minmax", fillcolor="#ffffff"] ;
501 -> 505 ;
506 [label="graphSize <= 40.0\ngini = 0.833\nsamples = 200\nvalue = [32, 32, 36, 32, 32, 36]\nclass = maxmax", fillcolor="#ffffff"] ;
500 -> 506 ;
507 [label="gini = 0.833\nsamples = 168\nvalue = [28, 28, 28, 28, 28, 28]\nclass = mean", fillcolor="#ffffff"] ;
506 -> 507 ;
508 [label="gini = 0.812\nsamples = 32\nvalue = [4, 4, 8, 4, 4, 8]\nclass = maxmax", fillcolor="#ffffff"] ;
506 -> 508 ;
509 [label="sdComm <= 0.65\ngini = 0.824\nsamples = 270\nvalue = [42, 48, 58, 32, 32, 58]\nclass = maxmax", fillcolor="#ffffff"] ;
499 -> 509 ;
510 [label="graphSize <= 40.0\ngini = 0.824\nsamples = 268\nvalue = [42, 46, 58, 32, 32, 58]\nclass = maxmax", fillcolor="#ffffff"] ;
509 -> 510 ;
511 [label="sdComm <= 0.2\ngini = 0.82\nsamples = 192\nvalue = [34, 34, 42, 20, 20, 42]\nclass = maxmax", fillcolor="#ffffff"] ;
510 -> 511 ;
512 [label="gini = 0.811\nsamples = 96\nvalue = [22, 22, 18, 8, 8, 18]\nclass = mean", fillcolor="#ffffff"] ;
511 -> 512 ;
513 [label="gini = 0.812\nsamples = 96\nvalue = [12, 12, 24, 12, 12, 24]\nclass = maxmax", fillcolor="#ffffff"] ;
511 -> 513 ;
514 [label="sdComm <= 0.2\ngini = 0.825\nsamples = 76\nvalue = [8, 12, 16, 12, 12, 16]\nclass = maxmax", fillcolor="#ffffff"] ;
510 -> 514 ;
515 [label="gini = 0.745\nsamples = 56\nvalue = [0, 0, 16, 12, 12, 16]\nclass = maxmax", fillcolor="#ffffff"] ;
514 -> 515 ;
516 [label="gini = 0.48\nsamples = 20\nvalue = [8, 12, 0, 0, 0, 0]\nclass = median", fillcolor="#def6bd"] ;
514 -> 516 ;
517 [label="gini = 0.0\nsamples = 2\nvalue = [0, 2, 0, 0, 0, 0]\nclass = median", fillcolor="#9de539"] ;
509 -> 517 ;
518 [label="sdComm <= 0.2\ngini = 0.833\nsamples = 3256\nvalue = [550, 562, 554, 518, 518, 554]\nclass = median", fillcolor="#fffffe"] ;
466 -> 518 ;
519 [label="graphSize <= 40.0\ngini = 0.792\nsamples = 76\nvalue = [4, 16, 8, 20, 20, 8]\nclass = minmax", fillcolor="#ffffff"] ;
518 -> 519 ;
520 [label="nbproc <= 4.5\ngini = 0.776\nsamples = 60\nvalue = [4, 4, 8, 18, 18, 8]\nclass = minmax", fillcolor="#ffffff"] ;
519 -> 520 ;
521 [label="gini = 0.722\nsamples = 24\nvalue = [4, 4, 8, 0, 0, 8]\nclass = maxmax", fillcolor="#ffffff"] ;
520 -> 521 ;
522 [label="gini = 0.5\nsamples = 36\nvalue = [0, 0, 0, 18, 18, 0]\nclass = minmax", fillcolor="#ffffff"] ;
520 -> 522 ;
523 [label="nbproc <= 4.5\ngini = 0.406\nsamples = 16\nvalue = [0, 12, 0, 2, 2, 0]\nclass = median", fillcolor="#b9ec72"] ;
519 -> 523 ;
524 [label="gini = 0.5\nsamples = 4\nvalue = [0, 0, 0, 2, 2, 0]\nclass = minmax", fillcolor="#ffffff"] ;
523 -> 524 ;
525 [label="gini = 0.0\nsamples = 12\nvalue = [0, 12, 0, 0, 0, 0]\nclass = median", fillcolor="#9de539"] ;
523 -> 525 ;
526 [label="sdComp <= 6.5\ngini = 0.833\nsamples = 3180\nvalue = [546, 546, 546, 498, 498, 546]\nclass = mean", fillcolor="#ffffff"] ;
518 -> 526 ;
527 [label="sdComm <= 0.65\ngini = 0.833\nsamples = 2382\nvalue = [406, 404, 396, 390, 390, 396]\nclass = mean", fillcolor="#ffffff"] ;
526 -> 527 ;
528 [label="nbproc <= 4.5\ngini = 0.812\nsamples = 62\nvalue = [14, 8, 14, 6, 6, 14]\nclass = mean", fillcolor="#ffffff"] ;
527 -> 528 ;
529 [label="graphDepth <= 13.5\ngini = 0.774\nsamples = 54\nvalue = [14, 8, 14, 2, 2, 14]\nclass = mean", fillcolor="#ffffff"] ;
528 -> 529 ;
530 [label="gini = 0.796\nsamples = 36\nvalue = [8, 8, 8, 2, 2, 8]\nclass = mean", fillcolor="#ffffff"] ;
529 -> 530 ;
531 [label="gini = 0.667\nsamples = 18\nvalue = [6, 0, 6, 0, 0, 6]\nclass = mean", fillcolor="#ffffff"] ;
529 -> 531 ;
532 [label="gini = 0.5\nsamples = 8\nvalue = [0, 0, 0, 4, 4, 0]\nclass = minmax", fillcolor="#ffffff"] ;
528 -> 532 ;
533 [label="CCR <= 5.5\ngini = 0.833\nsamples = 2320\nvalue = [392, 396, 382, 384, 384, 382]\nclass = median", fillcolor="#ffffff"] ;
527 -> 533 ;
534 [label="graphSize <= 40.0\ngini = 0.775\nsamples = 64\nvalue = [16, 12, 2, 16, 16, 2]\nclass = mean", fillcolor="#ffffff"] ;
533 -> 534 ;
535 [label="gini = 0.75\nsamples = 48\nvalue = [12, 12, 0, 12, 12, 0]\nclass = mean", fillcolor="#ffffff"] ;
534 -> 535 ;
536 [label="gini = 0.781\nsamples = 16\nvalue = [4, 0, 2, 4, 4, 2]\nclass = mean", fillcolor="#ffffff"] ;
534 -> 536 ;
537 [label="graphDepth <= 13.5\ngini = 0.833\nsamples = 2256\nvalue = [376, 384, 380, 368, 368, 380]\nclass = median", fillcolor="#ffffff"] ;
533 -> 537 ;
538 [label="sdComm <= 2.0\ngini = 0.833\nsamples = 1204\nvalue = [200, 200, 208, 194, 194, 208]\nclass = maxmax", fillcolor="#ffffff"] ;
537 -> 538 ;
539 [label="sdComp <= 2.0\ngini = 0.833\nsamples = 308\nvalue = [54, 50, 54, 48, 48, 54]\nclass = mean", fillcolor="#ffffff"] ;
538 -> 539 ;
540 [label="nbproc <= 4.5\ngini = 0.833\nsamples = 228\nvalue = [40, 36, 40, 36, 36, 40]\nclass = mean", fillcolor="#ffffff"] ;
539 -> 540 ;
541 [label="gini = 0.833\nsamples = 48\nvalue = [8, 8, 8, 8, 8, 8]\nclass = mean", fillcolor="#ffffff"] ;
540 -> 541 ;
542 [label="gini = 0.833\nsamples = 180\nvalue = [32, 28, 32, 28, 28, 32]\nclass = mean", fillcolor="#ffffff"] ;
540 -> 542 ;
543 [label="nbproc <= 4.5\ngini = 0.832\nsamples = 80\nvalue = [14, 14, 14, 12, 12, 14]\nclass = mean", fillcolor="#ffffff"] ;
539 -> 543 ;
544 [label="gini = 0.832\nsamples = 56\nvalue = [10, 10, 10, 8, 8, 10]\nclass = mean", fillcolor="#ffffff"] ;
543 -> 544 ;
545 [label="gini = 0.833\nsamples = 24\nvalue = [4, 4, 4, 4, 4, 4]\nclass = mean", fillcolor="#ffffff"] ;
543 -> 545 ;
546 [label="sdComp <= 2.0\ngini = 0.833\nsamples = 896\nvalue = [146, 150, 154, 146, 146, 154]\nclass = maxmax", fillcolor="#ffffff"] ;
538 -> 546 ;
547 [label="nbproc <= 4.5\ngini = 0.833\nsamples = 264\nvalue = [42, 46, 46, 42, 42, 46]\nclass = median", fillcolor="#ffffff"] ;
546 -> 547 ;
548 [label="sdComm <= 6.5\ngini = 0.829\nsamples = 72\nvalue = [10, 14, 14, 10, 10, 14]\nclass = median", fillcolor="#ffffff"] ;
547 -> 548 ;
549 [label="gini = 0.815\nsamples = 36\nvalue = [4, 8, 8, 4, 4, 8]\nclass = median", fillcolor="#ffffff"] ;
548 -> 549 ;
550 [label="gini = 0.833\nsamples = 36\nvalue = [6, 6, 6, 6, 6, 6]\nclass = mean", fillcolor="#ffffff"] ;
548 -> 550 ;
551 [label="sdComm <= 6.5\ngini = 0.833\nsamples = 192\nvalue = [32, 32, 32, 32, 32, 32]\nclass = mean", fillcolor="#ffffff"] ;
547 -> 551 ;
552 [label="gini = 0.833\nsamples = 120\nvalue = [20, 20, 20, 20, 20, 20]\nclass = mean", fillcolor="#ffffff"] ;
551 -> 552 ;
553 [label="gini = 0.833\nsamples = 72\nvalue = [12, 12, 12, 12, 12, 12]\nclass = mean", fillcolor="#ffffff"] ;
551 -> 553 ;
554 [label="sdComm <= 6.5\ngini = 0.833\nsamples = 632\nvalue = [104, 104, 108, 104, 104, 108]\nclass = maxmax", fillcolor="#ffffff"] ;
546 -> 554 ;
555 [label="nbproc <= 4.5\ngini = 0.833\nsamples = 432\nvalue = [72, 72, 72, 72, 72, 72]\nclass = mean", fillcolor="#ffffff"] ;
554 -> 555 ;
556 [label="gini = 0.833\nsamples = 192\nvalue = [32, 32, 32, 32, 32, 32]\nclass = mean", fillcolor="#ffffff"] ;
555 -> 556 ;
557 [label="gini = 0.833\nsamples = 240\nvalue = [40, 40, 40, 40, 40, 40]\nclass = mean", fillcolor="#ffffff"] ;
555 -> 557 ;
558 [label="nbproc <= 4.5\ngini = 0.833\nsamples = 200\nvalue = [32, 32, 36, 32, 32, 36]\nclass = maxmax", fillcolor="#ffffff"] ;
554 -> 558 ;
559 [label="gini = 0.833\nsamples = 72\nvalue = [12, 12, 12, 12, 12, 12]\nclass = mean", fillcolor="#ffffff"] ;
558 -> 559 ;
560 [label="gini = 0.832\nsamples = 128\nvalue = [20, 20, 24, 20, 20, 24]\nclass = maxmax", fillcolor="#ffffff"] ;
558 -> 560 ;
561 [label="sdComp <= 2.0\ngini = 0.833\nsamples = 1052\nvalue = [176, 184, 172, 174, 174, 172]\nclass = median", fillcolor="#fefffd"] ;
537 -> 561 ;
562 [label="nbproc <= 4.5\ngini = 0.833\nsamples = 552\nvalue = [92, 92, 92, 92, 92, 92]\nclass = mean", fillcolor="#ffffff"] ;
561 -> 562 ;
563 [label="sdComm <= 2.0\ngini = 0.833\nsamples = 240\nvalue = [40, 40, 40, 40, 40, 40]\nclass = mean", fillcolor="#ffffff"] ;
562 -> 563 ;
564 [label="gini = 0.833\nsamples = 96\nvalue = [16, 16, 16, 16, 16, 16]\nclass = mean", fillcolor="#ffffff"] ;
563 -> 564 ;
565 [label="sdComm <= 6.5\ngini = 0.833\nsamples = 144\nvalue = [24, 24, 24, 24, 24, 24]\nclass = mean", fillcolor="#ffffff"] ;
563 -> 565 ;
566 [label="gini = 0.833\nsamples = 96\nvalue = [16, 16, 16, 16, 16, 16]\nclass = mean", fillcolor="#ffffff"] ;
565 -> 566 ;
567 [label="gini = 0.833\nsamples = 48\nvalue = [8, 8, 8, 8, 8, 8]\nclass = mean", fillcolor="#ffffff"] ;
565 -> 567 ;
568 [label="sdComm <= 5.5\ngini = 0.833\nsamples = 312\nvalue = [52, 52, 52, 52, 52, 52]\nclass = mean", fillcolor="#ffffff"] ;
562 -> 568 ;
569 [label="gini = 0.833\nsamples = 144\nvalue = [24, 24, 24, 24, 24, 24]\nclass = mean", fillcolor="#ffffff"] ;
568 -> 569 ;
570 [label="gini = 0.833\nsamples = 168\nvalue = [28, 28, 28, 28, 28, 28]\nclass = mean", fillcolor="#ffffff"] ;
568 -> 570 ;
571 [label="nbproc <= 4.5\ngini = 0.833\nsamples = 500\nvalue = [84, 92, 80, 82, 82, 80]\nclass = median", fillcolor="#fdfffb"] ;
561 -> 571 ;
572 [label="sdComm <= 6.5\ngini = 0.832\nsamples = 244\nvalue = [40, 48, 40, 38, 38, 40]\nclass = median", fillcolor="#fbfef7"] ;
571 -> 572 ;
573 [label="sdComm <= 2.0\ngini = 0.832\nsamples = 196\nvalue = [32, 40, 32, 30, 30, 32]\nclass = median", fillcolor="#fafef5"] ;
572 -> 573 ;
574 [label="gini = 0.831\nsamples = 96\nvalue = [16, 20, 16, 14, 14, 16]\nclass = median", fillcolor="#fafef5"] ;
573 -> 574 ;
575 [label="gini = 0.832\nsamples = 100\nvalue = [16, 20, 16, 16, 16, 16]\nclass = median", fillcolor="#fafef6"] ;
573 -> 575 ;
576 [label="gini = 0.833\nsamples = 48\nvalue = [8, 8, 8, 8, 8, 8]\nclass = mean", fillcolor="#ffffff"] ;
572 -> 576 ;
577 [label="sdComm <= 2.0\ngini = 0.833\nsamples = 256\nvalue = [44, 44, 40, 44, 44, 40]\nclass = mean", fillcolor="#ffffff"] ;
571 -> 577 ;
578 [label="gini = 0.833\nsamples = 72\nvalue = [12, 12, 12, 12, 12, 12]\nclass = mean", fillcolor="#ffffff"] ;
577 -> 578 ;
579 [label="sdComm <= 6.5\ngini = 0.833\nsamples = 184\nvalue = [32, 32, 28, 32, 32, 28]\nclass = mean", fillcolor="#ffffff"] ;
577 -> 579 ;
580 [label="gini = 0.832\nsamples = 112\nvalue = [20, 20, 16, 20, 20, 16]\nclass = mean", fillcolor="#ffffff"] ;
579 -> 580 ;
581 [label="gini = 0.833\nsamples = 72\nvalue = [12, 12, 12, 12, 12, 12]\nclass = mean", fillcolor="#ffffff"] ;
579 -> 581 ;
582 [label="sdComm <= 6.5\ngini = 0.83\nsamples = 798\nvalue = [140, 142, 150, 108, 108, 150]\nclass = maxmax", fillcolor="#ffffff"] ;
526 -> 582 ;
583 [label="sdComm <= 2.0\ngini = 0.827\nsamples = 590\nvalue = [104, 106, 118, 72, 72, 118]\nclass = maxmax", fillcolor="#ffffff"] ;
582 -> 583 ;
584 [label="nbproc <= 4.5\ngini = 0.832\nsamples = 318\nvalue = [56, 58, 56, 46, 46, 56]\nclass = median", fillcolor="#fefffd"] ;
583 -> 584 ;
585 [label="graphDepth <= 13.5\ngini = 0.833\nsamples = 164\nvalue = [28, 28, 28, 26, 26, 28]\nclass = mean", fillcolor="#ffffff"] ;
584 -> 585 ;
586 [label="gini = 0.832\nsamples = 64\nvalue = [12, 12, 10, 10, 10, 10]\nclass = mean", fillcolor="#ffffff"] ;
585 -> 586 ;
587 [label="gini = 0.833\nsamples = 100\nvalue = [16, 16, 18, 16, 16, 18]\nclass = maxmax", fillcolor="#ffffff"] ;
585 -> 587 ;
588 [label="graphDepth <= 13.5\ngini = 0.829\nsamples = 154\nvalue = [28, 30, 28, 20, 20, 28]\nclass = median", fillcolor="#fdfffc"] ;
584 -> 588 ;
589 [label="gini = 0.812\nsamples = 32\nvalue = [4, 4, 8, 4, 4, 8]\nclass = maxmax", fillcolor="#ffffff"] ;
588 -> 589 ;
590 [label="gini = 0.828\nsamples = 122\nvalue = [24, 26, 20, 16, 16, 20]\nclass = median", fillcolor="#fdfefb"] ;
588 -> 590 ;
591 [label="graphDepth <= 13.5\ngini = 0.816\nsamples = 272\nvalue = [48, 48, 62, 26, 26, 62]\nclass = maxmax", fillcolor="#ffffff"] ;
583 -> 591 ;
592 [label="nbproc <= 4.5\ngini = 0.791\nsamples = 56\nvalue = [6, 6, 16, 6, 6, 16]\nclass = maxmax", fillcolor="#ffffff"] ;
591 -> 592 ;
593 [label="gini = 0.828\nsamples = 32\nvalue = [6, 6, 4, 6, 6, 4]\nclass = mean", fillcolor="#ffffff"] ;
592 -> 593 ;
594 [label="gini = 0.5\nsamples = 24\nvalue = [0, 0, 12, 0, 0, 12]\nclass = maxmax", fillcolor="#ffffff"] ;
592 -> 594 ;
595 [label="nbproc <= 4.5\ngini = 0.817\nsamples = 216\nvalue = [42, 42, 46, 20, 20, 46]\nclass = maxmax", fillcolor="#ffffff"] ;
591 -> 595 ;
596 [label="gini = 0.81\nsamples = 152\nvalue = [30, 30, 34, 12, 12, 34]\nclass = maxmax", fillcolor="#ffffff"] ;
595 -> 596 ;
597 [label="gini = 0.828\nsamples = 64\nvalue = [12, 12, 12, 8, 8, 12]\nclass = mean", fillcolor="#ffffff"] ;
595 -> 597 ;
598 [label="graphSize <= 40.0\ngini = 0.833\nsamples = 208\nvalue = [36, 36, 32, 36, 36, 32]\nclass = mean", fillcolor="#ffffff"] ;
582 -> 598 ;
599 [label="nbproc <= 4.5\ngini = 0.832\nsamples = 136\nvalue = [24, 24, 20, 24, 24, 20]\nclass = mean", fillcolor="#ffffff"] ;
598 -> 599 ;
600 [label="gini = 0.832\nsamples = 112\nvalue = [20, 20, 16, 20, 20, 16]\nclass = mean", fillcolor="#ffffff"] ;
599 -> 600 ;
601 [label="gini = 0.833\nsamples = 24\nvalue = [4, 4, 4, 4, 4, 4]\nclass = mean", fillcolor="#ffffff"] ;
599 -> 601 ;
602 [label="gini = 0.833\nsamples = 72\nvalue = [12, 12, 12, 12, 12, 12]\nclass = mean", fillcolor="#ffffff"] ;
598 -> 602 ;
603 [label="sdComp <= 0.2\ngini = 0.831\nsamples = 984\nvalue = [174, 142, 148, 186, 186, 148]\nclass = minmax", fillcolor="#ffffff"] ;
161 -> 603 ;
604 [label="sdComp <= 0.065\ngini = 0.825\nsamples = 342\nvalue = [42, 36, 68, 64, 64, 68]\nclass = maxmax", fillcolor="#ffffff"] ;
603 -> 604 ;
605 [label="sdComm <= 0.065\ngini = 0.812\nsamples = 212\nvalue = [20, 24, 32, 52, 52, 32]\nclass = minmax", fillcolor="#ffffff"] ;
604 -> 605 ;
606 [label="sdComm <= 0.02\ngini = 0.782\nsamples = 136\nvalue = [8, 16, 16, 40, 40, 16]\nclass = minmax", fillcolor="#ffffff"] ;
605 -> 606 ;
607 [label="nbproc <= 4.5\ngini = 0.771\nsamples = 96\nvalue = [0, 16, 12, 28, 28, 12]\nclass = minmax", fillcolor="#ffffff"] ;
606 -> 607 ;
608 [label="gini = 0.736\nsamples = 48\nvalue = [0, 8, 4, 16, 16, 4]\nclass = minmax", fillcolor="#ffffff"] ;
607 -> 608 ;
609 [label="gini = 0.792\nsamples = 48\nvalue = [0, 8, 8, 12, 12, 8]\nclass = minmax", fillcolor="#ffffff"] ;
607 -> 609 ;
610 [label="nbproc <= 4.5\ngini = 0.76\nsamples = 40\nvalue = [8, 0, 4, 12, 12, 4]\nclass = minmax", fillcolor="#ffffff"] ;
606 -> 610 ;
611 [label="gini = 0.781\nsamples = 32\nvalue = [8, 0, 4, 8, 8, 4]\nclass = mean", fillcolor="#ffffff"] ;
610 -> 611 ;
612 [label="gini = 0.5\nsamples = 8\nvalue = [0, 0, 0, 4, 4, 0]\nclass = minmax", fillcolor="#ffffff"] ;
610 -> 612 ;
613 [label="nbproc <= 4.5\ngini = 0.825\nsamples = 76\nvalue = [12, 8, 16, 12, 12, 16]\nclass = maxmax", fillcolor="#ffffff"] ;
605 -> 613 ;
614 [label="gini = 0.769\nsamples = 52\nvalue = [4, 8, 16, 4, 4, 16]\nclass = maxmax", fillcolor="#ffffff"] ;
613 -> 614 ;
615 [label="gini = 0.667\nsamples = 24\nvalue = [8, 0, 0, 8, 8, 0]\nclass = mean", fillcolor="#ffffff"] ;
613 -> 615 ;
616 [label="sdComm <= 0.2\ngini = 0.792\nsamples = 130\nvalue = [22, 12, 36, 12, 12, 36]\nclass = maxmax", fillcolor="#ffffff"] ;
604 -> 616 ;
617 [label="nbproc <= 4.5\ngini = 0.755\nsamples = 90\nvalue = [18, 8, 28, 4, 4, 28]\nclass = maxmax", fillcolor="#ffffff"] ;
616 -> 617 ;
618 [label="sdComm <= 0.065\ngini = 0.816\nsamples = 42\nvalue = [10, 8, 8, 4, 4, 8]\nclass = mean", fillcolor="#fdf8f3"] ;
617 -> 618 ;
619 [label="sdComm <= 0.02\ngini = 0.66\nsamples = 20\nvalue = [2, 2, 8, 0, 0, 8]\nclass = maxmax", fillcolor="#ffffff"] ;
618 -> 619 ;
620 [label="gini = 0.64\nsamples = 10\nvalue = [2, 0, 4, 0, 0, 4]\nclass = maxmax", fillcolor="#ffffff"] ;
619 -> 620 ;
621 [label="gini = 0.64\nsamples = 10\nvalue = [0, 2, 4, 0, 0, 4]\nclass = maxmax", fillcolor="#ffffff"] ;
619 -> 621 ;
622 [label="CCR <= 0.55\ngini = 0.727\nsamples = 22\nvalue = [8, 6, 0, 4, 4, 0]\nclass = mean", fillcolor="#fcefe6"] ;
618 -> 622 ;
623 [label="gini = 0.32\nsamples = 10\nvalue = [8, 2, 0, 0, 0, 0]\nclass = mean", fillcolor="#eca06a"] ;
622 -> 623 ;
624 [label="gini = 0.667\nsamples = 12\nvalue = [0, 4, 0, 4, 4, 0]\nclass = median", fillcolor="#ffffff"] ;
622 -> 624 ;
625 [label="CCR <= 0.55\ngini = 0.625\nsamples = 48\nvalue = [8, 0, 20, 0, 0, 20]\nclass = maxmax", fillcolor="#ffffff"] ;
617 -> 625 ;
626 [label="gini = 0.5\nsamples = 16\nvalue = [0, 0, 8, 0, 0, 8]\nclass = maxmax", fillcolor="#ffffff"] ;
625 -> 626 ;
627 [label="gini = 0.656\nsamples = 32\nvalue = [8, 0, 12, 0, 0, 12]\nclass = maxmax", fillcolor="#ffffff"] ;
625 -> 627 ;
628 [label="nbproc <= 4.5\ngini = 0.82\nsamples = 40\nvalue = [4, 4, 8, 8, 8, 8]\nclass = maxmax", fillcolor="#ffffff"] ;
616 -> 628 ;
629 [label="gini = 0.722\nsamples = 24\nvalue = [4, 4, 8, 0, 0, 8]\nclass = maxmax", fillcolor="#ffffff"] ;
628 -> 629 ;
630 [label="gini = 0.5\nsamples = 16\nvalue = [0, 0, 0, 8, 8, 0]\nclass = minmax", fillcolor="#ffffff"] ;
628 -> 630 ;
631 [label="sdComm <= 0.2\ngini = 0.827\nsamples = 642\nvalue = [132, 106, 80, 122, 122, 80]\nclass = mean", fillcolor="#fefdfb"] ;
603 -> 631 ;
632 [label="sdComp <= 0.65\ngini = 0.696\nsamples = 110\nvalue = [40, 6, 0, 32, 32, 0]\nclass = mean", fillcolor="#fcf2eb"] ;
631 -> 632 ;
633 [label="nbproc <= 4.5\ngini = 0.609\nsamples = 68\nvalue = [36, 0, 0, 16, 16, 0]\nclass = mean", fillcolor="#f5cfb3"] ;
632 -> 633 ;
634 [label="gini = 0.66\nsamples = 40\nvalue = [16, 0, 0, 12, 12, 0]\nclass = mean", fillcolor="#fbede3"] ;
633 -> 634 ;
635 [label="gini = 0.449\nsamples = 28\nvalue = [20, 0, 0, 4, 4, 0]\nclass = mean", fillcolor="#eeab7b"] ;
633 -> 635 ;
636 [label="nbproc <= 4.5\ngini = 0.68\nsamples = 42\nvalue = [4, 6, 0, 16, 16, 0]\nclass = minmax", fillcolor="#ffffff"] ;
632 -> 636 ;
637 [label="gini = 0.658\nsamples = 30\nvalue = [4, 2, 0, 12, 12, 0]\nclass = minmax", fillcolor="#ffffff"] ;
636 -> 637 ;
638 [label="gini = 0.667\nsamples = 12\nvalue = [0, 4, 0, 4, 4, 0]\nclass = median", fillcolor="#ffffff"] ;
636 -> 638 ;
639 [label="sdComm <= 0.65\ngini = 0.832\nsamples = 532\nvalue = [92, 100, 80, 90, 90, 80]\nclass = median", fillcolor="#fdfffb"] ;
631 -> 639 ;
640 [label="sdComp <= 0.65\ngini = 0.609\nsamples = 34\nvalue = [0, 18, 0, 8, 8, 0]\nclass = median", fillcolor="#d9f5b3"] ;
639 -> 640 ;
641 [label="gini = 0.0\nsamples = 14\nvalue = [0, 14, 0, 0, 0, 0]\nclass = median", fillcolor="#9de539"] ;
640 -> 641 ;
642 [label="nbproc <= 4.5\ngini = 0.64\nsamples = 20\nvalue = [0, 4, 0, 8, 8, 0]\nclass = minmax", fillcolor="#ffffff"] ;
640 -> 642 ;
643 [label="gini = 0.656\nsamples = 16\nvalue = [0, 4, 0, 6, 6, 0]\nclass = minmax", fillcolor="#ffffff"] ;
642 -> 643 ;
644 [label="gini = 0.5\nsamples = 4\nvalue = [0, 0, 0, 2, 2, 0]\nclass = minmax", fillcolor="#ffffff"] ;
642 -> 644 ;
645 [label="sdComm <= 2.0\ngini = 0.833\nsamples = 498\nvalue = [92, 82, 80, 82, 82, 80]\nclass = mean", fillcolor="#fefcfa"] ;
639 -> 645 ;
646 [label="sdComp <= 2.0\ngini = 0.811\nsamples = 94\nvalue = [20, 10, 22, 10, 10, 22]\nclass = maxmax", fillcolor="#ffffff"] ;
645 -> 646 ;
647 [label="sdComp <= 0.65\ngini = 0.822\nsamples = 44\nvalue = [6, 6, 6, 10, 10, 6]\nclass = minmax", fillcolor="#ffffff"] ;
646 -> 647 ;
648 [label="gini = 0.722\nsamples = 12\nvalue = [0, 0, 2, 4, 4, 2]\nclass = minmax", fillcolor="#ffffff"] ;
647 -> 648 ;
649 [label="CCR <= 5.5\ngini = 0.828\nsamples = 32\nvalue = [6, 6, 4, 6, 6, 4]\nclass = mean", fillcolor="#ffffff"] ;
647 -> 649 ;
650 [label="gini = 0.5\nsamples = 4\nvalue = [2, 2, 0, 0, 0, 0]\nclass = mean", fillcolor="#ffffff"] ;
649 -> 650 ;
651 [label="gini = 0.827\nsamples = 28\nvalue = [4, 4, 4, 6, 6, 4]\nclass = minmax", fillcolor="#ffffff"] ;
649 -> 651 ;
652 [label="sdComp <= 6.5\ngini = 0.71\nsamples = 50\nvalue = [14, 4, 16, 0, 0, 16]\nclass = maxmax", fillcolor="#ffffff"] ;
646 -> 652 ;
653 [label="gini = 0.722\nsamples = 24\nvalue = [4, 4, 8, 0, 0, 8]\nclass = maxmax", fillcolor="#ffffff"] ;
652 -> 653 ;
654 [label="nbproc <= 4.5\ngini = 0.663\nsamples = 26\nvalue = [10, 0, 8, 0, 0, 8]\nclass = mean", fillcolor="#fcf1e9"] ;
652 -> 654 ;
655 [label="gini = 0.656\nsamples = 16\nvalue = [4, 0, 6, 0, 0, 6]\nclass = maxmax", fillcolor="#ffffff"] ;
654 -> 655 ;
656 [label="gini = 0.56\nsamples = 10\nvalue = [6, 0, 2, 0, 0, 2]\nclass = mean", fillcolor="#f2c09c"] ;
654 -> 656 ;
657 [label="sdComp <= 6.5\ngini = 0.832\nsamples = 404\nvalue = [72, 72, 58, 72, 72, 58]\nclass = mean", fillcolor="#ffffff"] ;
645 -> 657 ;
658 [label="sdComp <= 2.0\ngini = 0.833\nsamples = 292\nvalue = [50, 50, 46, 50, 50, 46]\nclass = mean", fillcolor="#ffffff"] ;
657 -> 658 ;
659 [label="nbproc <= 4.5\ngini = 0.833\nsamples = 192\nvalue = [32, 32, 32, 32, 32, 32]\nclass = mean", fillcolor="#ffffff"] ;
658 -> 659 ;
660 [label="sdComm <= 6.5\ngini = 0.833\nsamples = 96\nvalue = [16, 16, 16, 16, 16, 16]\nclass = mean", fillcolor="#ffffff"] ;
659 -> 660 ;
661 [label="gini = 0.833\nsamples = 24\nvalue = [4, 4, 4, 4, 4, 4]\nclass = mean", fillcolor="#ffffff"] ;
660 -> 661 ;
662 [label="gini = 0.833\nsamples = 72\nvalue = [12, 12, 12, 12, 12, 12]\nclass = mean", fillcolor="#ffffff"] ;
660 -> 662 ;
663 [label="sdComm <= 6.5\ngini = 0.833\nsamples = 96\nvalue = [16, 16, 16, 16, 16, 16]\nclass = mean", fillcolor="#ffffff"] ;
659 -> 663 ;
664 [label="gini = 0.833\nsamples = 48\nvalue = [8, 8, 8, 8, 8, 8]\nclass = mean", fillcolor="#ffffff"] ;
663 -> 664 ;
665 [label="gini = 0.833\nsamples = 48\nvalue = [8, 8, 8, 8, 8, 8]\nclass = mean", fillcolor="#ffffff"] ;
663 -> 665 ;
666 [label="nbproc <= 4.5\ngini = 0.831\nsamples = 100\nvalue = [18, 18, 14, 18, 18, 14]\nclass = mean", fillcolor="#ffffff"] ;
658 -> 666 ;
667 [label="sdComm <= 6.5\ngini = 0.828\nsamples = 64\nvalue = [12, 12, 8, 12, 12, 8]\nclass = mean", fillcolor="#ffffff"] ;
666 -> 667 ;
668 [label="gini = 0.833\nsamples = 24\nvalue = [4, 4, 4, 4, 4, 4]\nclass = mean", fillcolor="#ffffff"] ;
667 -> 668 ;
669 [label="gini = 0.82\nsamples = 40\nvalue = [8, 8, 4, 8, 8, 4]\nclass = mean", fillcolor="#ffffff"] ;
667 -> 669 ;
670 [label="gini = 0.833\nsamples = 36\nvalue = [6, 6, 6, 6, 6, 6]\nclass = mean", fillcolor="#ffffff"] ;
666 -> 670 ;
671 [label="nbproc <= 4.5\ngini = 0.823\nsamples = 112\nvalue = [22, 22, 12, 22, 22, 12]\nclass = mean", fillcolor="#ffffff"] ;
657 -> 671 ;
672 [label="sdComm <= 6.5\ngini = 0.814\nsamples = 64\nvalue = [10, 14, 6, 14, 14, 6]\nclass = median", fillcolor="#ffffff"] ;
671 -> 672 ;
673 [label="gini = 0.805\nsamples = 52\nvalue = [8, 12, 4, 12, 12, 4]\nclass = median", fillcolor="#ffffff"] ;
672 -> 673 ;
674 [label="gini = 0.833\nsamples = 12\nvalue = [2, 2, 2, 2, 2, 2]\nclass = mean", fillcolor="#ffffff"] ;
672 -> 674 ;
675 [label="sdComm <= 6.5\ngini = 0.823\nsamples = 48\nvalue = [12, 8, 6, 8, 8, 6]\nclass = mean", fillcolor="#fcf2eb"] ;
671 -> 675 ;
676 [label="gini = 0.82\nsamples = 32\nvalue = [8, 4, 6, 4, 4, 6]\nclass = mean", fillcolor="#fdf5f0"] ;
675 -> 676 ;
677 [label="gini = 0.75\nsamples = 16\nvalue = [4, 4, 0, 4, 4, 0]\nclass = mean", fillcolor="#ffffff"] ;
675 -> 677 ;
678 [label="sdComm <= 0.065\ngini = 0.831\nsamples = 1628\nvalue = [264, 252, 242, 314, 314, 242]\nclass = minmax", fillcolor="#ffffff"] ;
88 -> 678 ;
679 [label="sdComm <= 0.02\ngini = 0.72\nsamples = 188\nvalue = [36, 20, 2, 64, 64, 2]\nclass = minmax", fillcolor="#ffffff"] ;
678 -> 679 ;
680 [label="sdComp <= 0.02\ngini = 0.757\nsamples = 114\nvalue = [28, 18, 2, 32, 32, 2]\nclass = minmax", fillcolor="#ffffff"] ;
679 -> 680 ;
681 [label="nbproc <= 4.5\ngini = 0.664\nsamples = 32\nvalue = [16, 4, 0, 6, 6, 0]\nclass = mean", fillcolor="#f5cfb3"] ;
680 -> 681 ;
682 [label="gini = 0.736\nsamples = 24\nvalue = [8, 4, 0, 6, 6, 0]\nclass = mean", fillcolor="#fcf1e9"] ;
681 -> 682 ;
683 [label="gini = 0.0\nsamples = 8\nvalue = [8, 0, 0, 0, 0, 0]\nclass = mean", fillcolor="#e58139"] ;
681 -> 683 ;
684 [label="nbproc <= 4.5\ngini = 0.747\nsamples = 82\nvalue = [12, 14, 2, 26, 26, 2]\nclass = minmax", fillcolor="#ffffff"] ;
680 -> 684 ;
685 [label="sdComp <= 0.065\ngini = 0.713\nsamples = 34\nvalue = [0, 6, 2, 12, 12, 2]\nclass = minmax", fillcolor="#ffffff"] ;
684 -> 685 ;
686 [label="gini = 0.612\nsamples = 28\nvalue = [0, 4, 0, 12, 12, 0]\nclass = minmax", fillcolor="#ffffff"] ;
685 -> 686 ;
687 [label="gini = 0.667\nsamples = 6\nvalue = [0, 2, 2, 0, 0, 2]\nclass = median", fillcolor="#ffffff"] ;
685 -> 687 ;
688 [label="sdComp <= 0.065\ngini = 0.74\nsamples = 48\nvalue = [12, 8, 0, 14, 14, 0]\nclass = minmax", fillcolor="#ffffff"] ;
684 -> 688 ;
689 [label="gini = 0.741\nsamples = 36\nvalue = [12, 8, 0, 8, 8, 0]\nclass = mean", fillcolor="#fbede3"] ;
688 -> 689 ;
690 [label="gini = 0.5\nsamples = 12\nvalue = [0, 0, 0, 6, 6, 0]\nclass = minmax", fillcolor="#ffffff"] ;
688 -> 690 ;
691 [label="nbproc <= 4.5\ngini = 0.614\nsamples = 74\nvalue = [8, 2, 0, 32, 32, 0]\nclass = minmax", fillcolor="#ffffff"] ;
679 -> 691 ;
692 [label="sdComp <= 0.055\ngini = 0.554\nsamples = 34\nvalue = [0, 2, 0, 16, 16, 0]\nclass = minmax", fillcolor="#ffffff"] ;
691 -> 692 ;
693 [label="gini = 0.5\nsamples = 32\nvalue = [0, 0, 0, 16, 16, 0]\nclass = minmax", fillcolor="#ffffff"] ;
692 -> 693 ;
694 [label="gini = 0.0\nsamples = 2\nvalue = [0, 2, 0, 0, 0, 0]\nclass = median", fillcolor="#9de539"] ;
692 -> 694 ;
695 [label="sdComp <= 0.02\ngini = 0.64\nsamples = 40\nvalue = [8, 0, 0, 16, 16, 0]\nclass = minmax", fillcolor="#ffffff"] ;
691 -> 695 ;
696 [label="gini = 0.625\nsamples = 16\nvalue = [8, 0, 0, 4, 4, 0]\nclass = mean", fillcolor="#f6d5bd"] ;
695 -> 696 ;
697 [label="sdComp <= 0.065\ngini = 0.5\nsamples = 24\nvalue = [0, 0, 0, 12, 12, 0]\nclass = minmax", fillcolor="#ffffff"] ;
695 -> 697 ;
698 [label="gini = 0.5\nsamples = 8\nvalue = [0, 0, 0, 4, 4, 0]\nclass = minmax", fillcolor="#ffffff"] ;
697 -> 698 ;
699 [label="gini = 0.5\nsamples = 16\nvalue = [0, 0, 0, 8, 8, 0]\nclass = minmax", fillcolor="#ffffff"] ;
697 -> 699 ;
700 [label="CCR <= 0.55\ngini = 0.833\nsamples = 1440\nvalue = [228, 232, 240, 250, 250, 240]\nclass = minmax", fillcolor="#ffffff"] ;
678 -> 700 ;
701 [label="sdComp <= 0.065\ngini = 0.722\nsamples = 72\nvalue = [0, 16, 24, 4, 4, 24]\nclass = maxmax", fillcolor="#ffffff"] ;
700 -> 701 ;
702 [label="nbproc <= 4.5\ngini = 0.711\nsamples = 44\nvalue = [0, 4, 16, 4, 4, 16]\nclass = maxmax", fillcolor="#ffffff"] ;
701 -> 702 ;
703 [label="sdComp <= 0.02\ngini = 0.8\nsamples = 20\nvalue = [0, 4, 4, 4, 4, 4]\nclass = median", fillcolor="#ffffff"] ;
702 -> 703 ;
704 [label="gini = 0.5\nsamples = 8\nvalue = [0, 0, 4, 0, 0, 4]\nclass = maxmax", fillcolor="#ffffff"] ;
703 -> 704 ;
705 [label="gini = 0.667\nsamples = 12\nvalue = [0, 4, 0, 4, 4, 0]\nclass = median", fillcolor="#ffffff"] ;
703 -> 705 ;
706 [label="gini = 0.5\nsamples = 24\nvalue = [0, 0, 12, 0, 0, 12]\nclass = maxmax", fillcolor="#ffffff"] ;
702 -> 706 ;
707 [label="nbproc <= 4.5\ngini = 0.653\nsamples = 28\nvalue = [0, 12, 8, 0, 0, 8]\nclass = median", fillcolor="#ebfad7"] ;
701 -> 707 ;
708 [label="gini = 0.5\nsamples = 16\nvalue = [0, 0, 8, 0, 0, 8]\nclass = maxmax", fillcolor="#ffffff"] ;
707 -> 708 ;
709 [label="gini = 0.0\nsamples = 12\nvalue = [0, 12, 0, 0, 0, 0]\nclass = median", fillcolor="#9de539"] ;
707 -> 709 ;
710 [label="sdComp <= 0.65\ngini = 0.833\nsamples = 1368\nvalue = [228, 216, 216, 246, 246, 216]\nclass = minmax", fillcolor="#ffffff"] ;
700 -> 710 ;
711 [label="sdComp <= 0.2\ngini = 0.755\nsamples = 108\nvalue = [20, 4, 8, 34, 34, 8]\nclass = minmax", fillcolor="#ffffff"] ;
710 -> 711 ;
712 [label="nbproc <= 4.5\ngini = 0.72\nsamples = 20\nvalue = [8, 4, 0, 4, 4, 0]\nclass = mean", fillcolor="#f8e0ce"] ;
711 -> 712 ;
713 [label="sdComm <= 0.65\ngini = 0.667\nsamples = 12\nvalue = [0, 4, 0, 4, 4, 0]\nclass = median", fillcolor="#ffffff"] ;
712 -> 713 ;
714 [label="gini = 0.0\nsamples = 4\nvalue = [0, 4, 0, 0, 0, 0]\nclass = median", fillcolor="#9de539"] ;
713 -> 714 ;
715 [label="gini = 0.5\nsamples = 8\nvalue = [0, 0, 0, 4, 4, 0]\nclass = minmax", fillcolor="#ffffff"] ;
713 -> 715 ;
716 [label="gini = 0.0\nsamples = 8\nvalue = [8, 0, 0, 0, 0, 0]\nclass = mean", fillcolor="#e58139"] ;
712 -> 716 ;
717 [label="sdComm <= 0.2\ngini = 0.732\nsamples = 88\nvalue = [12, 0, 8, 30, 30, 8]\nclass = minmax", fillcolor="#ffffff"] ;
711 -> 717 ;
718 [label="nbproc <= 4.5\ngini = 0.661\nsamples = 44\nvalue = [12, 0, 0, 16, 16, 0]\nclass = minmax", fillcolor="#ffffff"] ;
717 -> 718 ;
719 [label="gini = 0.653\nsamples = 28\nvalue = [12, 0, 0, 8, 8, 0]\nclass = mean", fillcolor="#fae6d7"] ;
718 -> 719 ;
720 [label="gini = 0.5\nsamples = 16\nvalue = [0, 0, 0, 8, 8, 0]\nclass = minmax", fillcolor="#ffffff"] ;
718 -> 720 ;
721 [label="nbproc <= 4.5\ngini = 0.731\nsamples = 44\nvalue = [0, 0, 8, 14, 14, 8]\nclass = minmax", fillcolor="#ffffff"] ;
717 -> 721 ;
722 [label="gini = 0.747\nsamples = 36\nvalue = [0, 0, 8, 10, 10, 8]\nclass = minmax", fillcolor="#ffffff"] ;
721 -> 722 ;
723 [label="gini = 0.5\nsamples = 8\nvalue = [0, 0, 0, 4, 4, 0]\nclass = minmax", fillcolor="#ffffff"] ;
721 -> 723 ;
724 [label="sdComm <= 0.2\ngini = 0.833\nsamples = 1260\nvalue = [208, 212, 208, 212, 212, 208]\nclass = median", fillcolor="#ffffff"] ;
710 -> 724 ;
725 [label="nbproc <= 4.5\ngini = 0.776\nsamples = 28\nvalue = [0, 4, 8, 4, 4, 8]\nclass = maxmax", fillcolor="#ffffff"] ;
724 -> 725 ;
726 [label="gini = 0.64\nsamples = 20\nvalue = [0, 4, 8, 0, 0, 8]\nclass = maxmax", fillcolor="#ffffff"] ;
725 -> 726 ;
727 [label="gini = 0.5\nsamples = 8\nvalue = [0, 0, 0, 4, 4, 0]\nclass = minmax", fillcolor="#ffffff"] ;
725 -> 727 ;
728 [label="sdComm <= 0.65\ngini = 0.833\nsamples = 1232\nvalue = [208, 208, 200, 208, 208, 200]\nclass = mean", fillcolor="#ffffff"] ;
724 -> 728 ;
729 [label="gini = 0.5\nsamples = 4\nvalue = [0, 0, 0, 2, 2, 0]\nclass = minmax", fillcolor="#ffffff"] ;
728 -> 729 ;
730 [label="CCR <= 5.5\ngini = 0.833\nsamples = 1228\nvalue = [208, 208, 200, 206, 206, 200]\nclass = mean", fillcolor="#ffffff"] ;
728 -> 730 ;
731 [label="gini = 0.0\nsamples = 2\nvalue = [2, 0, 0, 0, 0, 0]\nclass = mean", fillcolor="#e58139"] ;
730 -> 731 ;
732 [label="sdComm <= 6.5\ngini = 0.833\nsamples = 1226\nvalue = [206, 208, 200, 206, 206, 200]\nclass = median", fillcolor="#ffffff"] ;
730 -> 732 ;
733 [label="nbproc <= 4.5\ngini = 0.833\nsamples = 894\nvalue = [154, 152, 140, 154, 154, 140]\nclass = mean", fillcolor="#ffffff"] ;
732 -> 733 ;
734 [label="sdComp <= 2.0\ngini = 0.832\nsamples = 326\nvalue = [56, 54, 48, 60, 60, 48]\nclass = minmax", fillcolor="#ffffff"] ;
733 -> 734 ;
735 [label="sdComm <= 2.0\ngini = 0.827\nsamples = 98\nvalue = [20, 18, 12, 18, 18, 12]\nclass = mean", fillcolor="#fefcfa"] ;
734 -> 735 ;
736 [label="gini = 0.822\nsamples = 74\nvalue = [16, 14, 8, 14, 14, 8]\nclass = mean", fillcolor="#fefbf8"] ;
735 -> 736 ;
737 [label="gini = 0.833\nsamples = 24\nvalue = [4, 4, 4, 4, 4, 4]\nclass = mean", fillcolor="#ffffff"] ;
735 -> 737 ;
738 [label="sdComm <= 2.0\ngini = 0.832\nsamples = 228\nvalue = [36, 36, 36, 42, 42, 36]\nclass = minmax", fillcolor="#ffffff"] ;
734 -> 738 ;
739 [label="gini = 0.833\nsamples = 172\nvalue = [28, 28, 28, 30, 30, 28]\nclass = minmax", fillcolor="#ffffff"] ;
738 -> 739 ;
740 [label="sdComp <= 6.5\ngini = 0.827\nsamples = 56\nvalue = [8, 8, 8, 12, 12, 8]\nclass = minmax", fillcolor="#ffffff"] ;
738 -> 740 ;
741 [label="gini = 0.833\nsamples = 48\nvalue = [8, 8, 8, 8, 8, 8]\nclass = mean", fillcolor="#ffffff"] ;
740 -> 741 ;
742 [label="gini = 0.5\nsamples = 8\nvalue = [0, 0, 0, 4, 4, 0]\nclass = minmax", fillcolor="#ffffff"] ;
740 -> 742 ;
743 [label="sdComp <= 6.5\ngini = 0.833\nsamples = 568\nvalue = [98, 98, 92, 94, 94, 92]\nclass = mean", fillcolor="#ffffff"] ;
733 -> 743 ;
744 [label="sdComm <= 2.0\ngini = 0.833\nsamples = 496\nvalue = [82, 82, 84, 82, 82, 84]\nclass = maxmax", fillcolor="#ffffff"] ;
743 -> 744 ;
745 [label="gini = 0.833\nsamples = 196\nvalue = [32, 32, 34, 32, 32, 34]\nclass = maxmax", fillcolor="#ffffff"] ;
744 -> 745 ;
746 [label="sdComp <= 2.0\ngini = 0.833\nsamples = 300\nvalue = [50, 50, 50, 50, 50, 50]\nclass = mean", fillcolor="#ffffff"] ;
744 -> 746 ;
747 [label="gini = 0.833\nsamples = 192\nvalue = [32, 32, 32, 32, 32, 32]\nclass = mean", fillcolor="#ffffff"] ;
746 -> 747 ;
748 [label="gini = 0.833\nsamples = 108\nvalue = [18, 18, 18, 18, 18, 18]\nclass = mean", fillcolor="#ffffff"] ;
746 -> 748 ;
749 [label="sdComm <= 2.0\ngini = 0.821\nsamples = 72\nvalue = [16, 16, 8, 12, 12, 8]\nclass = mean", fillcolor="#ffffff"] ;
743 -> 749 ;
750 [label="gini = 0.75\nsamples = 16\nvalue = [4, 4, 4, 0, 0, 4]\nclass = mean", fillcolor="#ffffff"] ;
749 -> 750 ;
751 [label="gini = 0.806\nsamples = 56\nvalue = [12, 12, 4, 12, 12, 4]\nclass = mean", fillcolor="#ffffff"] ;
749 -> 751 ;
752 [label="sdComp <= 6.5\ngini = 0.833\nsamples = 332\nvalue = [52, 56, 60, 52, 52, 60]\nclass = maxmax", fillcolor="#ffffff"] ;
732 -> 752 ;
753 [label="nbproc <= 4.5\ngini = 0.833\nsamples = 320\nvalue = [52, 52, 56, 52, 52, 56]\nclass = maxmax", fillcolor="#ffffff"] ;
752 -> 753 ;
754 [label="gini = 0.827\nsamples = 56\nvalue = [8, 8, 12, 8, 8, 12]\nclass = maxmax", fillcolor="#ffffff"] ;
753 -> 754 ;
