digraph Tree {
node [shape=box, style="filled", color="black"] ;
0 [label="graphDepth <= 3.5\ngini = 0.5\nsamples = 26338\nvalue = [13161, 13177]\nclass = True", fillcolor="#ffffff"] ;
1 [label="sdComp <= 0.65\ngini = 0.5\nsamples = 3413\nvalue = [1700, 1713]\nclass = True", fillcolor="#fdfeff"] ;
0 -> 1 [labeldistance=2.5, labelangle=45, headlabel="True"] ;
2 [label="nbproc <= 4.5\ngini = 0.5\nsamples = 1953\nvalue = [976, 977]\nclass = True", fillcolor="#ffffff"] ;
1 -> 2 ;
3 [label="sdComm <= 0.065\ngini = 0.5\nsamples = 445\nvalue = [222, 223]\nclass = True", fillcolor="#feffff"] ;
2 -> 3 ;
4 [label="(...)", fillcolor="#C0C0C0"] ;
3 -> 4 ;
11 [label="(...)", fillcolor="#C0C0C0"] ;
3 -> 11 ;
28 [label="CCR <= 0.55\ngini = 0.5\nsamples = 1508\nvalue = [754, 754]\nclass = False", fillcolor="#ffffff"] ;
2 -> 28 ;
29 [label="(...)", fillcolor="#C0C0C0"] ;
28 -> 29 ;
46 [label="(...)", fillcolor="#C0C0C0"] ;
28 -> 46 ;
55 [label="sdComm <= 0.2\ngini = 0.5\nsamples = 1460\nvalue = [724, 736]\nclass = True", fillcolor="#fcfdff"] ;
1 -> 55 ;
56 [label="nbproc <= 4.5\ngini = 0.499\nsamples = 260\nvalue = [124, 136]\nclass = True", fillcolor="#eef6fd"] ;
55 -> 56 ;
57 [label="(...)", fillcolor="#C0C0C0"] ;
56 -> 57 ;
58 [label="(...)", fillcolor="#C0C0C0"] ;
56 -> 58 ;
59 [label="sdComm <= 0.65\ngini = 0.5\nsamples = 1200\nvalue = [600, 600]\nclass = False", fillcolor="#ffffff"] ;
55 -> 59 ;
60 [label="(...)", fillcolor="#C0C0C0"] ;
59 -> 60 ;
63 [label="(...)", fillcolor="#C0C0C0"] ;
59 -> 63 ;
90 [label="nbproc <= 4.5\ngini = 0.5\nsamples = 22925\nvalue = [11461, 11464]\nclass = True", fillcolor="#ffffff"] ;
0 -> 90 [labeldistance=2.5, labelangle=-45, headlabel="False"] ;
91 [label="sdComm <= 0.65\ngini = 0.5\nsamples = 9611\nvalue = [4804, 4807]\nclass = True", fillcolor="#ffffff"] ;
90 -> 91 ;
92 [label="graphDepth <= 6.5\ngini = 0.5\nsamples = 4714\nvalue = [2357, 2357]\nclass = False", fillcolor="#ffffff"] ;
91 -> 92 ;
93 [label="(...)", fillcolor="#C0C0C0"] ;
92 -> 93 ;
146 [label="(...)", fillcolor="#C0C0C0"] ;
92 -> 146 ;
291 [label="CCR <= 5.5\ngini = 0.5\nsamples = 4897\nvalue = [2447, 2450]\nclass = True", fillcolor="#ffffff"] ;
91 -> 291 ;
292 [label="(...)", fillcolor="#C0C0C0"] ;
291 -> 292 ;
325 [label="(...)", fillcolor="#C0C0C0"] ;
291 -> 325 ;
438 [label="graphSize <= 22.5\ngini = 0.5\nsamples = 13314\nvalue = [6657, 6657]\nclass = False", fillcolor="#ffffff"] ;
90 -> 438 ;
439 [label="CCR <= 0.55\ngini = 0.5\nsamples = 6444\nvalue = [3222, 3222]\nclass = False", fillcolor="#ffffff"] ;
438 -> 439 ;
440 [label="(...)", fillcolor="#C0C0C0"] ;
439 -> 440 ;
457 [label="(...)", fillcolor="#C0C0C0"] ;
439 -> 457 ;
490 [label="sdComm <= 0.02\ngini = 0.5\nsamples = 6870\nvalue = [3435, 3435]\nclass = False", fillcolor="#ffffff"] ;
438 -> 490 ;
491 [label="(...)", fillcolor="#C0C0C0"] ;
490 -> 491 ;
524 [label="(...)", fillcolor="#C0C0C0"] ;
490 -> 524 ;
}