digraph Tree {
node [shape=box, style="filled", color="black"] ;
0 [label="CCR <= 5.5\ngini = 0.628\nsamples = 7849\nvalue = [1358, 3182, 3309]\nclass = None", fillcolor="#fcfafe"] ;
1 [label="sdComp <= 0.2\ngini = 0.44\nsamples = 3867\nvalue = [956, 2726, 185]\nclass = DCP", fillcolor="#87efb2"] ;
0 -> 1 [labeldistance=2.5, labelangle=45, headlabel="True"] ;
2 [label="sdComm <= 0.2\ngini = 0.477\nsamples = 3035\nvalue = [884, 2004, 147]\nclass = DCP", fillcolor="#98f1bd"] ;
1 -> 2 ;
3 [label="graphDepth <= 13.5\ngini = 0.437\nsamples = 2716\nvalue = [730, 1900, 86]\nclass = DCP", fillcolor="#8af0b5"] ;
2 -> 3 ;
4 [label="graphDepth <= 3.5\ngini = 0.489\nsamples = 2034\nvalue = [652, 1296, 86]\nclass = DCP", fillcolor="#a3f3c4"] ;
3 -> 4 ;
5 [label="sdComp <= 0.02\ngini = 0.566\nsamples = 378\nvalue = [172, 178, 28]\nclass = DCP", fillcolor="#f9fefb"] ;
4 -> 5 ;
6 [label="sdComm <= 0.065\ngini = 0.531\nsamples = 32\nvalue = [8, 20, 4]\nclass = DCP", fillcolor="#9cf2c0"] ;
5 -> 6 ;
7 [label="nbproc <= 4.5\ngini = 0.43\nsamples = 22\nvalue = [4, 16, 2]\nclass = DCP", fillcolor="#7beeab"] ;
6 -> 7 ;
8 [label="sdComm <= 0.02\ngini = 0.571\nsamples = 14\nvalue = [4, 8, 2]\nclass = DCP", fillcolor="#b0f5cd"] ;
7 -> 8 ;
9 [label="gini = 0.625\nsamples = 8\nvalue = [2, 4, 2]\nclass = DCP", fillcolor="#bdf6d5"] ;
8 -> 9 ;
10 [label="gini = 0.444\nsamples = 6\nvalue = [2, 4, 0]\nclass = DCP", fillcolor="#9cf2c0"] ;
8 -> 10 ;
11 [label="gini = 0.0\nsamples = 8\nvalue = [0, 8, 0]\nclass = DCP", fillcolor="#39e581"] ;
7 -> 11 ;
12 [label="nbproc <= 4.5\ngini = 0.64\nsamples = 10\nvalue = [4, 4, 2]\nclass = DLS/DC", fillcolor="#ffffff"] ;
6 -> 12 ;
13 [label="gini = 0.0\nsamples = 2\nvalue = [0, 0, 2]\nclass = None", fillcolor="#8139e5"] ;
12 -> 13 ;
14 [label="gini = 0.5\nsamples = 8\nvalue = [4, 4, 0]\nclass = DLS/DC", fillcolor="#ffffff"] ;
12 -> 14 ;
15 [label="sdComm <= 0.065\ngini = 0.562\nsamples = 346\nvalue = [164, 158, 24]\nclass = DLS/DC", fillcolor="#fefbf9"] ;
5 -> 15 ;
16 [label="nbproc <= 4.5\ngini = 0.52\nsamples = 190\nvalue = [94, 92, 4]\nclass = DLS/DC", fillcolor="#fefcfb"] ;
15 -> 16 ;
17 [label="sdComp <= 0.065\ngini = 0.574\nsamples = 44\nvalue = [22, 18, 4]\nclass = DLS/DC", fillcolor="#fbece1"] ;
16 -> 17 ;
18 [label="gini = 0.444\nsamples = 6\nvalue = [4, 2, 0]\nclass = DLS/DC", fillcolor="#f2c09c"] ;
17 -> 18 ;
19 [label="sdComm <= 0.02\ngini = 0.587\nsamples = 38\nvalue = [18, 16, 4]\nclass = DLS/DC", fillcolor="#fdf4ed"] ;
17 -> 19 ;
20 [label="gini = 0.612\nsamples = 28\nvalue = [12, 12, 4]\nclass = DLS/DC", fillcolor="#ffffff"] ;
19 -> 20 ;
21 [label="gini = 0.48\nsamples = 10\nvalue = [6, 4, 0]\nclass = DLS/DC", fillcolor="#f6d5bd"] ;
19 -> 21 ;
22 [label="sdComm <= 0.02\ngini = 0.5\nsamples = 146\nvalue = [72, 74, 0]\nclass = DCP", fillcolor="#fafefc"] ;
16 -> 22 ;
23 [label="gini = 0.5\nsamples = 80\nvalue = [40, 40, 0]\nclass = DLS/DC", fillcolor="#ffffff"] ;
22 -> 23 ;
24 [label="sdComp <= 0.065\ngini = 0.5\nsamples = 66\nvalue = [32, 34, 0]\nclass = DCP", fillcolor="#f3fdf8"] ;
22 -> 24 ;
25 [label="gini = 0.5\nsamples = 16\nvalue = [8, 8, 0]\nclass = DLS/DC", fillcolor="#ffffff"] ;
24 -> 25 ;
26 [label="gini = 0.499\nsamples = 50\nvalue = [24, 26, 0]\nclass = DCP", fillcolor="#f0fdf5"] ;
24 -> 26 ;
27 [label="sdComp <= 0.065\ngini = 0.603\nsamples = 156\nvalue = [70, 66, 20]\nclass = DLS/DC", fillcolor="#fef9f6"] ;
15 -> 27 ;
28 [label="nbproc <= 4.5\ngini = 0.56\nsamples = 10\nvalue = [2, 6, 2]\nclass = DCP", fillcolor="#9cf2c0"] ;
27 -> 28 ;
29 [label="gini = 0.667\nsamples = 6\nvalue = [2, 2, 2]\nclass = DLS/DC", fillcolor="#ffffff"] ;
28 -> 29 ;
30 [label="gini = 0.0\nsamples = 4\nvalue = [0, 4, 0]\nclass = DCP", fillcolor="#39e581"] ;
28 -> 30 ;
31 [label="nbproc <= 4.5\ngini = 0.599\nsamples = 146\nvalue = [68, 60, 18]\nclass = DLS/DC", fillcolor="#fdf3ed"] ;
27 -> 31 ;
32 [label="gini = 0.5\nsamples = 8\nvalue = [4, 4, 0]\nclass = DLS/DC", fillcolor="#ffffff"] ;
31 -> 32 ;
33 [label="CCR <= 0.55\ngini = 0.603\nsamples = 138\nvalue = [64, 56, 18]\nclass = DLS/DC", fillcolor="#fcf3ec"] ;
31 -> 33 ;
34 [label="gini = 0.607\nsamples = 88\nvalue = [40, 36, 12]\nclass = DLS/DC", fillcolor="#fdf5f0"] ;
33 -> 34 ;
35 [label="gini = 0.595\nsamples = 50\nvalue = [24, 20, 6]\nclass = DLS/DC", fillcolor="#fceee5"] ;
33 -> 35 ;
36 [label="sdComp <= 0.02\ngini = 0.459\nsamples = 1656\nvalue = [480, 1118, 58]\nclass = DCP", fillcolor="#94f1bb"] ;
4 -> 36 ;
37 [label="nbproc <= 4.5\ngini = 0.462\nsamples = 282\nvalue = [38, 198, 46]\nclass = DCP", fillcolor="#7feeae"] ;
36 -> 37 ;
38 [label="graphSize <= 22.5\ngini = 0.632\nsamples = 116\nvalue = [22, 52, 42]\nclass = DCP", fillcolor="#e4fbee"] ;
37 -> 38 ;
39 [label="sdComm <= 0.065\ngini = 0.542\nsamples = 68\nvalue = [6, 22, 40]\nclass = None", fillcolor="#ceb2f5"] ;
38 -> 39 ;
40 [label="sdComm <= 0.02\ngini = 0.582\nsamples = 28\nvalue = [6, 6, 16]\nclass = None", fillcolor="#c6a5f3"] ;
39 -> 40 ;
41 [label="gini = 0.571\nsamples = 14\nvalue = [2, 4, 8]\nclass = None", fillcolor="#cdb0f5"] ;
40 -> 41 ;
42 [label="gini = 0.571\nsamples = 14\nvalue = [4, 2, 8]\nclass = None", fillcolor="#cdb0f5"] ;
40 -> 42 ;
43 [label="gini = 0.48\nsamples = 40\nvalue = [0, 16, 24]\nclass = None", fillcolor="#d5bdf6"] ;
39 -> 43 ;
44 [label="sdComm <= 0.02\ngini = 0.497\nsamples = 48\nvalue = [16, 30, 2]\nclass = DCP", fillcolor="#a8f4c8"] ;
38 -> 44 ;
45 [label="graphDepth <= 7.5\ngini = 0.494\nsamples = 18\nvalue = [10, 8, 0]\nclass = DLS/DC", fillcolor="#fae6d7"] ;
44 -> 45 ;
46 [label="gini = 0.0\nsamples = 2\nvalue = [0, 2, 0]\nclass = DCP", fillcolor="#39e581"] ;
45 -> 46 ;
47 [label="gini = 0.469\nsamples = 16\nvalue = [10, 6, 0]\nclass = DLS/DC", fillcolor="#f5cdb0"] ;
45 -> 47 ;
48 [label="graphDepth <= 9.0\ngini = 0.418\nsamples = 30\nvalue = [6, 22, 2]\nclass = DCP", fillcolor="#7beeab"] ;
44 -> 48 ;
49 [label="sdComm <= 0.065\ngini = 0.56\nsamples = 10\nvalue = [6, 2, 2]\nclass = DLS/DC", fillcolor="#f2c09c"] ;
48 -> 49 ;
50 [label="gini = 0.5\nsamples = 4\nvalue = [0, 2, 2]\nclass = DCP", fillcolor="#ffffff"] ;
49 -> 50 ;
51 [label="gini = 0.0\nsamples = 6\nvalue = [6, 0, 0]\nclass = DLS/DC", fillcolor="#e58139"] ;
49 -> 51 ;
52 [label="gini = 0.0\nsamples = 20\nvalue = [0, 20, 0]\nclass = DCP", fillcolor="#39e581"] ;
48 -> 52 ;
53 [label="sdComm <= 0.02\ngini = 0.217\nsamples = 166\nvalue = [16, 146, 4]\nclass = DCP", fillcolor="#53e892"] ;
37 -> 53 ;
54 [label="graphSize <= 22.5\ngini = 0.402\nsamples = 78\nvalue = [16, 58, 4]\nclass = DCP", fillcolor="#79edaa"] ;
53 -> 54 ;
55 [label="gini = 0.593\nsamples = 36\nvalue = [16, 16, 4]\nclass = DLS/DC", fillcolor="#ffffff"] ;
54 -> 55 ;
56 [label="gini = 0.0\nsamples = 42\nvalue = [0, 42, 0]\nclass = DCP", fillcolor="#39e581"] ;
54 -> 56 ;
57 [label="gini = 0.0\nsamples = 88\nvalue = [0, 88, 0]\nclass = DCP", fillcolor="#39e581"] ;
53 -> 57 ;
58 [label="sdComm <= 0.065\ngini = 0.448\nsamples = 1374\nvalue = [442, 920, 12]\nclass = DCP", fillcolor="#99f2be"] ;
36 -> 58 ;
59 [label="graphSize <= 22.5\ngini = 0.473\nsamples = 888\nvalue = [330, 554, 4]\nclass = DCP", fillcolor="#b0f5cc"] ;
58 -> 59 ;
60 [label="sdComm <= 0.02\ngini = 0.487\nsamples = 426\nvalue = [172, 252, 2]\nclass = DCP", fillcolor="#c1f7d7"] ;
59 -> 60 ;
61 [label="sdComp <= 0.065\ngini = 0.493\nsamples = 226\nvalue = [100, 126, 0]\nclass = DCP", fillcolor="#d6fae5"] ;
60 -> 61 ;
62 [label="gini = 0.499\nsamples = 84\nvalue = [44, 40, 0]\nclass = DLS/DC", fillcolor="#fdf4ed"] ;
61 -> 62 ;
63 [label="nbproc <= 4.5\ngini = 0.478\nsamples = 142\nvalue = [56, 86, 0]\nclass = DCP", fillcolor="#baf6d3"] ;
61 -> 63 ;
64 [label="gini = 0.48\nsamples = 50\nvalue = [20, 30, 0]\nclass = DCP", fillcolor="#bdf6d5"] ;
63 -> 64 ;
65 [label="gini = 0.476\nsamples = 92\nvalue = [36, 56, 0]\nclass = DCP", fillcolor="#b8f6d2"] ;
63 -> 65 ;
66 [label="nbproc <= 4.5\ngini = 0.473\nsamples = 200\nvalue = [72, 126, 2]\nclass = DCP", fillcolor="#abf4ca"] ;
60 -> 66 ;
67 [label="sdComp <= 0.065\ngini = 0.52\nsamples = 74\nvalue = [32, 40, 2]\nclass = DCP", fillcolor="#d9fae7"] ;
66 -> 67 ;
68 [label="gini = 0.593\nsamples = 18\nvalue = [8, 8, 2]\nclass = DLS/DC", fillcolor="#ffffff"] ;
67 -> 68 ;
69 [label="gini = 0.49\nsamples = 56\nvalue = [24, 32, 0]\nclass = DCP", fillcolor="#cef8e0"] ;
67 -> 69 ;
70 [label="sdComp <= 0.065\ngini = 0.433\nsamples = 126\nvalue = [40, 86, 0]\nclass = DCP", fillcolor="#95f1bc"] ;
66 -> 70 ;
71 [label="gini = 0.346\nsamples = 36\nvalue = [8, 28, 0]\nclass = DCP", fillcolor="#72eca5"] ;
70 -> 71 ;
72 [label="gini = 0.458\nsamples = 90\nvalue = [32, 58, 0]\nclass = DCP", fillcolor="#a6f3c7"] ;
70 -> 72 ;
73 [label="nbproc <= 4.5\ngini = 0.456\nsamples = 462\nvalue = [158, 302, 2]\nclass = DCP", fillcolor="#a1f3c3"] ;
59 -> 73 ;
74 [label="sdComm <= 0.02\ngini = 0.49\nsamples = 150\nvalue = [58, 90, 2]\nclass = DCP", fillcolor="#baf6d3"] ;
73 -> 74 ;
75 [label="sdComp <= 0.065\ngini = 0.515\nsamples = 96\nvalue = [42, 52, 2]\nclass = DCP", fillcolor="#dafae8"] ;
74 -> 75 ;
76 [label="graphDepth <= 6.5\ngini = 0.571\nsamples = 14\nvalue = [4, 8, 2]\nclass = DCP", fillcolor="#b0f5cd"] ;
75 -> 76 ;
77 [label="gini = 0.0\nsamples = 2\nvalue = [0, 0, 2]\nclass = None", fillcolor="#8139e5"] ;
76 -> 77 ;
78 [label="graphDepth <= 9.0\ngini = 0.444\nsamples = 12\nvalue = [4, 8, 0]\nclass = DCP", fillcolor="#9cf2c0"] ;
76 -> 78 ;
79 [label="gini = 0.0\nsamples = 4\nvalue = [0, 4, 0]\nclass = DCP", fillcolor="#39e581"] ;
78 -> 79 ;
80 [label="gini = 0.5\nsamples = 8\nvalue = [4, 4, 0]\nclass = DLS/DC", fillcolor="#ffffff"] ;
78 -> 80 ;
81 [label="graphSize <= 40.0\ngini = 0.497\nsamples = 82\nvalue = [38, 44, 0]\nclass = DCP", fillcolor="#e4fbee"] ;
75 -> 81 ;
82 [label="graphDepth <= 7.5\ngini = 0.496\nsamples = 70\nvalue = [32, 38, 0]\nclass = DCP", fillcolor="#e0fbeb"] ;
81 -> 82 ;
83 [label="gini = 0.497\nsamples = 26\nvalue = [12, 14, 0]\nclass = DCP", fillcolor="#e3fbed"] ;
82 -> 83 ;
84 [label="gini = 0.496\nsamples = 44\nvalue = [20, 24, 0]\nclass = DCP", fillcolor="#defbea"] ;
82 -> 84 ;
85 [label="gini = 0.5\nsamples = 12\nvalue = [6, 6, 0]\nclass = DLS/DC", fillcolor="#ffffff"] ;
81 -> 85 ;
86 [label="graphDepth <= 9.0\ngini = 0.417\nsamples = 54\nvalue = [16, 38, 0]\nclass = DCP", fillcolor="#8cf0b6"] ;
74 -> 86 ;
87 [label="sdComp <= 0.065\ngini = 0.494\nsamples = 18\nvalue = [8, 10, 0]\nclass = DCP", fillcolor="#d7fae6"] ;
86 -> 87 ;
88 [label="gini = 0.0\nsamples = 2\nvalue = [0, 2, 0]\nclass = DCP", fillcolor="#39e581"] ;
87 -> 88 ;
89 [label="graphSize <= 40.0\ngini = 0.5\nsamples = 16\nvalue = [8, 8, 0]\nclass = DLS/DC", fillcolor="#ffffff"] ;
87 -> 89 ;
90 [label="gini = 0.5\nsamples = 12\nvalue = [6, 6, 0]\nclass = DLS/DC", fillcolor="#ffffff"] ;
89 -> 90 ;
91 [label="gini = 0.5\nsamples = 4\nvalue = [2, 2, 0]\nclass = DLS/DC", fillcolor="#ffffff"] ;
89 -> 91 ;
92 [label="sdComp <= 0.065\ngini = 0.346\nsamples = 36\nvalue = [8, 28, 0]\nclass = DCP", fillcolor="#72eca5"] ;
86 -> 92 ;
93 [label="gini = 0.444\nsamples = 18\nvalue = [6, 12, 0]\nclass = DCP", fillcolor="#9cf2c0"] ;
92 -> 93 ;
94 [label="gini = 0.198\nsamples = 18\nvalue = [2, 16, 0]\nclass = DCP", fillcolor="#52e891"] ;
92 -> 94 ;
95 [label="graphSize <= 40.0\ngini = 0.436\nsamples = 312\nvalue = [100, 212, 0]\nclass = DCP", fillcolor="#96f1bc"] ;
73 -> 95 ;
96 [label="sdComp <= 0.065\ngini = 0.448\nsamples = 248\nvalue = [84, 164, 0]\nclass = DCP", fillcolor="#9ef2c2"] ;
95 -> 96 ;
97 [label="sdComm <= 0.02\ngini = 0.473\nsamples = 52\nvalue = [20, 32, 0]\nclass = DCP", fillcolor="#b5f5d0"] ;
96 -> 97 ;
98 [label="gini = 0.5\nsamples = 24\nvalue = [12, 12, 0]\nclass = DLS/DC", fillcolor="#ffffff"] ;
97 -> 98 ;
99 [label="graphDepth <= 7.5\ngini = 0.408\nsamples = 28\nvalue = [8, 20, 0]\nclass = DCP", fillcolor="#88efb3"] ;
97 -> 99 ;
100 [label="gini = 0.5\nsamples = 8\nvalue = [4, 4, 0]\nclass = DLS/DC", fillcolor="#ffffff"] ;
99 -> 100 ;
101 [label="gini = 0.32\nsamples = 20\nvalue = [4, 16, 0]\nclass = DCP", fillcolor="#6aeca0"] ;
99 -> 101 ;
102 [label="sdComm <= 0.02\ngini = 0.44\nsamples = 196\nvalue = [64, 132, 0]\nclass = DCP", fillcolor="#99f2be"] ;
96 -> 102 ;
103 [label="graphDepth <= 7.5\ngini = 0.408\nsamples = 84\nvalue = [24, 60, 0]\nclass = DCP", fillcolor="#88efb3"] ;
102 -> 103 ;
104 [label="gini = 0.426\nsamples = 26\nvalue = [8, 18, 0]\nclass = DCP", fillcolor="#91f1b9"] ;
103 -> 104 ;
105 [label="gini = 0.4\nsamples = 58\nvalue = [16, 42, 0]\nclass = DCP", fillcolor="#84efb1"] ;
103 -> 105 ;
106 [label="graphDepth <= 7.5\ngini = 0.459\nsamples = 112\nvalue = [40, 72, 0]\nclass = DCP", fillcolor="#a7f3c7"] ;
102 -> 106 ;
107 [label="gini = 0.397\nsamples = 44\nvalue = [12, 32, 0]\nclass = DCP", fillcolor="#83efb0"] ;
106 -> 107 ;
108 [label="gini = 0.484\nsamples = 68\nvalue = [28, 40, 0]\nclass = DCP", fillcolor="#c4f7d9"] ;
106 -> 108 ;
109 [label="sdComm <= 0.02\ngini = 0.375\nsamples = 64\nvalue = [16, 48, 0]\nclass = DCP", fillcolor="#7beeab"] ;
95 -> 109 ;
110 [label="sdComp <= 0.065\ngini = 0.231\nsamples = 30\nvalue = [4, 26, 0]\nclass = DCP", fillcolor="#57e994"] ;
109 -> 110 ;
111 [label="gini = 0.0\nsamples = 4\nvalue = [0, 4, 0]\nclass = DCP", fillcolor="#39e581"] ;
110 -> 111 ;
112 [label="gini = 0.26\nsamples = 26\nvalue = [4, 22, 0]\nclass = DCP", fillcolor="#5dea98"] ;
110 -> 112 ;
113 [label="sdComp <= 0.065\ngini = 0.457\nsamples = 34\nvalue = [12, 22, 0]\nclass = DCP", fillcolor="#a5f3c6"] ;
109 -> 113 ;
114 [label="gini = 0.49\nsamples = 14\nvalue = [6, 8, 0]\nclass = DCP", fillcolor="#cef8e0"] ;
113 -> 114 ;
115 [label="gini = 0.42\nsamples = 20\nvalue = [6, 14, 0]\nclass = DCP", fillcolor="#8ef0b7"] ;
113 -> 115 ;
116 [label="nbproc <= 4.5\ngini = 0.379\nsamples = 486\nvalue = [112, 366, 8]\nclass = DCP", fillcolor="#79eda9"] ;
58 -> 116 ;
117 [label="graphSize <= 22.5\ngini = 0.464\nsamples = 144\nvalue = [38, 98, 8]\nclass = DCP", fillcolor="#8ff0b8"] ;
116 -> 117 ;
118 [label="sdComp <= 0.065\ngini = 0.53\nsamples = 96\nvalue = [30, 58, 8]\nclass = DCP", fillcolor="#abf4ca"] ;
117 -> 118 ;
119 [label="gini = 0.625\nsamples = 32\nvalue = [8, 16, 8]\nclass = DCP", fillcolor="#bdf6d5"] ;
118 -> 119 ;
120 [label="CCR <= 0.55\ngini = 0.451\nsamples = 64\nvalue = [22, 42, 0]\nclass = DCP", fillcolor="#a1f3c3"] ;
118 -> 120 ;
121 [label="gini = 0.432\nsamples = 38\nvalue = [12, 26, 0]\nclass = DCP", fillcolor="#94f1bb"] ;
120 -> 121 ;
122 [label="gini = 0.473\nsamples = 26\nvalue = [10, 16, 0]\nclass = DCP", fillcolor="#b5f5d0"] ;
120 -> 122 ;
123 [label="graphDepth <= 9.0\ngini = 0.278\nsamples = 48\nvalue = [8, 40, 0]\nclass = DCP", fillcolor="#61ea9a"] ;
117 -> 123 ;
124 [label="sdComp <= 0.065\ngini = 0.198\nsamples = 18\nvalue = [2, 16, 0]\nclass = DCP", fillcolor="#52e891"] ;
123 -> 124 ;
125 [label="gini = 0.0\nsamples = 2\nvalue = [2, 0, 0]\nclass = DLS/DC", fillcolor="#e58139"] ;
124 -> 125 ;
126 [label="gini = 0.0\nsamples = 16\nvalue = [0, 16, 0]\nclass = DCP", fillcolor="#39e581"] ;
124 -> 126 ;
127 [label="sdComp <= 0.065\ngini = 0.32\nsamples = 30\nvalue = [6, 24, 0]\nclass = DCP", fillcolor="#6aeca0"] ;
123 -> 127 ;
128 [label="gini = 0.0\nsamples = 10\nvalue = [0, 10, 0]\nclass = DCP", fillcolor="#39e581"] ;
127 -> 128 ;
129 [label="CCR <= 0.55\ngini = 0.42\nsamples = 20\nvalue = [6, 14, 0]\nclass = DCP", fillcolor="#8ef0b7"] ;
127 -> 129 ;
130 [label="gini = 0.444\nsamples = 18\nvalue = [6, 12, 0]\nclass = DCP", fillcolor="#9cf2c0"] ;
129 -> 130 ;
131 [label="gini = 0.0\nsamples = 2\nvalue = [0, 2, 0]\nclass = DCP", fillcolor="#39e581"] ;
129 -> 131 ;
132 [label="graphSize <= 22.5\ngini = 0.339\nsamples = 342\nvalue = [74, 268, 0]\nclass = DCP", fillcolor="#70eca4"] ;
116 -> 132 ;
133 [label="sdComp <= 0.065\ngini = 0.249\nsamples = 192\nvalue = [28, 164, 0]\nclass = DCP", fillcolor="#5be997"] ;
132 -> 133 ;
134 [label="gini = 0.0\nsamples = 44\nvalue = [0, 44, 0]\nclass = DCP", fillcolor="#39e581"] ;
133 -> 134 ;
135 [label="CCR <= 0.55\ngini = 0.307\nsamples = 148\nvalue = [28, 120, 0]\nclass = DCP", fillcolor="#67eb9e"] ;
133 -> 135 ;
136 [label="gini = 0.334\nsamples = 132\nvalue = [28, 104, 0]\nclass = DCP", fillcolor="#6eeca3"] ;
135 -> 136 ;
137 [label="gini = 0.0\nsamples = 16\nvalue = [0, 16, 0]\nclass = DCP", fillcolor="#39e581"] ;
135 -> 137 ;
138 [label="CCR <= 0.55\ngini = 0.425\nsamples = 150\nvalue = [46, 104, 0]\nclass = DCP", fillcolor="#91f0b9"] ;
132 -> 138 ;
139 [label="graphDepth <= 9.0\ngini = 0.403\nsamples = 136\nvalue = [38, 98, 0]\nclass = DCP", fillcolor="#86efb2"] ;
138 -> 139 ;
140 [label="sdComp <= 0.065\ngini = 0.429\nsamples = 90\nvalue = [28, 62, 0]\nclass = DCP", fillcolor="#92f1ba"] ;
139 -> 140 ;
141 [label="graphSize <= 40.0\ngini = 0.298\nsamples = 22\nvalue = [4, 18, 0]\nclass = DCP", fillcolor="#65eb9d"] ;
140 -> 141 ;
142 [label="gini = 0.444\nsamples = 12\nvalue = [4, 8, 0]\nclass = DCP", fillcolor="#9cf2c0"] ;
141 -> 142 ;
143 [label="gini = 0.0\nsamples = 10\nvalue = [0, 10, 0]\nclass = DCP", fillcolor="#39e581"] ;
141 -> 143 ;
144 [label="graphSize <= 40.0\ngini = 0.457\nsamples = 68\nvalue = [24, 44, 0]\nclass = DCP", fillcolor="#a5f3c6"] ;
140 -> 144 ;
145 [label="gini = 0.444\nsamples = 36\nvalue = [12, 24, 0]\nclass = DCP", fillcolor="#9cf2c0"] ;
144 -> 145 ;
146 [label="gini = 0.469\nsamples = 32\nvalue = [12, 20, 0]\nclass = DCP", fillcolor="#b0f5cd"] ;
144 -> 146 ;
147 [label="sdComp <= 0.065\ngini = 0.34\nsamples = 46\nvalue = [10, 36, 0]\nclass = DCP", fillcolor="#70eca4"] ;
139 -> 147 ;
148 [label="gini = 0.463\nsamples = 22\nvalue = [8, 14, 0]\nclass = DCP", fillcolor="#aaf4c9"] ;
147 -> 148 ;
149 [label="gini = 0.153\nsamples = 24\nvalue = [2, 22, 0]\nclass = DCP", fillcolor="#4be78c"] ;
147 -> 149 ;
150 [label="graphSize <= 40.0\ngini = 0.49\nsamples = 14\nvalue = [8, 6, 0]\nclass = DLS/DC", fillcolor="#f8e0ce"] ;
138 -> 150 ;
151 [label="gini = 0.5\nsamples = 8\nvalue = [4, 4, 0]\nclass = DLS/DC", fillcolor="#ffffff"] ;
150 -> 151 ;
152 [label="gini = 0.444\nsamples = 6\nvalue = [4, 2, 0]\nclass = DLS/DC", fillcolor="#f2c09c"] ;
150 -> 152 ;
153 [label="nbproc <= 4.5\ngini = 0.203\nsamples = 682\nvalue = [78, 604, 0]\nclass = DCP", fillcolor="#53e891"] ;
3 -> 153 ;
154 [label="sdComm <= 0.065\ngini = 0.372\nsamples = 194\nvalue = [48, 146, 0]\nclass = DCP", fillcolor="#7aeeaa"] ;
153 -> 154 ;
155 [label="sdComp <= 0.065\ngini = 0.444\nsamples = 120\nvalue = [40, 80, 0]\nclass = DCP", fillcolor="#9cf2c0"] ;
154 -> 155 ;
156 [label="graphDepth <= 25.5\ngini = 0.471\nsamples = 58\nvalue = [22, 36, 0]\nclass = DCP", fillcolor="#b2f5ce"] ;
155 -> 156 ;
157 [label="sdComp <= 0.02\ngini = 0.444\nsamples = 24\nvalue = [8, 16, 0]\nclass = DCP", fillcolor="#9cf2c0"] ;
156 -> 157 ;
158 [label="gini = 0.0\nsamples = 4\nvalue = [0, 4, 0]\nclass = DCP", fillcolor="#39e581"] ;
157 -> 158 ;
159 [label="sdComm <= 0.02\ngini = 0.48\nsamples = 20\nvalue = [8, 12, 0]\nclass = DCP", fillcolor="#bdf6d5"] ;
157 -> 159 ;
160 [label="gini = 0.5\nsamples = 8\nvalue = [4, 4, 0]\nclass = DLS/DC", fillcolor="#ffffff"] ;
159 -> 160 ;
161 [label="gini = 0.444\nsamples = 12\nvalue = [4, 8, 0]\nclass = DCP", fillcolor="#9cf2c0"] ;
159 -> 161 ;
162 [label="sdComm <= 0.02\ngini = 0.484\nsamples = 34\nvalue = [14, 20, 0]\nclass = DCP", fillcolor="#c4f7d9"] ;
156 -> 162 ;
163 [label="sdComp <= 0.02\ngini = 0.408\nsamples = 14\nvalue = [4, 10, 0]\nclass = DCP", fillcolor="#88efb3"] ;
162 -> 163 ;
164 [label="gini = 0.5\nsamples = 8\nvalue = [4, 4, 0]\nclass = DLS/DC", fillcolor="#ffffff"] ;
163 -> 164 ;
165 [label="gini = 0.0\nsamples = 6\nvalue = [0, 6, 0]\nclass = DCP", fillcolor="#39e581"] ;
163 -> 165 ;
166 [label="sdComp <= 0.02\ngini = 0.5\nsamples = 20\nvalue = [10, 10, 0]\nclass = DLS/DC", fillcolor="#ffffff"] ;
162 -> 166 ;
167 [label="gini = 0.5\nsamples = 8\nvalue = [4, 4, 0]\nclass = DLS/DC", fillcolor="#ffffff"] ;
166 -> 167 ;
168 [label="gini = 0.5\nsamples = 12\nvalue = [6, 6, 0]\nclass = DLS/DC", fillcolor="#ffffff"] ;
166 -> 168 ;
169 [label="sdComm <= 0.02\ngini = 0.412\nsamples = 62\nvalue = [18, 44, 0]\nclass = DCP", fillcolor="#8af0b5"] ;
155 -> 169 ;
170 [label="graphSize <= 75.0\ngini = 0.48\nsamples = 30\nvalue = [12, 18, 0]\nclass = DCP", fillcolor="#bdf6d5"] ;
169 -> 170 ;
171 [label="gini = 0.5\nsamples = 12\nvalue = [6, 6, 0]\nclass = DLS/DC", fillcolor="#ffffff"] ;
170 -> 171 ;
172 [label="graphDepth <= 25.5\ngini = 0.444\nsamples = 18\nvalue = [6, 12, 0]\nclass = DCP", fillcolor="#9cf2c0"] ;
170 -> 172 ;
173 [label="gini = 0.444\nsamples = 6\nvalue = [2, 4, 0]\nclass = DCP", fillcolor="#9cf2c0"] ;
172 -> 173 ;
174 [label="gini = 0.444\nsamples = 12\nvalue = [4, 8, 0]\nclass = DCP", fillcolor="#9cf2c0"] ;
172 -> 174 ;
175 [label="graphSize <= 75.0\ngini = 0.305\nsamples = 32\nvalue = [6, 26, 0]\nclass = DCP", fillcolor="#67eb9e"] ;
169 -> 175 ;
176 [label="gini = 0.375\nsamples = 16\nvalue = [4, 12, 0]\nclass = DCP", fillcolor="#7beeab"] ;
175 -> 176 ;
177 [label="graphDepth <= 25.5\ngini = 0.219\nsamples = 16\nvalue = [2, 14, 0]\nclass = DCP", fillcolor="#55e993"] ;
175 -> 177 ;
178 [label="gini = 0.0\nsamples = 4\nvalue = [0, 4, 0]\nclass = DCP", fillcolor="#39e581"] ;
177 -> 178 ;
179 [label="gini = 0.278\nsamples = 12\nvalue = [2, 10, 0]\nclass = DCP", fillcolor="#61ea9a"] ;
177 -> 179 ;
180 [label="sdComp <= 0.02\ngini = 0.193\nsamples = 74\nvalue = [8, 66, 0]\nclass = DCP", fillcolor="#51e890"] ;
154 -> 180 ;
181 [label="gini = 0.0\nsamples = 6\nvalue = [0, 6, 0]\nclass = DCP", fillcolor="#39e581"] ;
180 -> 181 ;
182 [label="sdComp <= 0.065\ngini = 0.208\nsamples = 68\nvalue = [8, 60, 0]\nclass = DCP", fillcolor="#53e892"] ;
180 -> 182 ;
183 [label="graphDepth <= 25.5\ngini = 0.26\nsamples = 26\nvalue = [4, 22, 0]\nclass = DCP", fillcolor="#5dea98"] ;
182 -> 183 ;
184 [label="gini = 0.375\nsamples = 16\nvalue = [4, 12, 0]\nclass = DCP", fillcolor="#7beeab"] ;
183 -> 184 ;
185 [label="gini = 0.0\nsamples = 10\nvalue = [0, 10, 0]\nclass = DCP", fillcolor="#39e581"] ;
183 -> 185 ;
186 [label="graphSize <= 75.0\ngini = 0.172\nsamples = 42\nvalue = [4, 38, 0]\nclass = DCP", fillcolor="#4ee88e"] ;
182 -> 186 ;
187 [label="gini = 0.0\nsamples = 22\nvalue = [0, 22, 0]\nclass = DCP", fillcolor="#39e581"] ;
186 -> 187 ;
188 [label="graphDepth <= 25.5\ngini = 0.32\nsamples = 20\nvalue = [4, 16, 0]\nclass = DCP", fillcolor="#6aeca0"] ;
186 -> 188 ;
189 [label="gini = 0.375\nsamples = 8\nvalue = [2, 6, 0]\nclass = DCP", fillcolor="#7beeab"] ;
188 -> 189 ;
190 [label="gini = 0.278\nsamples = 12\nvalue = [2, 10, 0]\nclass = DCP", fillcolor="#61ea9a"] ;
188 -> 190 ;
191 [label="sdComm <= 0.065\ngini = 0.115\nsamples = 488\nvalue = [30, 458, 0]\nclass = DCP", fillcolor="#46e789"] ;
153 -> 191 ;
192 [label="graphDepth <= 25.5\ngini = 0.17\nsamples = 320\nvalue = [30, 290, 0]\nclass = DCP", fillcolor="#4de88e"] ;
191 -> 192 ;
193 [label="sdComp <= 0.02\ngini = 0.215\nsamples = 212\nvalue = [26, 186, 0]\nclass = DCP", fillcolor="#55e993"] ;
192 -> 193 ;
194 [label="sdComm <= 0.02\ngini = 0.102\nsamples = 74\nvalue = [4, 70, 0]\nclass = DCP", fillcolor="#44e688"] ;
193 -> 194 ;
195 [label="gini = 0.0\nsamples = 34\nvalue = [0, 34, 0]\nclass = DCP", fillcolor="#39e581"] ;
194 -> 195 ;
196 [label="graphSize <= 75.0\ngini = 0.18\nsamples = 40\nvalue = [4, 36, 0]\nclass = DCP", fillcolor="#4fe88f"] ;
194 -> 196 ;
197 [label="gini = 0.278\nsamples = 24\nvalue = [4, 20, 0]\nclass = DCP", fillcolor="#61ea9a"] ;
196 -> 197 ;
198 [label="gini = 0.0\nsamples = 16\nvalue = [0, 16, 0]\nclass = DCP", fillcolor="#39e581"] ;
196 -> 198 ;
199 [label="sdComp <= 0.065\ngini = 0.268\nsamples = 138\nvalue = [22, 116, 0]\nclass = DCP", fillcolor="#5fea99"] ;
193 -> 199 ;
200 [label="graphSize <= 75.0\ngini = 0.375\nsamples = 56\nvalue = [14, 42, 0]\nclass = DCP", fillcolor="#7beeab"] ;
199 -> 200 ;
201 [label="sdComm <= 0.02\ngini = 0.208\nsamples = 34\nvalue = [4, 30, 0]\nclass = DCP", fillcolor="#53e892"] ;
200 -> 201 ;
202 [label="gini = 0.32\nsamples = 20\nvalue = [4, 16, 0]\nclass = DCP", fillcolor="#6aeca0"] ;
201 -> 202 ;
203 [label="gini = 0.0\nsamples = 14\nvalue = [0, 14, 0]\nclass = DCP", fillcolor="#39e581"] ;
201 -> 203 ;
204 [label="sdComm <= 0.02\ngini = 0.496\nsamples = 22\nvalue = [10, 12, 0]\nclass = DCP", fillcolor="#defbea"] ;
200 -> 204 ;
205 [label="gini = 0.48\nsamples = 10\nvalue = [6, 4, 0]\nclass = DLS/DC", fillcolor="#f6d5bd"] ;
204 -> 205 ;
206 [label="gini = 0.444\nsamples = 12\nvalue = [4, 8, 0]\nclass = DCP", fillcolor="#9cf2c0"] ;
204 -> 206 ;
207 [label="sdComm <= 0.02\ngini = 0.176\nsamples = 82\nvalue = [8, 74, 0]\nclass = DCP", fillcolor="#4ee88f"] ;
199 -> 207 ;
208 [label="gini = 0.0\nsamples = 36\nvalue = [0, 36, 0]\nclass = DCP", fillcolor="#39e581"] ;
207 -> 208 ;
209 [label="graphSize <= 75.0\ngini = 0.287\nsamples = 46\nvalue = [8, 38, 0]\nclass = DCP", fillcolor="#63ea9c"] ;
207 -> 209 ;
210 [label="gini = 0.426\nsamples = 26\nvalue = [8, 18, 0]\nclass = DCP", fillcolor="#91f1b9"] ;
209 -> 210 ;
211 [label="gini = 0.0\nsamples = 20\nvalue = [0, 20, 0]\nclass = DCP", fillcolor="#39e581"] ;
209 -> 211 ;
212 [label="sdComm <= 0.02\ngini = 0.071\nsamples = 108\nvalue = [4, 104, 0]\nclass = DCP", fillcolor="#41e686"] ;
192 -> 212 ;
213 [label="sdComp <= 0.065\ngini = 0.128\nsamples = 58\nvalue = [4, 54, 0]\nclass = DCP", fillcolor="#48e78a"] ;
212 -> 213 ;
214 [label="sdComp <= 0.02\ngini = 0.198\nsamples = 36\nvalue = [4, 32, 0]\nclass = DCP", fillcolor="#52e891"] ;
213 -> 214 ;
215 [label="gini = 0.0\nsamples = 20\nvalue = [0, 20, 0]\nclass = DCP", fillcolor="#39e581"] ;
214 -> 215 ;
216 [label="gini = 0.375\nsamples = 16\nvalue = [4, 12, 0]\nclass = DCP", fillcolor="#7beeab"] ;
214 -> 216 ;
217 [label="gini = 0.0\nsamples = 22\nvalue = [0, 22, 0]\nclass = DCP", fillcolor="#39e581"] ;
213 -> 217 ;
218 [label="gini = 0.0\nsamples = 50\nvalue = [0, 50, 0]\nclass = DCP", fillcolor="#39e581"] ;
212 -> 218 ;
219 [label="gini = 0.0\nsamples = 168\nvalue = [0, 168, 0]\nclass = DCP", fillcolor="#39e581"] ;
191 -> 219 ;
220 [label="graphSize <= 75.0\ngini = 0.624\nsamples = 319\nvalue = [154, 104, 61]\nclass = DLS/DC", fillcolor="#f9e2d1"] ;
2 -> 220 ;
221 [label="graphSize <= 40.0\ngini = 0.581\nsamples = 205\nvalue = [112, 66, 27]\nclass = DLS/DC", fillcolor="#f6d5bd"] ;
220 -> 221 ;
222 [label="sdComm <= 0.65\ngini = 0.63\nsamples = 147\nvalue = [66, 54, 27]\nclass = DLS/DC", fillcolor="#fcefe5"] ;
221 -> 222 ;
223 [label="graphSize <= 22.5\ngini = 0.63\nsamples = 67\nvalue = [32, 14, 21]\nclass = DLS/DC", fillcolor="#f9e1d0"] ;
222 -> 223 ;
224 [label="graphDepth <= 3.5\ngini = 0.474\nsamples = 47\nvalue = [32, 4, 11]\nclass = DLS/DC", fillcolor="#f0b68c"] ;
223 -> 224 ;
225 [label="gini = 0.0\nsamples = 7\nvalue = [0, 0, 7]\nclass = None", fillcolor="#8139e5"] ;
224 -> 225 ;
226 [label="nbproc <= 4.5\ngini = 0.34\nsamples = 40\nvalue = [32, 4, 4]\nclass = DLS/DC", fillcolor="#eb9d65"] ;
224 -> 226 ;
227 [label="gini = 0.198\nsamples = 36\nvalue = [32, 4, 0]\nclass = DLS/DC", fillcolor="#e89152"] ;
226 -> 227 ;
228 [label="gini = 0.0\nsamples = 4\nvalue = [0, 0, 4]\nclass = None", fillcolor="#8139e5"] ;
226 -> 228 ;
229 [label="gini = 0.5\nsamples = 20\nvalue = [0, 10, 10]\nclass = DCP", fillcolor="#ffffff"] ;
223 -> 229 ;
230 [label="graphSize <= 22.5\ngini = 0.564\nsamples = 80\nvalue = [34, 40, 6]\nclass = DCP", fillcolor="#e5fcef"] ;
222 -> 230 ;
231 [label="graphDepth <= 3.5\ngini = 0.46\nsamples = 40\nvalue = [8, 28, 4]\nclass = DCP", fillcolor="#83efb0"] ;
230 -> 231 ;
232 [label="nbproc <= 4.5\ngini = 0.571\nsamples = 14\nvalue = [8, 2, 4]\nclass = DLS/DC", fillcolor="#f5cdb0"] ;
231 -> 232 ;
233 [label="gini = 0.444\nsamples = 12\nvalue = [8, 0, 4]\nclass = DLS/DC", fillcolor="#f2c09c"] ;
232 -> 233 ;
234 [label="gini = 0.0\nsamples = 2\nvalue = [0, 2, 0]\nclass = DCP", fillcolor="#39e581"] ;
232 -> 234 ;
235 [label="gini = 0.0\nsamples = 26\nvalue = [0, 26, 0]\nclass = DCP", fillcolor="#39e581"] ;
231 -> 235 ;
236 [label="nbproc <= 4.5\ngini = 0.485\nsamples = 40\nvalue = [26, 12, 2]\nclass = DLS/DC", fillcolor="#f2c09c"] ;
230 -> 236 ;
237 [label="graphDepth <= 7.5\ngini = 0.625\nsamples = 8\nvalue = [2, 4, 2]\nclass = DCP", fillcolor="#bdf6d5"] ;
236 -> 237 ;
238 [label="gini = 0.444\nsamples = 6\nvalue = [0, 4, 2]\nclass = DCP", fillcolor="#9cf2c0"] ;
237 -> 238 ;
239 [label="gini = 0.0\nsamples = 2\nvalue = [2, 0, 0]\nclass = DLS/DC", fillcolor="#e58139"] ;
237 -> 239 ;
240 [label="graphDepth <= 7.5\ngini = 0.375\nsamples = 32\nvalue = [24, 8, 0]\nclass = DLS/DC", fillcolor="#eeab7b"] ;
236 -> 240 ;
241 [label="gini = 0.0\nsamples = 18\nvalue = [18, 0, 0]\nclass = DLS/DC", fillcolor="#e58139"] ;
240 -> 241 ;
242 [label="gini = 0.49\nsamples = 14\nvalue = [6, 8, 0]\nclass = DCP", fillcolor="#cef8e0"] ;
240 -> 242 ;
243 [label="nbproc <= 4.5\ngini = 0.328\nsamples = 58\nvalue = [46, 12, 0]\nclass = DLS/DC", fillcolor="#eca26d"] ;
221 -> 243 ;
244 [label="graphDepth <= 12.5\ngini = 0.172\nsamples = 42\nvalue = [38, 4, 0]\nclass = DLS/DC", fillcolor="#e88e4e"] ;
243 -> 244 ;
245 [label="gini = 0.298\nsamples = 22\nvalue = [18, 4, 0]\nclass = DLS/DC", fillcolor="#eb9d65"] ;
244 -> 245 ;
246 [label="gini = 0.0\nsamples = 20\nvalue = [20, 0, 0]\nclass = DLS/DC", fillcolor="#e58139"] ;
244 -> 246 ;
247 [label="sdComm <= 0.65\ngini = 0.5\nsamples = 16\nvalue = [8, 8, 0]\nclass = DLS/DC", fillcolor="#ffffff"] ;
243 -> 247 ;
248 [label="gini = 0.0\nsamples = 6\nvalue = [0, 6, 0]\nclass = DCP", fillcolor="#39e581"] ;
247 -> 248 ;
249 [label="graphDepth <= 12.5\ngini = 0.32\nsamples = 10\nvalue = [8, 2, 0]\nclass = DLS/DC", fillcolor="#eca06a"] ;
247 -> 249 ;
250 [label="gini = 0.444\nsamples = 6\nvalue = [4, 2, 0]\nclass = DLS/DC", fillcolor="#f2c09c"] ;
249 -> 250 ;
251 [label="gini = 0.0\nsamples = 4\nvalue = [4, 0, 0]\nclass = DLS/DC", fillcolor="#e58139"] ;
249 -> 251 ;
252 [label="nbproc <= 4.5\ngini = 0.664\nsamples = 114\nvalue = [42, 38, 34]\nclass = DLS/DC", fillcolor="#fef8f5"] ;
220 -> 252 ;
253 [label="graphDepth <= 25.5\ngini = 0.666\nsamples = 98\nvalue = [30, 34, 34]\nclass = DCP", fillcolor="#ffffff"] ;
252 -> 253 ;
254 [label="gini = 0.665\nsamples = 46\nvalue = [14, 16, 16]\nclass = DCP", fillcolor="#ffffff"] ;
253 -> 254 ;
255 [label="gini = 0.666\nsamples = 52\nvalue = [16, 18, 18]\nclass = DCP", fillcolor="#ffffff"] ;
253 -> 255 ;
256 [label="graphDepth <= 25.5\ngini = 0.375\nsamples = 16\nvalue = [12, 4, 0]\nclass = DLS/DC", fillcolor="#eeab7b"] ;
252 -> 256 ;
257 [label="gini = 0.0\nsamples = 8\nvalue = [8, 0, 0]\nclass = DLS/DC", fillcolor="#e58139"] ;
256 -> 257 ;
258 [label="gini = 0.5\nsamples = 8\nvalue = [4, 4, 0]\nclass = DLS/DC", fillcolor="#ffffff"] ;
256 -> 258 ;
259 [label="graphSize <= 22.5\ngini = 0.237\nsamples = 832\nvalue = [72, 722, 38]\nclass = DCP", fillcolor="#56e993"] ;
1 -> 259 ;
260 [label="nbproc <= 4.5\ngini = 0.378\nsamples = 386\nvalue = [50, 298, 38]\nclass = DCP", fillcolor="#6deca2"] ;
259 -> 260 ;
261 [label="graphDepth <= 3.5\ngini = 0.48\nsamples = 196\nvalue = [38, 134, 24]\nclass = DCP", fillcolor="#87efb2"] ;
260 -> 261 ;
262 [label="sdComm <= 0.2\ngini = 0.535\nsamples = 68\nvalue = [8, 42, 18]\nclass = DCP", fillcolor="#a0f3c3"] ;
261 -> 262 ;
263 [label="sdComp <= 0.65\ngini = 0.469\nsamples = 16\nvalue = [0, 6, 10]\nclass = None", fillcolor="#cdb0f5"] ;
262 -> 263 ;
264 [label="gini = 0.5\nsamples = 8\nvalue = [0, 4, 4]\nclass = DCP", fillcolor="#ffffff"] ;
263 -> 264 ;
265 [label="gini = 0.375\nsamples = 8\nvalue = [0, 2, 6]\nclass = None", fillcolor="#ab7bee"] ;
263 -> 265 ;
266 [label="sdComp <= 0.65\ngini = 0.473\nsamples = 52\nvalue = [8, 36, 8]\nclass = DCP", fillcolor="#81eeaf"] ;
262 -> 266 ;
267 [label="sdComm <= 0.65\ngini = 0.32\nsamples = 32\nvalue = [4, 26, 2]\nclass = DCP", fillcolor="#63eb9c"] ;
266 -> 267 ;
268 [label="gini = 0.231\nsamples = 30\nvalue = [4, 26, 0]\nclass = DCP", fillcolor="#57e994"] ;
267 -> 268 ;
269 [label="gini = 0.0\nsamples = 2\nvalue = [0, 0, 2]\nclass = None", fillcolor="#8139e5"] ;
267 -> 269 ;
270 [label="sdComm <= 0.65\ngini = 0.62\nsamples = 20\nvalue = [4, 10, 6]\nclass = DCP", fillcolor="#c6f8db"] ;
266 -> 270 ;
271 [label="gini = 0.0\nsamples = 4\nvalue = [0, 0, 4]\nclass = None", fillcolor="#8139e5"] ;
270 -> 271 ;
272 [label="gini = 0.531\nsamples = 16\nvalue = [4, 10, 2]\nclass = DCP", fillcolor="#9cf2c0"] ;
270 -> 272 ;
273 [label="sdComp <= 0.65\ngini = 0.426\nsamples = 128\nvalue = [30, 92, 6]\nclass = DCP", fillcolor="#82efaf"] ;
261 -> 273 ;
274 [label="sdComm <= 0.2\ngini = 0.408\nsamples = 84\nvalue = [24, 60, 0]\nclass = DCP", fillcolor="#88efb3"] ;
273 -> 274 ;
275 [label="gini = 0.5\nsamples = 16\nvalue = [8, 8, 0]\nclass = DLS/DC", fillcolor="#ffffff"] ;
274 -> 275 ;
276 [label="sdComm <= 0.65\ngini = 0.36\nsamples = 68\nvalue = [16, 52, 0]\nclass = DCP", fillcolor="#76eda8"] ;
274 -> 276 ;
277 [label="gini = 0.305\nsamples = 32\nvalue = [6, 26, 0]\nclass = DCP", fillcolor="#67eb9e"] ;
276 -> 277 ;
278 [label="gini = 0.401\nsamples = 36\nvalue = [10, 26, 0]\nclass = DCP", fillcolor="#85efb1"] ;
276 -> 278 ;
279 [label="sdComm <= 0.65\ngini = 0.434\nsamples = 44\nvalue = [6, 32, 6]\nclass = DCP", fillcolor="#78eda9"] ;
273 -> 279 ;
280 [label="sdComm <= 0.2\ngini = 0.34\nsamples = 40\nvalue = [4, 32, 4]\nclass = DCP", fillcolor="#65eb9d"] ;
279 -> 280 ;
281 [label="gini = 0.43\nsamples = 22\nvalue = [2, 16, 4]\nclass = DCP", fillcolor="#7beeab"] ;
280 -> 281 ;
282 [label="gini = 0.198\nsamples = 18\nvalue = [2, 16, 0]\nclass = DCP", fillcolor="#52e891"] ;
280 -> 282 ;
283 [label="gini = 0.5\nsamples = 4\nvalue = [2, 0, 2]\nclass = DLS/DC", fillcolor="#ffffff"] ;
279 -> 283 ;
284 [label="sdComp <= 0.65\ngini = 0.246\nsamples = 190\nvalue = [12, 164, 14]\nclass = DCP", fillcolor="#56e994"] ;
260 -> 284 ;
285 [label="gini = 0.0\nsamples = 44\nvalue = [0, 44, 0]\nclass = DCP", fillcolor="#39e581"] ;
284 -> 285 ;
286 [label="sdComm <= 0.2\ngini = 0.309\nsamples = 146\nvalue = [12, 120, 14]\nclass = DCP", fillcolor="#60ea9a"] ;
284 -> 286 ;
287 [label="graphDepth <= 3.5\ngini = 0.462\nsamples = 26\nvalue = [2, 18, 6]\nclass = DCP", fillcolor="#88efb3"] ;
286 -> 287 ;
288 [label="gini = 0.408\nsamples = 14\nvalue = [0, 10, 4]\nclass = DCP", fillcolor="#88efb3"] ;
287 -> 288 ;
289 [label="gini = 0.5\nsamples = 12\nvalue = [2, 8, 2]\nclass = DCP", fillcolor="#88efb3"] ;
287 -> 289 ;
290 [label="graphDepth <= 3.5\ngini = 0.266\nsamples = 120\nvalue = [10, 102, 8]\nclass = DCP", fillcolor="#59e996"] ;
286 -> 290 ;
291 [label="sdComm <= 0.65\ngini = 0.348\nsamples = 68\nvalue = [6, 54, 8]\nclass = DCP", fillcolor="#67eb9e"] ;
290 -> 291 ;
292 [label="gini = 0.384\nsamples = 60\nvalue = [6, 46, 8]\nclass = DCP", fillcolor="#6eeca3"] ;
291 -> 292 ;
293 [label="gini = 0.0\nsamples = 8\nvalue = [0, 8, 0]\nclass = DCP", fillcolor="#39e581"] ;
291 -> 293 ;
294 [label="sdComm <= 0.65\ngini = 0.142\nsamples = 52\nvalue = [4, 48, 0]\nclass = DCP", fillcolor="#49e78c"] ;
290 -> 294 ;
295 [label="gini = 0.0\nsamples = 24\nvalue = [0, 24, 0]\nclass = DCP", fillcolor="#39e581"] ;
294 -> 295 ;
296 [label="gini = 0.245\nsamples = 28\nvalue = [4, 24, 0]\nclass = DCP", fillcolor="#5ae996"] ;
294 -> 296 ;
297 [label="graphSize <= 40.0\ngini = 0.094\nsamples = 446\nvalue = [22, 424, 0]\nclass = DCP", fillcolor="#43e688"] ;
259 -> 297 ;
298 [label="nbproc <= 4.5\ngini = 0.165\nsamples = 176\nvalue = [16, 160, 0]\nclass = DCP", fillcolor="#4de88e"] ;
297 -> 298 ;
299 [label="sdComm <= 0.2\ngini = 0.305\nsamples = 64\nvalue = [12, 52, 0]\nclass = DCP", fillcolor="#67eb9e"] ;
298 -> 299 ;
300 [label="graphDepth <= 7.5\ngini = 0.463\nsamples = 22\nvalue = [8, 14, 0]\nclass = DCP", fillcolor="#aaf4c9"] ;
299 -> 300 ;
301 [label="gini = 0.444\nsamples = 6\nvalue = [4, 2, 0]\nclass = DLS/DC", fillcolor="#f2c09c"] ;
300 -> 301 ;
302 [label="sdComp <= 0.65\ngini = 0.375\nsamples = 16\nvalue = [4, 12, 0]\nclass = DCP", fillcolor="#7beeab"] ;
300 -> 302 ;
303 [label="gini = 0.48\nsamples = 10\nvalue = [4, 6, 0]\nclass = DCP", fillcolor="#bdf6d5"] ;
302 -> 303 ;
304 [label="gini = 0.0\nsamples = 6\nvalue = [0, 6, 0]\nclass = DCP", fillcolor="#39e581"] ;
302 -> 304 ;
305 [label="sdComm <= 0.65\ngini = 0.172\nsamples = 42\nvalue = [4, 38, 0]\nclass = DCP", fillcolor="#4ee88e"] ;
299 -> 305 ;
306 [label="gini = 0.0\nsamples = 30\nvalue = [0, 30, 0]\nclass = DCP", fillcolor="#39e581"] ;
305 -> 306 ;
307 [label="graphDepth <= 7.5\ngini = 0.444\nsamples = 12\nvalue = [4, 8, 0]\nclass = DCP", fillcolor="#9cf2c0"] ;
305 -> 307 ;
308 [label="gini = 0.5\nsamples = 4\nvalue = [2, 2, 0]\nclass = DLS/DC", fillcolor="#ffffff"] ;
307 -> 308 ;
309 [label="sdComp <= 0.65\ngini = 0.375\nsamples = 8\nvalue = [2, 6, 0]\nclass = DCP", fillcolor="#7beeab"] ;
307 -> 309 ;
310 [label="gini = 0.0\nsamples = 2\nvalue = [0, 2, 0]\nclass = DCP", fillcolor="#39e581"] ;
309 -> 310 ;
311 [label="gini = 0.444\nsamples = 6\nvalue = [2, 4, 0]\nclass = DCP", fillcolor="#9cf2c0"] ;
309 -> 311 ;
312 [label="sdComm <= 0.2\ngini = 0.069\nsamples = 112\nvalue = [4, 108, 0]\nclass = DCP", fillcolor="#40e686"] ;
298 -> 312 ;
313 [label="graphDepth <= 7.5\ngini = 0.165\nsamples = 44\nvalue = [4, 40, 0]\nclass = DCP", fillcolor="#4de88e"] ;
312 -> 313 ;
314 [label="gini = 0.0\nsamples = 16\nvalue = [0, 16, 0]\nclass = DCP", fillcolor="#39e581"] ;
313 -> 314 ;
315 [label="sdComp <= 0.65\ngini = 0.245\nsamples = 28\nvalue = [4, 24, 0]\nclass = DCP", fillcolor="#5ae996"] ;
313 -> 315 ;
316 [label="gini = 0.0\nsamples = 12\nvalue = [0, 12, 0]\nclass = DCP", fillcolor="#39e581"] ;
315 -> 316 ;
317 [label="gini = 0.375\nsamples = 16\nvalue = [4, 12, 0]\nclass = DCP", fillcolor="#7beeab"] ;
315 -> 317 ;
318 [label="gini = 0.0\nsamples = 68\nvalue = [0, 68, 0]\nclass = DCP", fillcolor="#39e581"] ;
312 -> 318 ;
319 [label="graphSize <= 75.0\ngini = 0.043\nsamples = 270\nvalue = [6, 264, 0]\nclass = DCP", fillcolor="#3de684"] ;
297 -> 319 ;
320 [label="gini = 0.0\nsamples = 118\nvalue = [0, 118, 0]\nclass = DCP", fillcolor="#39e581"] ;
319 -> 320 ;
321 [label="graphDepth <= 25.5\ngini = 0.076\nsamples = 152\nvalue = [6, 146, 0]\nclass = DCP", fillcolor="#41e686"] ;
319 -> 321 ;
322 [label="sdComp <= 0.65\ngini = 0.172\nsamples = 42\nvalue = [4, 38, 0]\nclass = DCP", fillcolor="#4ee88e"] ;
321 -> 322 ;
323 [label="sdComm <= 0.55\ngini = 0.375\nsamples = 8\nvalue = [2, 6, 0]\nclass = DCP", fillcolor="#7beeab"] ;
322 -> 323 ;
324 [label="gini = 0.0\nsamples = 4\nvalue = [0, 4, 0]\nclass = DCP", fillcolor="#39e581"] ;
323 -> 324 ;
325 [label="gini = 0.5\nsamples = 4\nvalue = [2, 2, 0]\nclass = DLS/DC", fillcolor="#ffffff"] ;
323 -> 325 ;
326 [label="sdComm <= 0.2\ngini = 0.111\nsamples = 34\nvalue = [2, 32, 0]\nclass = DCP", fillcolor="#45e789"] ;
322 -> 326 ;
327 [label="nbproc <= 4.5\ngini = 0.278\nsamples = 12\nvalue = [2, 10, 0]\nclass = DCP", fillcolor="#61ea9a"] ;
326 -> 327 ;
328 [label="gini = 0.444\nsamples = 6\nvalue = [2, 4, 0]\nclass = DCP", fillcolor="#9cf2c0"] ;
327 -> 328 ;
329 [label="gini = 0.0\nsamples = 6\nvalue = [0, 6, 0]\nclass = DCP", fillcolor="#39e581"] ;
327 -> 329 ;
330 [label="gini = 0.0\nsamples = 22\nvalue = [0, 22, 0]\nclass = DCP", fillcolor="#39e581"] ;
326 -> 330 ;
331 [label="sdComm <= 0.2\ngini = 0.036\nsamples = 110\nvalue = [2, 108, 0]\nclass = DCP", fillcolor="#3de583"] ;
321 -> 331 ;
332 [label="nbproc <= 4.5\ngini = 0.087\nsamples = 44\nvalue = [2, 42, 0]\nclass = DCP", fillcolor="#42e687"] ;
331 -> 332 ;
333 [label="sdComp <= 0.65\ngini = 0.18\nsamples = 20\nvalue = [2, 18, 0]\nclass = DCP", fillcolor="#4fe88f"] ;
332 -> 333 ;
334 [label="gini = 0.0\nsamples = 6\nvalue = [0, 6, 0]\nclass = DCP", fillcolor="#39e581"] ;
333 -> 334 ;
335 [label="gini = 0.245\nsamples = 14\nvalue = [2, 12, 0]\nclass = DCP", fillcolor="#5ae996"] ;
333 -> 335 ;
336 [label="gini = 0.0\nsamples = 24\nvalue = [0, 24, 0]\nclass = DCP", fillcolor="#39e581"] ;
332 -> 336 ;
337 [label="gini = 0.0\nsamples = 66\nvalue = [0, 66, 0]\nclass = DCP", fillcolor="#39e581"] ;
331 -> 337 ;
338 [label="sdComp <= 6.5\ngini = 0.361\nsamples = 3982\nvalue = [402, 456, 3124]\nclass = None", fillcolor="#a069eb"] ;
0 -> 338 [labeldistance=2.5, labelangle=-45, headlabel="False"] ;
339 [label="graphDepth <= 9.0\ngini = 0.282\nsamples = 2378\nvalue = [224, 158, 1996]\nclass = None", fillcolor="#975cea"] ;
338 -> 339 ;
340 [label="nbproc <= 4.5\ngini = 0.116\nsamples = 890\nvalue = [36, 18, 836]\nclass = None", fillcolor="#8946e7"] ;
339 -> 340 ;
341 [label="graphSize <= 40.0\ngini = 0.173\nsamples = 556\nvalue = [36, 16, 504]\nclass = None", fillcolor="#8e4de8"] ;
340 -> 341 ;
342 [label="sdComp <= 2.0\ngini = 0.197\nsamples = 482\nvalue = [36, 16, 430]\nclass = None", fillcolor="#9050e8"] ;
341 -> 342 ;
343 [label="graphSize <= 22.5\ngini = 0.123\nsamples = 182\nvalue = [12, 0, 170]\nclass = None", fillcolor="#8a47e7"] ;
342 -> 343 ;
344 [label="gini = 0.0\nsamples = 100\nvalue = [0, 0, 100]\nclass = None", fillcolor="#8139e5"] ;
343 -> 344 ;
345 [label="sdComm <= 6.5\ngini = 0.25\nsamples = 82\nvalue = [12, 0, 70]\nclass = None", fillcolor="#975be9"] ;
343 -> 345 ;
346 [label="sdComm <= 2.0\ngini = 0.346\nsamples = 54\nvalue = [12, 0, 42]\nclass = None", fillcolor="#a572ec"] ;
345 -> 346 ;
347 [label="gini = 0.0\nsamples = 18\nvalue = [0, 0, 18]\nclass = None", fillcolor="#8139e5"] ;
346 -> 347 ;
348 [label="gini = 0.444\nsamples = 36\nvalue = [12, 0, 24]\nclass = None", fillcolor="#c09cf2"] ;
346 -> 348 ;
349 [label="gini = 0.0\nsamples = 28\nvalue = [0, 0, 28]\nclass = None", fillcolor="#8139e5"] ;
345 -> 349 ;
350 [label="graphSize <= 22.5\ngini = 0.24\nsamples = 300\nvalue = [24, 16, 260]\nclass = None", fillcolor="#9356e9"] ;
342 -> 350 ;
351 [label="sdComm <= 2.0\ngini = 0.272\nsamples = 260\nvalue = [24, 16, 220]\nclass = None", fillcolor="#965be9"] ;
350 -> 351 ;
352 [label="graphDepth <= 3.5\ngini = 0.356\nsamples = 104\nvalue = [10, 12, 82]\nclass = None", fillcolor="#9f68eb"] ;
351 -> 352 ;
353 [label="gini = 0.0\nsamples = 24\nvalue = [0, 0, 24]\nclass = None", fillcolor="#8139e5"] ;
352 -> 353 ;
354 [label="gini = 0.436\nsamples = 80\nvalue = [10, 12, 58]\nclass = None", fillcolor="#aa79ed"] ;
352 -> 354 ;
355 [label="graphDepth <= 3.5\ngini = 0.209\nsamples = 156\nvalue = [14, 4, 138]\nclass = None", fillcolor="#9152e8"] ;
351 -> 355 ;
356 [label="sdComm <= 6.5\ngini = 0.408\nsamples = 28\nvalue = [8, 0, 20]\nclass = None", fillcolor="#b388ef"] ;
355 -> 356 ;
357 [label="gini = 0.0\nsamples = 12\nvalue = [0, 0, 12]\nclass = None", fillcolor="#8139e5"] ;
356 -> 357 ;
358 [label="gini = 0.5\nsamples = 16\nvalue = [8, 0, 8]\nclass = DLS/DC", fillcolor="#ffffff"] ;
356 -> 358 ;
359 [label="sdComm <= 6.5\ngini = 0.147\nsamples = 128\nvalue = [6, 4, 118]\nclass = None", fillcolor="#8b49e7"] ;
355 -> 359 ;
360 [label="gini = 0.188\nsamples = 98\nvalue = [6, 4, 88]\nclass = None", fillcolor="#8f4fe8"] ;
359 -> 360 ;
361 [label="gini = 0.0\nsamples = 30\nvalue = [0, 0, 30]\nclass = None", fillcolor="#8139e5"] ;
359 -> 361 ;
362 [label="gini = 0.0\nsamples = 40\nvalue = [0, 0, 40]\nclass = None", fillcolor="#8139e5"] ;
350 -> 362 ;
363 [label="gini = 0.0\nsamples = 74\nvalue = [0, 0, 74]\nclass = None", fillcolor="#8139e5"] ;
341 -> 363 ;
364 [label="graphDepth <= 3.5\ngini = 0.012\nsamples = 334\nvalue = [0, 2, 332]\nclass = None", fillcolor="#823ae5"] ;
340 -> 364 ;
365 [label="sdComm <= 2.0\ngini = 0.08\nsamples = 48\nvalue = [0, 2, 46]\nclass = None", fillcolor="#8642e6"] ;
364 -> 365 ;
366 [label="sdComp <= 2.0\ngini = 0.32\nsamples = 10\nvalue = [0, 2, 8]\nclass = None", fillcolor="#a06aec"] ;
365 -> 366 ;
367 [label="gini = 0.444\nsamples = 6\nvalue = [0, 2, 4]\nclass = None", fillcolor="#c09cf2"] ;
366 -> 367 ;
368 [label="gini = 0.0\nsamples = 4\nvalue = [0, 0, 4]\nclass = None", fillcolor="#8139e5"] ;
366 -> 368 ;
369 [label="gini = 0.0\nsamples = 38\nvalue = [0, 0, 38]\nclass = None", fillcolor="#8139e5"] ;
365 -> 369 ;
370 [label="gini = 0.0\nsamples = 286\nvalue = [0, 0, 286]\nclass = None", fillcolor="#8139e5"] ;
364 -> 370 ;
371 [label="sdComm <= 6.5\ngini = 0.367\nsamples = 1488\nvalue = [188, 140, 1160]\nclass = None", fillcolor="#a16bec"] ;
339 -> 371 ;
372 [label="graphDepth <= 25.5\ngini = 0.42\nsamples = 1090\nvalue = [168, 118, 804]\nclass = None", fillcolor="#a876ed"] ;
371 -> 372 ;
373 [label="graphSize <= 75.0\ngini = 0.378\nsamples = 780\nvalue = [80, 98, 602]\nclass = None", fillcolor="#a26dec"] ;
372 -> 373 ;
374 [label="graphSize <= 40.0\ngini = 0.45\nsamples = 620\nvalue = [80, 98, 442]\nclass = None", fillcolor="#ac7dee"] ;
373 -> 374 ;
375 [label="sdComp <= 2.0\ngini = 0.295\nsamples = 284\nvalue = [24, 24, 236]\nclass = None", fillcolor="#985eea"] ;
374 -> 375 ;
376 [label="nbproc <= 4.5\ngini = 0.108\nsamples = 140\nvalue = [0, 8, 132]\nclass = None", fillcolor="#8945e7"] ;
375 -> 376 ;
377 [label="gini = 0.0\nsamples = 72\nvalue = [0, 0, 72]\nclass = None", fillcolor="#8139e5"] ;
376 -> 377 ;
378 [label="sdComm <= 2.0\ngini = 0.208\nsamples = 68\nvalue = [0, 8, 60]\nclass = None", fillcolor="#9253e8"] ;
376 -> 378 ;
379 [label="gini = 0.408\nsamples = 28\nvalue = [0, 8, 20]\nclass = None", fillcolor="#b388ef"] ;
378 -> 379 ;
380 [label="gini = 0.0\nsamples = 40\nvalue = [0, 0, 40]\nclass = None", fillcolor="#8139e5"] ;
378 -> 380 ;
381 [label="sdComm <= 2.0\ngini = 0.438\nsamples = 144\nvalue = [24, 16, 104]\nclass = None", fillcolor="#ab7bee"] ;
375 -> 381 ;
382 [label="nbproc <= 4.5\ngini = 0.375\nsamples = 48\nvalue = [12, 0, 36]\nclass = None", fillcolor="#ab7bee"] ;
381 -> 382 ;
383 [label="gini = 0.0\nsamples = 20\nvalue = [0, 0, 20]\nclass = None", fillcolor="#8139e5"] ;
382 -> 383 ;
384 [label="gini = 0.49\nsamples = 28\nvalue = [12, 0, 16]\nclass = None", fillcolor="#e0cef8"] ;
382 -> 384 ;
385 [label="nbproc <= 4.5\ngini = 0.455\nsamples = 96\nvalue = [12, 16, 68]\nclass = None", fillcolor="#ad7eee"] ;
381 -> 385 ;
386 [label="gini = 0.5\nsamples = 72\nvalue = [12, 12, 48]\nclass = None", fillcolor="#b388ef"] ;
385 -> 386 ;
387 [label="gini = 0.278\nsamples = 24\nvalue = [0, 4, 20]\nclass = None", fillcolor="#9a61ea"] ;
385 -> 387 ;
388 [label="nbproc <= 4.5\ngini = 0.548\nsamples = 336\nvalue = [56, 74, 206]\nclass = None", fillcolor="#c09bf2"] ;
374 -> 388 ;
389 [label="sdComm <= 2.0\ngini = 0.656\nsamples = 182\nvalue = [48, 60, 74]\nclass = None", fillcolor="#f1e8fc"] ;
388 -> 389 ;
390 [label="sdComp <= 2.0\ngini = 0.664\nsamples = 118\nvalue = [36, 44, 38]\nclass = DCP", fillcolor="#f0fdf6"] ;
389 -> 390 ;
391 [label="gini = 0.651\nsamples = 52\nvalue = [20, 20, 12]\nclass = DLS/DC", fillcolor="#ffffff"] ;
390 -> 391 ;
392 [label="gini = 0.654\nsamples = 66\nvalue = [16, 24, 26]\nclass = None", fillcolor="#f9f6fe"] ;
390 -> 392 ;
393 [label="sdComp <= 2.0\ngini = 0.586\nsamples = 64\nvalue = [12, 16, 36]\nclass = None", fillcolor="#caacf4"] ;
389 -> 393 ;
394 [label="gini = 0.592\nsamples = 26\nvalue = [4, 8, 14]\nclass = None", fillcolor="#d5bdf6"] ;
393 -> 394 ;
395 [label="gini = 0.576\nsamples = 38\nvalue = [8, 8, 22]\nclass = None", fillcolor="#c4a3f3"] ;
393 -> 395 ;
396 [label="sdComp <= 2.0\ngini = 0.254\nsamples = 154\nvalue = [8, 14, 132]\nclass = None", fillcolor="#9558e9"] ;
388 -> 396 ;
397 [label="sdComm <= 2.0\ngini = 0.093\nsamples = 82\nvalue = [0, 4, 78]\nclass = None", fillcolor="#8743e6"] ;
396 -> 397 ;
398 [label="gini = 0.0\nsamples = 34\nvalue = [0, 0, 34]\nclass = None", fillcolor="#8139e5"] ;
397 -> 398 ;
399 [label="gini = 0.153\nsamples = 48\nvalue = [0, 4, 44]\nclass = None", fillcolor="#8c4be7"] ;
397 -> 399 ;
400 [label="sdComm <= 2.0\ngini = 0.406\nsamples = 72\nvalue = [8, 10, 54]\nclass = None", fillcolor="#a672ed"] ;
396 -> 400 ;
401 [label="gini = 0.554\nsamples = 34\nvalue = [4, 10, 20]\nclass = None", fillcolor="#caacf4"] ;
400 -> 401 ;
402 [label="gini = 0.188\nsamples = 38\nvalue = [4, 0, 34]\nclass = None", fillcolor="#9050e8"] ;
400 -> 402 ;
403 [label="gini = 0.0\nsamples = 160\nvalue = [0, 0, 160]\nclass = None", fillcolor="#8139e5"] ;
373 -> 403 ;
404 [label="sdComm <= 2.0\ngini = 0.491\nsamples = 310\nvalue = [88, 20, 202]\nclass = None", fillcolor="#be99f2"] ;
372 -> 404 ;
405 [label="nbproc <= 4.5\ngini = 0.395\nsamples = 132\nvalue = [20, 12, 100]\nclass = None", fillcolor="#a572ec"] ;
404 -> 405 ;
406 [label="sdComp <= 2.0\ngini = 0.522\nsamples = 66\nvalue = [16, 8, 42]\nclass = None", fillcolor="#bd98f1"] ;
405 -> 406 ;
407 [label="gini = 0.349\nsamples = 38\nvalue = [6, 2, 30]\nclass = None", fillcolor="#a06aec"] ;
406 -> 407 ;
408 [label="gini = 0.643\nsamples = 28\nvalue = [10, 6, 12]\nclass = None", fillcolor="#f1e9fc"] ;
406 -> 408 ;
409 [label="sdComp <= 2.0\ngini = 0.22\nsamples = 66\nvalue = [4, 4, 58]\nclass = None", fillcolor="#9153e8"] ;
405 -> 409 ;
410 [label="gini = 0.0\nsamples = 18\nvalue = [0, 0, 18]\nclass = None", fillcolor="#8139e5"] ;
409 -> 410 ;
411 [label="gini = 0.292\nsamples = 48\nvalue = [4, 4, 40]\nclass = None", fillcolor="#985dea"] ;
409 -> 411 ;
412 [label="sdComp <= 2.0\ngini = 0.524\nsamples = 178\nvalue = [68, 8, 102]\nclass = None", fillcolor="#d8c2f7"] ;
404 -> 412 ;
413 [label="nbproc <= 4.5\ngini = 0.493\nsamples = 100\nvalue = [56, 0, 44]\nclass = DLS/DC", fillcolor="#f9e4d5"] ;
412 -> 413 ;
414 [label="gini = 0.0\nsamples = 8\nvalue = [0, 0, 8]\nclass = None", fillcolor="#8139e5"] ;
413 -> 414 ;
415 [label="gini = 0.476\nsamples = 92\nvalue = [56, 0, 36]\nclass = DLS/DC", fillcolor="#f6d2b8"] ;
413 -> 415 ;
416 [label="nbproc <= 4.5\ngini = 0.413\nsamples = 78\nvalue = [12, 8, 58]\nclass = None", fillcolor="#a775ed"] ;
412 -> 416 ;
417 [label="gini = 0.56\nsamples = 40\nvalue = [8, 8, 24]\nclass = None", fillcolor="#c09cf2"] ;
416 -> 417 ;
418 [label="gini = 0.188\nsamples = 38\nvalue = [4, 0, 34]\nclass = None", fillcolor="#9050e8"] ;
416 -> 418 ;
419 [label="graphSize <= 75.0\ngini = 0.194\nsamples = 398\nvalue = [20, 22, 356]\nclass = None", fillcolor="#8f4fe8"] ;
371 -> 419 ;
420 [label="sdComp <= 2.0\ngini = 0.34\nsamples = 190\nvalue = [20, 18, 152]\nclass = None", fillcolor="#9d65eb"] ;
419 -> 420 ;
421 [label="nbproc <= 4.5\ngini = 0.115\nsamples = 98\nvalue = [0, 6, 92]\nclass = None", fillcolor="#8946e7"] ;
420 -> 421 ;
422 [label="graphDepth <= 13.5\ngini = 0.185\nsamples = 58\nvalue = [0, 6, 52]\nclass = None", fillcolor="#9050e8"] ;
421 -> 422 ;
423 [label="gini = 0.0\nsamples = 14\nvalue = [0, 0, 14]\nclass = None", fillcolor="#8139e5"] ;
422 -> 423 ;
424 [label="gini = 0.236\nsamples = 44\nvalue = [0, 6, 38]\nclass = None", fillcolor="#9558e9"] ;
422 -> 424 ;
425 [label="gini = 0.0\nsamples = 40\nvalue = [0, 0, 40]\nclass = None", fillcolor="#8139e5"] ;
421 -> 425 ;
426 [label="nbproc <= 4.5\ngini = 0.51\nsamples = 92\nvalue = [20, 12, 60]\nclass = None", fillcolor="#b991f1"] ;
420 -> 426 ;
427 [label="graphDepth <= 13.5\ngini = 0.503\nsamples = 42\nvalue = [14, 2, 26]\nclass = None", fillcolor="#c9aaf4"] ;
426 -> 427 ;
428 [label="gini = 0.555\nsamples = 32\nvalue = [14, 2, 16]\nclass = None", fillcolor="#f1e9fc"] ;
427 -> 428 ;
429 [label="gini = 0.0\nsamples = 10\nvalue = [0, 0, 10]\nclass = None", fillcolor="#8139e5"] ;
427 -> 429 ;
430 [label="graphSize <= 40.0\ngini = 0.483\nsamples = 50\nvalue = [6, 10, 34]\nclass = None", fillcolor="#b388ef"] ;
426 -> 430 ;
431 [label="gini = 0.32\nsamples = 20\nvalue = [0, 4, 16]\nclass = None", fillcolor="#a06aec"] ;
430 -> 431 ;
432 [label="gini = 0.56\nsamples = 30\nvalue = [6, 6, 18]\nclass = None", fillcolor="#c09cf2"] ;
430 -> 432 ;
433 [label="nbproc <= 4.5\ngini = 0.038\nsamples = 208\nvalue = [0, 4, 204]\nclass = None", fillcolor="#833de6"] ;
419 -> 433 ;
434 [label="gini = 0.0\nsamples = 142\nvalue = [0, 0, 142]\nclass = None", fillcolor="#8139e5"] ;
433 -> 434 ;
435 [label="sdComp <= 2.0\ngini = 0.114\nsamples = 66\nvalue = [0, 4, 62]\nclass = None", fillcolor="#8946e7"] ;
433 -> 435 ;
436 [label="gini = 0.0\nsamples = 40\nvalue = [0, 0, 40]\nclass = None", fillcolor="#8139e5"] ;
435 -> 436 ;
437 [label="graphDepth <= 25.5\ngini = 0.26\nsamples = 26\nvalue = [0, 4, 22]\nclass = None", fillcolor="#985dea"] ;
435 -> 437 ;
438 [label="gini = 0.0\nsamples = 12\nvalue = [0, 0, 12]\nclass = None", fillcolor="#8139e5"] ;
437 -> 438 ;
439 [label="gini = 0.408\nsamples = 14\nvalue = [0, 4, 10]\nclass = None", fillcolor="#b388ef"] ;
437 -> 439 ;
440 [label="graphDepth <= 3.5\ngini = 0.459\nsamples = 1604\nvalue = [178, 298, 1128]\nclass = None", fillcolor="#af81ee"] ;
338 -> 440 ;
441 [label="gini = 0.0\nsamples = 108\nvalue = [0, 0, 108]\nclass = None", fillcolor="#8139e5"] ;
440 -> 441 ;
442 [label="graphSize <= 22.5\ngini = 0.481\nsamples = 1496\nvalue = [178, 298, 1020]\nclass = None", fillcolor="#b388ef"] ;
440 -> 442 ;
443 [label="nbproc <= 4.5\ngini = 0.595\nsamples = 418\nvalue = [86, 102, 230]\nclass = None", fillcolor="#ccaff4"] ;
442 -> 443 ;
444 [label="sdComm <= 6.5\ngini = 0.544\nsamples = 310\nvalue = [84, 38, 188]\nclass = None", fillcolor="#c5a4f3"] ;
443 -> 444 ;
445 [label="sdComm <= 2.0\ngini = 0.573\nsamples = 138\nvalue = [24, 34, 80]\nclass = None", fillcolor="#c7a7f4"] ;
444 -> 445 ;
446 [label="gini = 0.569\nsamples = 68\nvalue = [8, 22, 38]\nclass = None", fillcolor="#d3baf6"] ;
445 -> 446 ;
447 [label="gini = 0.558\nsamples = 70\nvalue = [16, 12, 42]\nclass = None", fillcolor="#c2a0f2"] ;
445 -> 447 ;
448 [label="gini = 0.484\nsamples = 172\nvalue = [60, 4, 108]\nclass = None", fillcolor="#c9aaf4"] ;
444 -> 448 ;
449 [label="sdComm <= 6.5\ngini = 0.497\nsamples = 108\nvalue = [2, 64, 42]\nclass = DCP", fillcolor="#bdf6d5"] ;
443 -> 449 ;
450 [label="sdComm <= 2.0\ngini = 0.335\nsamples = 40\nvalue = [2, 6, 32]\nclass = None", fillcolor="#9f68eb"] ;
449 -> 450 ;
451 [label="gini = 0.512\nsamples = 22\nvalue = [2, 6, 14]\nclass = None", fillcolor="#c09cf2"] ;
450 -> 451 ;
452 [label="gini = 0.0\nsamples = 18\nvalue = [0, 0, 18]\nclass = None", fillcolor="#8139e5"] ;
450 -> 452 ;
453 [label="gini = 0.251\nsamples = 68\nvalue = [0, 58, 10]\nclass = DCP", fillcolor="#5be997"] ;
449 -> 453 ;
454 [label="graphDepth <= 9.0\ngini = 0.423\nsamples = 1078\nvalue = [92, 196, 790]\nclass = None", fillcolor="#aa7aed"] ;
442 -> 454 ;
455 [label="graphDepth <= 6.5\ngini = 0.081\nsamples = 238\nvalue = [2, 8, 228]\nclass = None", fillcolor="#8642e6"] ;
454 -> 455 ;
456 [label="gini = 0.0\nsamples = 114\nvalue = [0, 0, 114]\nclass = None", fillcolor="#8139e5"] ;
455 -> 456 ;
457 [label="nbproc <= 4.5\ngini = 0.15\nsamples = 124\nvalue = [2, 8, 114]\nclass = None", fillcolor="#8c4ae7"] ;
455 -> 457 ;
458 [label="sdComm <= 6.5\ngini = 0.061\nsamples = 64\nvalue = [0, 2, 62]\nclass = None", fillcolor="#853fe6"] ;
457 -> 458 ;
459 [label="sdComm <= 2.0\ngini = 0.117\nsamples = 32\nvalue = [0, 2, 30]\nclass = None", fillcolor="#8946e7"] ;
458 -> 459 ;
460 [label="gini = 0.0\nsamples = 20\nvalue = [0, 0, 20]\nclass = None", fillcolor="#8139e5"] ;
459 -> 460 ;
461 [label="gini = 0.278\nsamples = 12\nvalue = [0, 2, 10]\nclass = None", fillcolor="#9a61ea"] ;
459 -> 461 ;
462 [label="gini = 0.0\nsamples = 32\nvalue = [0, 0, 32]\nclass = None", fillcolor="#8139e5"] ;
458 -> 462 ;
463 [label="sdComm <= 2.0\ngini = 0.238\nsamples = 60\nvalue = [2, 6, 52]\nclass = None", fillcolor="#9456e9"] ;
457 -> 463 ;
464 [label="gini = 0.34\nsamples = 20\nvalue = [2, 2, 16]\nclass = None", fillcolor="#9d65eb"] ;
463 -> 464 ;
465 [label="sdComm <= 6.5\ngini = 0.18\nsamples = 40\nvalue = [0, 4, 36]\nclass = None", fillcolor="#8f4fe8"] ;
463 -> 465 ;
466 [label="gini = 0.0\nsamples = 16\nvalue = [0, 0, 16]\nclass = None", fillcolor="#8139e5"] ;
465 -> 466 ;
467 [label="gini = 0.278\nsamples = 24\nvalue = [0, 4, 20]\nclass = None", fillcolor="#9a61ea"] ;
465 -> 467 ;
468 [label="sdComm <= 6.5\ngini = 0.491\nsamples = 840\nvalue = [90, 188, 562]\nclass = None", fillcolor="#b78df0"] ;
454 -> 468 ;
469 [label="sdComm <= 2.0\ngini = 0.489\nsamples = 568\nvalue = [78, 106, 384]\nclass = None", fillcolor="#b388ef"] ;
468 -> 469 ;
470 [label="nbproc <= 4.5\ngini = 0.545\nsamples = 260\nvalue = [42, 58, 160]\nclass = None", fillcolor="#bf9bf2"] ;
469 -> 470 ;
471 [label="graphSize <= 40.0\ngini = 0.569\nsamples = 164\nvalue = [28, 40, 96]\nclass = None", fillcolor="#c6a6f3"] ;
470 -> 471 ;
472 [label="gini = 0.608\nsamples = 84\nvalue = [16, 24, 44]\nclass = None", fillcolor="#d5bdf6"] ;
471 -> 472 ;
473 [label="graphDepth <= 25.5\ngini = 0.515\nsamples = 80\nvalue = [12, 16, 52]\nclass = None", fillcolor="#b890f0"] ;
471 -> 473 ;
474 [label="graphSize <= 75.0\ngini = 0.421\nsamples = 38\nvalue = [4, 6, 28]\nclass = None", fillcolor="#a877ed"] ;
473 -> 474 ;
475 [label="gini = 0.449\nsamples = 28\nvalue = [4, 4, 20]\nclass = None", fillcolor="#ab7bee"] ;
474 -> 475 ;
476 [label="gini = 0.32\nsamples = 10\nvalue = [0, 2, 8]\nclass = None", fillcolor="#a06aec"] ;
474 -> 476 ;
477 [label="gini = 0.58\nsamples = 42\nvalue = [8, 10, 24]\nclass = None", fillcolor="#c8a8f4"] ;
473 -> 477 ;
478 [label="graphSize <= 40.0\ngini = 0.499\nsamples = 96\nvalue = [14, 18, 64]\nclass = None", fillcolor="#b58af0"] ;
470 -> 478 ;
479 [label="gini = 0.0\nsamples = 12\nvalue = [0, 0, 12]\nclass = None", fillcolor="#8139e5"] ;
478 -> 479 ;
480 [label="graphDepth <= 25.5\ngini = 0.543\nsamples = 84\nvalue = [14, 18, 52]\nclass = None", fillcolor="#be99f2"] ;
478 -> 480 ;
481 [label="graphSize <= 75.0\ngini = 0.5\nsamples = 36\nvalue = [6, 6, 24]\nclass = None", fillcolor="#b388ef"] ;
480 -> 481 ;
482 [label="gini = 0.5\nsamples = 24\nvalue = [4, 4, 16]\nclass = None", fillcolor="#b388ef"] ;
481 -> 482 ;
483 [label="gini = 0.5\nsamples = 12\nvalue = [2, 2, 8]\nclass = None", fillcolor="#b388ef"] ;
481 -> 483 ;
484 [label="gini = 0.569\nsamples = 48\nvalue = [8, 12, 28]\nclass = None", fillcolor="#c7a7f3"] ;
480 -> 484 ;
485 [label="graphDepth <= 25.5\ngini = 0.433\nsamples = 308\nvalue = [36, 48, 224]\nclass = None", fillcolor="#aa79ed"] ;
469 -> 485 ;
486 [label="graphSize <= 75.0\ngini = 0.374\nsamples = 204\nvalue = [18, 28, 158]\nclass = None", fillcolor="#a26dec"] ;
485 -> 486 ;
487 [label="nbproc <= 4.5\ngini = 0.412\nsamples = 180\nvalue = [18, 28, 134]\nclass = None", fillcolor="#a775ed"] ;
486 -> 487 ;
488 [label="graphDepth <= 13.5\ngini = 0.459\nsamples = 134\nvalue = [14, 26, 94]\nclass = None", fillcolor="#b082ef"] ;
487 -> 488 ;
489 [label="gini = 0.314\nsamples = 22\nvalue = [2, 2, 18]\nclass = None", fillcolor="#9a61ea"] ;
488 -> 489 ;
490 [label="gini = 0.482\nsamples = 112\nvalue = [12, 24, 76]\nclass = None", fillcolor="#b58af0"] ;
488 -> 490 ;
491 [label="graphDepth <= 13.5\ngini = 0.234\nsamples = 46\nvalue = [4, 2, 40]\nclass = None", fillcolor="#9355e9"] ;
487 -> 491 ;
492 [label="gini = 0.0\nsamples = 10\nvalue = [0, 0, 10]\nclass = None", fillcolor="#8139e5"] ;
491 -> 492 ;
493 [label="gini = 0.29\nsamples = 36\nvalue = [4, 2, 30]\nclass = None", fillcolor="#995eea"] ;
491 -> 493 ;
494 [label="gini = 0.0\nsamples = 24\nvalue = [0, 0, 24]\nclass = None", fillcolor="#8139e5"] ;
486 -> 494 ;
495 [label="nbproc <= 4.5\ngini = 0.53\nsamples = 104\nvalue = [18, 20, 66]\nclass = None", fillcolor="#ba93f1"] ;
485 -> 495 ;
496 [label="gini = 0.368\nsamples = 54\nvalue = [8, 4, 42]\nclass = None", fillcolor="#a26dec"] ;
495 -> 496 ;
497 [label="gini = 0.627\nsamples = 50\nvalue = [10, 16, 24]\nclass = None", fillcolor="#e1d0f9"] ;
495 -> 497 ;
498 [label="nbproc <= 4.5\ngini = 0.479\nsamples = 272\nvalue = [12, 82, 178]\nclass = None", fillcolor="#bf9bf2"] ;
468 -> 498 ;
499 [label="graphDepth <= 13.5\ngini = 0.368\nsamples = 126\nvalue = [10, 18, 98]\nclass = None", fillcolor="#a26cec"] ;
498 -> 499 ;
500 [label="gini = 0.551\nsamples = 60\nvalue = [8, 16, 36]\nclass = None", fillcolor="#c6a5f3"] ;
499 -> 500 ;
501 [label="graphSize <= 75.0\ngini = 0.116\nsamples = 66\nvalue = [2, 2, 62]\nclass = None", fillcolor="#8945e7"] ;
499 -> 501 ;
502 [label="gini = 0.0\nsamples = 20\nvalue = [0, 0, 20]\nclass = None", fillcolor="#8139e5"] ;
501 -> 502 ;
503 [label="graphDepth <= 25.5\ngini = 0.163\nsamples = 46\nvalue = [2, 2, 42]\nclass = None", fillcolor="#8c4be7"] ;
501 -> 503 ;
504 [label="gini = 0.198\nsamples = 18\nvalue = [2, 0, 16]\nclass = None", fillcolor="#9152e8"] ;
503 -> 504 ;
505 [label="gini = 0.133\nsamples = 28\nvalue = [0, 2, 26]\nclass = None", fillcolor="#8b48e7"] ;
503 -> 505 ;
506 [label="graphSize <= 75.0\ngini = 0.507\nsamples = 146\nvalue = [2, 64, 80]\nclass = None", fillcolor="#e6d8fa"] ;
498 -> 506 ;
507 [label="graphSize <= 40.0\ngini = 0.392\nsamples = 48\nvalue = [2, 10, 36]\nclass = None", fillcolor="#a978ed"] ;
506 -> 507 ;
508 [label="gini = 0.426\nsamples = 26\nvalue = [0, 8, 18]\nclass = None", fillcolor="#b991f1"] ;
507 -> 508 ;
509 [label="gini = 0.314\nsamples = 22\nvalue = [2, 2, 18]\nclass = None", fillcolor="#9a61ea"] ;
507 -> 509 ;
510 [label="graphDepth <= 25.5\ngini = 0.495\nsamples = 98\nvalue = [0, 54, 44]\nclass = DCP", fillcolor="#dafae8"] ;
506 -> 510 ;
511 [label="gini = 0.397\nsamples = 66\nvalue = [0, 48, 18]\nclass = DCP", fillcolor="#83efb0"] ;
510 -> 511 ;
512 [label="gini = 0.305\nsamples = 32\nvalue = [0, 6, 26]\nclass = None", fillcolor="#9e67eb"] ;
510 -> 512 ;
}