digraph Tree {
node [shape=box, style="filled", color="black"] ;
0 [label="sdComp <= 0.65\ngini = 0.487\nsamples = 48239\nvalue = [20215, 28024]\nclass = True", fillcolor="#c8e4f8"] ;
1 [label="graphDepth <= 3.5\ngini = 0.493\nsamples = 37696\nvalue = [16636, 21060]\nclass = True", fillcolor="#d5eafa"] ;
0 -> 1 [labeldistance=2.5, labelangle=45, headlabel="True"] ;
2 [label="nbproc <= 4.5\ngini = 0.461\nsamples = 4630\nvalue = [1670, 2960]\nclass = True", fillcolor="#a9d4f4"] ;
1 -> 2 ;
3 [label="sdComp <= 0.065\ngini = 0.331\nsamples = 1252\nvalue = [262, 990]\nclass = True", fillcolor="#6db7ec"] ;
2 -> 3 ;
4 [label="(...)", fillcolor="#C0C0C0"] ;
3 -> 4 ;
5 [label="(...)", fillcolor="#C0C0C0"] ;
3 -> 5 ;
18 [label="sdComp <= 0.065\ngini = 0.486\nsamples = 3378\nvalue = [1408, 1970]\nclass = True", fillcolor="#c7e3f8"] ;
2 -> 18 ;
19 [label="(...)", fillcolor="#C0C0C0"] ;
18 -> 19 ;
30 [label="(...)", fillcolor="#C0C0C0"] ;
18 -> 30 ;
47 [label="sdComp <= 0.065\ngini = 0.496\nsamples = 33066\nvalue = [14966, 18100]\nclass = True", fillcolor="#ddeefa"] ;
1 -> 47 ;
48 [label="nbproc <= 4.5\ngini = 0.499\nsamples = 10296\nvalue = [4960, 5336]\nclass = True", fillcolor="#f1f8fd"] ;
47 -> 48 ;
49 [label="(...)", fillcolor="#C0C0C0"] ;
48 -> 49 ;
132 [label="(...)", fillcolor="#C0C0C0"] ;
48 -> 132 ;
215 [label="sdComm <= 0.065\ngini = 0.493\nsamples = 22770\nvalue = [10006, 12764]\nclass = True", fillcolor="#d4eaf9"] ;
47 -> 215 ;
216 [label="(...)", fillcolor="#C0C0C0"] ;
215 -> 216 ;
269 [label="(...)", fillcolor="#C0C0C0"] ;
215 -> 269 ;
460 [label="nbproc <= 4.5\ngini = 0.448\nsamples = 10543\nvalue = [3579, 6964]\nclass = True", fillcolor="#9fcff2"] ;
0 -> 460 [labeldistance=2.5, labelangle=-45, headlabel="False"] ;
461 [label="sdComp <= 6.5\ngini = 0.422\nsamples = 5277\nvalue = [1597, 3680]\nclass = True", fillcolor="#8fc8f0"] ;
460 -> 461 ;
462 [label="graphSize <= 22.5\ngini = 0.379\nsamples = 3447\nvalue = [877, 2570]\nclass = True", fillcolor="#7dbeee"] ;
461 -> 462 ;
463 [label="(...)", fillcolor="#C0C0C0"] ;
462 -> 463 ;
488 [label="(...)", fillcolor="#C0C0C0"] ;
462 -> 488 ;
555 [label="graphDepth <= 3.5\ngini = 0.477\nsamples = 1830\nvalue = [720, 1110]\nclass = True", fillcolor="#b9ddf6"] ;
461 -> 555 ;
556 [label="(...)", fillcolor="#C0C0C0"] ;
555 -> 556 ;
557 [label="(...)", fillcolor="#C0C0C0"] ;
555 -> 557 ;
584 [label="CCR <= 5.5\ngini = 0.469\nsamples = 5266\nvalue = [1982, 3284]\nclass = True", fillcolor="#b0d8f5"] ;
460 -> 584 ;
585 [label="graphSize <= 40.0\ngini = 0.481\nsamples = 3264\nvalue = [1314, 1950]\nclass = True", fillcolor="#bedff7"] ;
584 -> 585 ;
586 [label="(...)", fillcolor="#C0C0C0"] ;
585 -> 586 ;
609 [label="(...)", fillcolor="#C0C0C0"] ;
585 -> 609 ;
632 [label="sdComp <= 6.5\ngini = 0.445\nsamples = 2002\nvalue = [668, 1334]\nclass = True", fillcolor="#9ccef2"] ;
584 -> 632 ;
633 [label="(...)", fillcolor="#C0C0C0"] ;
632 -> 633 ;
668 [label="(...)", fillcolor="#C0C0C0"] ;
632 -> 668 ;
}