digraph Tree {
node [shape=box, style="filled", color="black"] ;
0 [label="graphDepth <= 3.5\ngini = 0.5\nsamples = 30577\nvalue = [15272, 15305]\nclass = True", fillcolor="#ffffff"] ;
1 [label="sdComp <= 6.5\ngini = 0.5\nsamples = 3679\nvalue = [1829, 1850]\nclass = True", fillcolor="#fdfeff"] ;
0 -> 1 [labeldistance=2.5, labelangle=45, headlabel="True"] ;
2 [label="CCR <= 0.55\ngini = 0.5\nsamples = 3439\nvalue = [1713, 1726]\nclass = True", fillcolor="#fefeff"] ;
1 -> 2 ;
3 [label="nbproc <= 4.5\ngini = 0.5\nsamples = 1595\nvalue = [797, 798]\nclass = True", fillcolor="#ffffff"] ;
2 -> 3 ;
4 [label="(...)", fillcolor="#C0C0C0"] ;
3 -> 4 ;
19 [label="(...)", fillcolor="#C0C0C0"] ;
3 -> 19 ;
34 [label="sdComm <= 0.2\ngini = 0.5\nsamples = 1844\nvalue = [916, 928]\nclass = True", fillcolor="#fcfeff"] ;
2 -> 34 ;
35 [label="(...)", fillcolor="#C0C0C0"] ;
34 -> 35 ;
46 [label="(...)", fillcolor="#C0C0C0"] ;
34 -> 46 ;
91 [label="nbproc <= 4.5\ngini = 0.499\nsamples = 240\nvalue = [116, 124]\nclass = True", fillcolor="#f2f9fd"] ;
1 -> 91 ;
92 [label="sdComm <= 2.0\ngini = 0.493\nsamples = 70\nvalue = [31, 39]\nclass = True", fillcolor="#d6ebfa"] ;
91 -> 92 ;
93 [label="(...)", fillcolor="#C0C0C0"] ;
92 -> 93 ;
94 [label="(...)", fillcolor="#C0C0C0"] ;
92 -> 94 ;
97 [label="sdComm <= 2.0\ngini = 0.5\nsamples = 170\nvalue = [85, 85]\nclass = False", fillcolor="#ffffff"] ;
91 -> 97 ;
98 [label="(...)", fillcolor="#C0C0C0"] ;
97 -> 98 ;
99 [label="(...)", fillcolor="#C0C0C0"] ;
97 -> 99 ;
102 [label="sdComm <= 6.5\ngini = 0.5\nsamples = 26898\nvalue = [13443, 13455]\nclass = True", fillcolor="#ffffff"] ;
0 -> 102 [labeldistance=2.5, labelangle=-45, headlabel="False"] ;
103 [label="sdComp <= 0.02\ngini = 0.5\nsamples = 23224\nvalue = [11612, 11612]\nclass = False", fillcolor="#ffffff"] ;
102 -> 103 ;
104 [label="nbproc <= 4.5\ngini = 0.5\nsamples = 2124\nvalue = [1062, 1062]\nclass = False", fillcolor="#ffffff"] ;
103 -> 104 ;
105 [label="(...)", fillcolor="#C0C0C0"] ;
104 -> 105 ;
146 [label="(...)", fillcolor="#C0C0C0"] ;
104 -> 146 ;
185 [label="CCR <= 0.55\ngini = 0.5\nsamples = 21100\nvalue = [10550, 10550]\nclass = False", fillcolor="#ffffff"] ;
103 -> 185 ;
186 [label="(...)", fillcolor="#C0C0C0"] ;
185 -> 186 ;
339 [label="(...)", fillcolor="#C0C0C0"] ;
185 -> 339 ;
732 [label="sdComp <= 2.0\ngini = 0.5\nsamples = 3674\nvalue = [1831, 1843]\nclass = True", fillcolor="#fefeff"] ;
102 -> 732 ;
733 [label="graphDepth <= 6.5\ngini = 0.5\nsamples = 1232\nvalue = [610, 622]\nclass = True", fillcolor="#fbfdfe"] ;
732 -> 733 ;
734 [label="(...)", fillcolor="#C0C0C0"] ;
733 -> 734 ;
741 [label="(...)", fillcolor="#C0C0C0"] ;
733 -> 741 ;
760 [label="graphDepth <= 6.5\ngini = 0.5\nsamples = 2442\nvalue = [1221, 1221]\nclass = False", fillcolor="#ffffff"] ;
732 -> 760 ;
761 [label="(...)", fillcolor="#C0C0C0"] ;
760 -> 761 ;
776 [label="(...)", fillcolor="#C0C0C0"] ;
760 -> 776 ;
}